-0.5 0.4 -0.4 0 0.2 -0.5 -0.3 -0.5 -0.2 0 0 0.3 0.4 -0.2 0.5 0 0 -0.4 -0.1 0 -0.3 0.3 -0.2 -0.1 -0.4 -0.2 0.3 -0.1 -0.3 -0.4 0.5 0 0.4 0.2 0.4 0.3 0.3 0.2 0.3 -0.2 -0.5 0.4 0.2 0.2 -0.4 0.3 0.1 -0.4 0 -0.5 -0.5 0 0 -0.2 0 -0.5 0.4 0.3 -0.3 0 0 0 -0.5 -0.4 -0.4 0.4 -0.4 0.4 -0.5 -0.3 -0.5 -0.3 -0.5 -0.2 0 0.4 0.4 -0.2 0.5 0.5 0.5 0.5 0.3 -0.3 0.2 -0.2 0.4 0.3 0.3 0.4 0 -0.1 0.2 0.2 -0.5 0.1 0.1 -0.3 0.5 -0.4 -0.2 -0.3 0.5 -0.2 0.3 0.4 0.5 -0.2 -0.1 -0.3 -0.3 0.5 0 0 0.2 0.5 -0.2 -0.1 0 0.4 0.5 0.5 0.5 -0.4 0.3 0 0.3 0.2 
0.2 -0.5 0 0 0 0.3 -0.5 0 0.5 -0.2 0.2 -0.1 0 -0.3 -0.1 0.1 0.1 0.4 -0.3 0.2 0 -0.5 0.3 0 -0.1 0.1 -0.2 0 0.3 -0.3 -0.4 -0.1 -0.1 0.1 -0.5 -0.4 0.1 0.4 0 0.1 0.1 0.5 -0.1 -0.1 0.2 0.5 0 -0.4 0.4 -0.4 0.2 -0.1 -0.2 -0.2 0.5 0.3 -0.2 0.2 -0.3 0.3 0.2 0.2 -0.5 0.5 0.1 -0.4 0 0.2 0.5 -0.2 -0.1 0.5 -0.2 -0.4 0.5 0.2 -0.1 0.1 -0.3 -0.4 -0.2 -0.3 0 -0.5 -0.5 0.4 0.2 0.4 -0.2 -0.2 0.4 -0.5 -0.2 0.5 -0.4 0.2 0 -0.1 0.4 0.4 -0.2 0.3 -0.2 0 -0.4 0.3 0 0.5 0.5 0.5 0 0.3 0.4 -0.1 -0.2 -0.1 -0.2 -0.2 0.4 -0.2 -0.1 -0.5 0.4 0.4 0.4 -0.3 -0.5 -0.4 
0.2 0.1 0.1 0.5 0.1 0.4 -0.5 0 0.1 -0.4 -0.2 -0.2 -0.1 -0.2 0 0 0 0 -0.4 0.4 -0.1 0.2 0.3 0.1 -0.3 -0.3 0.2 -0.2 0 -0.5 -0.3 -0.5 -0.4 0.5 0 0.4 0.4 -0.5 0.5 -0.5 -0.1 0 -0.2 -0.2 0.1 -0.3 -0.5 -0.2 0.2 -0.1 0.4 -0.3 -0.2 -0.2 0.1 0.1 0 0 -0.3 -0.3 0.2 -0.1 0.2 0.5 0.1 0.1 -0.2 0.4 -0.4 0.5 -0.5 0.4 -0.4 -0.3 0.1 0 -0.4 0.2 -0.5 0.3 0.1 -0.1 -0.4 0.3 0 -0.1 -0.3 -0.4 -0.2 -0.5 -0.1 -0.4 0.3 0.3 0.4 -0.4 0 0.4 -0.3 0.5 -0.1 0.5 0.1 0 0 -0.3 -0.2 0.4 0.5 -0.3 -0.4 0.3 0.4 -0.2 -0.5 -0.2 0 -0.4 -0.5 -0.2 0 -0.2 0 -0.3 0.4 0.1 0.3 -0.3 
-0.5 0.5 -0.3 0.3 0 -0.1 -0.3 -0.1 0.2 0.2 0 0.2 0 -0.3 0 0.1 0.5 0 0 -0.3 0.4 -0.5 -0.4 0.3 0.2 -0.1 -0.5 -0.4 0.5 0.2 -0.3 0.2 0.4 0.2 -0.3 0.3 0.4 -0.3 -0.4 0.5 0 0.4 0.4 0.5 -0.3 0.3 -0.1 -0.4 0 0.4 -0.3 0 0.2 0 -0.2 0 0 -0.1 -0.4 0.2 0.4 0.5 0 -0.4 -0.5 0.3 0 0.3 0 0.5 -0.1 0.3 0.5 -0.3 -0.1 0.2 -0.5 0.3 0.4 -0.2 0 0.1 -0.1 -0.3 -0.3 0 -0.2 -0.3 -0.3 0.3 0.2 0.4 -0.4 0 0.1 -0.1 -0.5 0.2 -0.2 0 0.3 0 -0.4 -0.3 0.2 0 -0.1 0.3 -0.1 -0.3 0.5 0.5 0 -0.1 0.2 0.3 -0.4 -0.4 -0.5 0 0 0.5 -0.2 0.4 -0.4 -0.4 -0.3 0.5 
0.1 -0.4 -0.3 0.4 0.4 -0.1 -0.4 0.2 0.1 0 0.5 0.4 0.1 0.2 -0.2 0 -0.2 0.4 -0.2 -0.3 0.5 0 -0.2 0.4 0.5 0.4 0.2 -0.1 -0.4 0.3 0.2 0.2 0.3 0 0 -0.3 0.3 0.1 0.1 0.3 0.2 -0.5 0.1 0.2 0.3 0.5 0 -0.2 0.4 0 0.3 0.3 -0.5 -0.1 -0.2 0 -0.2 0 -0.2 -0.3 0.3 0.5 -0.2 -0.4 0 -0.4 0 -0.5 -0.3 -0.2 -0.1 0.4 0.4 -0.5 0.1 0.4 0 0 0 0.3 -0.1 -0.3 -0.3 -0.1 0.4 -0.5 0.4 0 0 -0.3 -0.3 0.4 0.3 0.4 0 0.1 0.2 0.5 -0.4 0.2 0.1 0 0.1 0.5 -0.3 -0.3 0 -0.4 -0.4 0.3 0.2 0.3 0.5 0.3 -0.4 0.2 -0.4 -0.4 0.4 -0.4 -0.2 0.2 -0.5 -0.2 0 -0.2 0 0.4 
0.1 0 0.3 0 -0.3 -0.4 0 0.1 0.1 0.5 0.1 -0.2 -0.5 0.1 0.3 0.3 -0.1 0 0.5 0.3 0.2 -0.3 -0.5 -0.5 0.2 0 -0.2 -0.5 0 0.1 0.3 -0.1 -0.5 -0.5 0.2 0 0.1 0.2 -0.2 -0.2 -0.4 0 0 0.3 0.5 -0.1 0.3 -0.4 0.4 0.3 -0.2 -0.4 -0.1 -0.5 0 -0.2 0.2 0.2 -0.2 0.1 0.1 -0.4 0.2 0.5 0.2 0 -0.2 -0.2 0.5 -0.1 -0.3 -0.2 0 -0.3 0.1 -0.2 0 -0.5 0 0 0.5 -0.1 0 0.1 0.3 0 0.3 -0.1 0.1 0 0.1 0.3 -0.1 -0.3 0.5 0.4 0 0.5 0.5 -0.5 0 0.2 -0.2 -0.5 0.3 0.2 0.5 -0.3 0.2 -0.3 0 0.5 0.3 0.4 0.5 0.1 0 0.2 -0.4 0.1 0 0 -0.1 0.3 -0.1 0.4 0.2 -0.2 
0 -0.5 -0.1 0.4 -0.1 0.1 0 0.5 -0.2 0.3 -0.3 0.4 0 0 -0.3 0 0.5 -0.4 0.3 -0.5 -0.1 0 0.1 -0.2 0.5 0 0.5 -0.5 -0.3 0 0.4 -0.3 -0.2 -0.1 0.5 -0.5 0.2 0 0.5 0.4 0.1 -0.3 -0.5 -0.4 -0.1 0.4 0.1 -0.2 0.2 0 0 -0.5 0.5 -0.3 0.5 -0.2 0.5 0.1 -0.5 -0.4 0.3 0.4 -0.2 0.1 0.3 -0.4 -0.2 0 0.4 0.5 -0.3 -0.5 0.1 -0.1 -0.2 0.5 -0.3 -0.2 -0.5 0.3 0 0.1 -0.4 -0.3 0.2 -0.2 -0.5 0.1 0.4 0.4 -0.4 0.5 0 -0.4 -0.2 -0.4 -0.1 0 0.2 0.1 0 -0.1 0.5 0.4 -0.3 -0.1 0.4 -0.1 -0.4 0.5 0.1 0.1 0.1 0.1 -0.1 0 -0.4 0 -0.2 0.5 0.4 -0.5 -0.1 0 -0.3 -0.3 -0.4 -0.5 
0 0.3 -0.5 0.1 0 0.1 -0.2 0 -0.3 0.5 0.1 0 -0.3 -0.5 -0.1 0.1 0 0.3 0 -0.1 -0.4 0 0 0 -0.4 -0.2 0 -0.2 0 0.4 0.5 0.2 0.5 0 -0.2 0.5 -0.2 -0.2 -0.2 -0.4 -0.1 0.4 0 -0.4 0 0.2 0.2 0 0 -0.3 -0.1 -0.2 -0.1 -0.5 -0.5 0.5 -0.1 -0.4 -0.1 0.4 0.4 -0.5 0 -0.2 -0.5 0.1 0 0 -0.2 0.2 -0.5 0 -0.3 -0.4 -0.2 0.5 -0.4 0 -0.3 0 0.5 -0.1 -0.3 -0.2 -0.5 0.5 -0.4 0 0.1 0.2 -0.5 0.2 -0.5 -0.4 -0.5 -0.1 -0.1 -0.3 0.3 -0.4 0.3 -0.3 -0.2 -0.4 0 0.1 0 0 0 0.3 -0.2 0.1 0.3 -0.2 0 -0.3 0 0.5 0.3 -0.3 0 0 0 0 -0.3 0.3 0 0.1 
0.1 0 0.5 -0.1 -0.2 -0.4 -0.4 -0.3 -0.3 0.1 0.1 0 0.2 -0.3 0 0 0.5 -0.1 0 0.3 -0.1 0.5 -0.5 -0.1 -0.5 0.5 -0.1 0 -0.5 -0.3 -0.4 0 0.5 -0.2 -0.3 0 -0.5 0.1 0.1 0 -0.1 0 0.4 0.1 0 0 0.3 -0.2 -0.4 0 0.2 0.5 -0.5 -0.5 0 -0.1 0.1 -0.3 0.3 0.3 0.2 0.5 0.3 -0.4 -0.1 0.1 -0.4 -0.1 0.3 0.1 0.3 -0.5 0 0 0 -0.1 -0.5 0.5 0.1 0.1 0 0.5 0.3 0.4 0 0 0.4 0.5 -0.2 -0.2 0.5 0 0.1 -0.5 -0.1 0.5 0 -0.5 0 0.3 0.5 0.1 0.4 -0.4 0.2 0 -0.5 0.3 0.1 -0.5 -0.4 0.5 0.5 -0.5 0.2 -0.4 0 0.5 0.5 0.3 0.2 0 -0.4 0.1 -0.3 0 0.2 0 
0.3 -0.2 0.5 -0.2 0.5 -0.5 -0.2 -0.1 0 0.1 -0.4 0.2 0.5 0 -0.4 0.5 0 -0.3 0.3 -0.1 0 0 -0.1 0 -0.3 -0.3 0.1 0.5 0.5 -0.3 -0.4 -0.5 -0.4 -0.3 0 0.3 -0.5 -0.1 -0.3 0.1 0.2 0.1 0.1 0 0 0.4 0.5 -0.2 -0.1 0.3 0.2 0 0.3 -0.3 0.4 0.1 -0.1 0.1 0.3 -0.2 0 -0.3 -0.3 0.5 0.2 -0.4 -0.2 -0.1 -0.1 -0.5 0.3 0.5 -0.3 -0.4 0 -0.3 0.5 0.4 -0.2 0 0.5 0.3 0.1 0.4 -0.1 0.3 0.1 0.4 0 -0.3 -0.4 0.4 -0.2 -0.1 0 0 0.3 -0.4 -0.1 -0.1 -0.2 0.2 -0.5 0.2 -0.4 0.1 0.4 -0.4 0.3 0.5 -0.1 0.5 0.1 0 -0.5 0.5 -0.4 0.1 -0.4 0 0.3 0.3 -0.2 -0.4 -0.2 0 -0.4 -0.4 
-0.3 0.5 -0.1 -0.4 -0.5 0.3 -0.4 -0.4 0.3 0 -0.2 0.3 -0.5 0.3 0.4 0 0.5 0.1 0.1 -0.5 0.1 0.5 0 0.3 0.4 -0.3 -0.2 0.1 -0.2 -0.4 -0.5 -0.1 -0.4 -0.3 0.1 -0.5 -0.2 -0.3 0 -0.1 -0.4 -0.2 0.4 0.1 -0.2 0.4 -0.2 -0.4 -0.1 0.2 -0.5 0.3 -0.5 -0.2 0 0.1 -0.1 0.2 0.4 0.2 -0.4 -0.4 0.5 0.3 -0.4 0 0 -0.2 0.2 0 0 0 -0.3 0 -0.4 0.1 0.4 0.1 0.2 0.5 -0.2 -0.5 0.2 -0.2 0.4 0 -0.2 -0.5 -0.1 0.3 0.1 0.1 -0.3 0.2 0.5 -0.4 -0.1 -0.4 -0.2 -0.4 0 0 0 -0.5 0.3 0 0.3 -0.1 -0.1 0.3 0 0.1 0.1 0.1 0.1 0.1 -0.2 0.5 -0.2 0 -0.1 -0.4 -0.2 0 -0.2 0.5 0.3 -0.1 
0 -0.3 0.3 -0.2 0 0.4 -0.4 -0.5 0.3 0.2 0 -0.1 0 0 -0.1 0.5 -0.4 -0.3 0 0.5 0.4 -0.2 0.2 0.5 0.3 0.2 0.3 0.1 -0.3 -0.1 -0.4 0 -0.3 0.4 0.4 -0.2 -0.2 0.2 -0.1 0.1 0.5 0.3 -0.5 0 0.5 0 -0.3 0 -0.1 0.3 0.1 -0.5 -0.1 0 -0.5 -0.4 0.3 -0.3 0 -0.1 -0.3 0.4 -0.1 -0.2 -0.5 -0.5 0 0 -0.2 0.3 0.2 0.1 -0.2 0 0.3 -0.5 -0.3 0 0 -0.4 0.5 0.5 0.2 0 0.5 0.5 0 -0.5 -0.2 0.3 -0.2 -0.5 0 0.4 0.2 -0.1 -0.4 -0.3 0.1 0.3 -0.5 -0.4 -0.3 0.1 -0.3 0.1 0 -0.2 0.1 -0.1 -0.2 0.5 0.1 0.2 0 -0.4 0 0.3 0.3 0.4 0.5 0 -0.1 -0.1 -0.2 -0.3 0.5 0.5 
-5.06679e-05 0.498959 0.500215 -0.497673 0.200515 -0.0996556 0.000509311 0.39828 0.000237358 0.4 -0.200355 -0.101126 -0.500421 0.500048 -0.0973664 0.000460637 0.0984418 -0.300329 -0.200326 -0.397236 -0.501825 -0.00619153 -0.303316 1.26308e-06 1.77992e-05 0.399042 -0.101951 0.396696 0.199999 -0.500645 0.100224 2.65811e-07 0.199775 0.500004 -0.299865 -0.00342294 -0.299828 -0.00139015 0.199376 0.0996862 -0.099999 -0.200114 -0.400007 -0.102911 0.50013 0.00110807 -0.100171 -6.40168e-05 -0.0999992 -5.90953e-05 0.00018099 -0.396577 0.500088 7.81081e-05 -0.3 0.00109315 -0.100013 -0.299955 -0.000100301 0.4 -0.0991956 -0.299941 -0.3 -0.201158 0.296492 0.5 -0.199949 0.0047938 -0.100018 0.496488 0.199998 -0.000891975 0.301172 0.295271 0.499951 -0.3 -1.78157e-05 -0.499841 -0.100256 0.499978 -0.200156 0.500173 0.099818 0.400069 0.19999 -0.100182 0.5005 0.000411139 0.0999838 -0.000474846 0.00023705 -0.501057 -0.399864 0.499148 0.300004 0.29993 0.00216105 -0.299956 1.50926e-07 -0.500221 -0.100029 0.501872 -0.000984778 0.300019 -0.199999 -0.500085 -0.399966 0.100509 0.50172 0.00130087 0.0994733 0.5 0.100031 0.297319 2.47062e-06 -0.0999978 -0.39937 0.400005 0.300692 -0.00214626 -0.099758 0.100001 -0.500235 0.097512 -0.498478 0.499985 -0.499847 0.000708413 
0.499949 -0.201041 -0.499785 -0.297673 -0.0994847 -0.0996556 -0.399491 0.19828 0.200237 0.4 -0.500355 0.498874 0.399579 -0.399952 0.302634 0.100461 -0.0015582 0.0996709 -0.300326 -0.397236 -0.401825 -0.106192 -0.403316 -0.299999 0.500018 -0.400958 -0.00195093 0.196696 -8.48768e-07 0.399355 0.000224458 -0.3 -0.000225142 0.100004 -0.399865 -0.503423 0.300172 -0.00139015 -0.100624 -0.200314 -0.499999 0.399886 0.399993 -0.402911 -0.29987 0.201108 -0.200171 -0.200064 -0.299999 -0.300059 0.00018099 0.303423 -0.299912 -0.199922 0.4 -0.398907 -0.400013 -0.399955 0.0998997 -0.4 -0.299196 0.300059 0.1 0.298842 0.496492 -2.70406e-08 0.500051 0.104794 0.499982 -0.203512 0.199998 -0.000891975 0.101172 0.295271 -0.500049 0.2 -0.400018 -0.199841 0.0997443 -0.200022 0.499844 -0.0998268 0.499818 -0.399931 -0.50001 0.199818 0.1005 -0.299589 -1.61609e-05 0.399525 -0.299763 -0.00105695 0.100136 0.199148 -0.199996 -7.01346e-05 0.102161 4.3816e-05 -0.3 0.199779 -2.86424e-05 -0.0981277 -0.300985 -0.0999812 1.29425e-06 0.199915 -0.0999665 0.200509 0.00171992 0.401301 0.399473 0.3 0.200031 -0.402681 -0.0999975 -0.199998 0.000630235 0.400005 -0.299308 -0.302146 -0.499758 0.200001 0.499765 -0.202488 -0.298478 -0.200015 0.300153 0.000708413 
-0.500026 -0.200061 0.299993 -0.0999084 0.5 -1.10101e-05 0.000308376 0.0999996 0.300237 0.2 0.0999999 -0.499997 0.400018 -0.3 -1.97473e-05 -0.199992 0.500004 -0.0999946 -0.500326 0.399939 -0.0999987 -5.37065e-05 0.399988 -2.34165e-09 -0.200003 -0.0999568 -0.500068 8.92623e-05 0.299998 0.399992 0.299992 -0.1 -0.5 -6.84272e-08 -0.299847 1.66063e-06 0.400004 -0.100012 0.2 5.62234e-05 0.4 -0.100112 0.5 0.399953 0.100016 -0.199982 0.0999999 -0.400001 -0.300003 -0.400062 -0.500055 0.19995 -0.299892 0.400076 -0.2 8.11993e-05 0.199987 0.500045 0.0999997 0.5 -0.0999534 -0.199995 -0.4 0.500012 -0.399998 -2.51524e-08 -0.100074 0.300019 7.20043e-06 -0.300002 0.199998 -0.099894 1.88759e-06 0.1 0.0999998 4.52636e-09 0.500021 0.099786 -0.500152 0.0999731 -0.400003 0.0999881 -0.000173499 0.400001 -0.199953 -0.30017 0.399918 0.200014 0.100002 -3.17341e-05 0.2 2.92439e-08 -0.199863 0.199955 -0.400001 9.05006e-05 8.4366e-08 1.99322e-05 -0.4 -0.4 -0.200035 -0.299997 -2.78835e-06 0.400042 -6.84193e-08 -0.30005 0.399999 0.399974 -9.90897e-07 -7.98158e-05 -8.11173e-06 0.5 0.400012 -0.29999 -3.05805e-06 0.100007 0.199993 0.400003 -0.400001 0.100004 0.0999998 -0.499997 0.199999 0.100014 0.5 2.90112e-07 -0.099999 -0.0995871 
-0.300026 0.0999386 0.499993 9.15979e-05 -0.4 0.499989 -0.399692 0.2 -0.199763 0.0999999 0.3 -0.499997 -0.0999818 -0.2 -1.97473e-05 0.100008 -0.499996 -0.0999946 -0.300326 0.199939 0.400001 -0.500054 0.499988 -2.34165e-09 -0.100003 0.100043 0.499932 0.100089 -1.67437e-06 0.299992 -0.500008 -1.39423e-08 -0.3 0.2 0.000153172 -0.399998 4.08576e-06 0.0999883 -0.1 5.62234e-05 4.40797e-07 -0.000112479 -4.10217e-07 0.499953 0.200016 0.200018 0.0999999 -0.200001 -0.300003 -0.300062 -0.100055 0.29995 0.500108 7.59772e-05 -0.5 0.400081 -1.25287e-05 0.500045 0.3 -3.39302e-07 -0.399953 -0.399995 -0.2 -0.399988 -0.199998 0.1 -0.100074 0.200019 7.20043e-06 0.399998 0.199998 -0.399894 0.500002 0.3 -1.82118e-07 -0.2 0.200021 0.399786 0.199848 -0.400027 0.399997 0.499988 -0.000173499 0.200001 -0.299953 0.19983 -0.300082 0.400014 -0.199998 -0.500032 -1.32665e-07 -0.4 0.500137 -0.500045 -0.100001 -0.499909 -0.4 0.10002 -0.3 0.1 -0.300035 2.73228e-06 -0.300003 -0.199958 0.0999999 -4.96962e-05 0.299999 -0.500026 -9.90897e-07 0.19992 0.299992 0.1 0.400012 -0.19999 0.399997 0.400007 -0.400007 3.06666e-06 -1.07416e-06 -0.299996 -0.1 -0.0999973 -1.39243e-06 -0.499986 0.5 0.1 -0.299999 0.500413 
0.4 -0.5 -0.3 0 0.4 0.1 -0.3 -0.5 -0.2 0.1 -0.1 0.5 -0.2 -0.3 0 -0.2 0.4 0.1 -0.2 0 0.3 -0.2 -0.5 -0.1 -0.3 -0.3 0 -0.1 0 0.2 -0.2 0.2 0.4 -0.1 0.1 0.1 0 0.1 0.4 -0.3 0 0.5 -0.3 -0.2 -0.2 -0.2 0 -0.4 -0.1 0.2 0.4 -0.4 -0.1 0.5 0.1 -0.3 0.2 -0.2 0 0 -0.4 0 0.4 0 0 -0.1 0.1 0 -0.5 0.4 0.4 -0.1 0.5 0.5 0 0.2 -0.1 0.1 0 0.3 -0.1 -0.4 -0.5 -0.3 0 0.3 -0.3 0.1 0 -0.3 0.3 -0.5 -0.5 -0.1 0.4 0.3 0.5 0.4 0.2 -0.4 0.5 0.4 0.4 -0.2 -0.1 0.3 0.4 -0.4 0 0.4 -0.4 0.3 0 -0.1 -0.1 0.1 -0.2 0.2 0.3 0.3 -0.4 -0.2 0.2 -0.4 0.4 -0.3 0 0 
0 0.2 0.3 0.5 -0.1 -0.2 -0.3 -0.3 -0.5 0.5 0.3 -0.4 -0.5 0.4 -0.1 0.5 -0.5 -0.5 -0.4 0.4 0.2 0.5 -0.4 0 0.2 -0.5 -0.1 -0.3 -0.1 0.4 -0.1 -0.3 0.3 -0.5 0.4 -0.1 0.5 -0.4 -0.3 0.5 -0.3 0 -0.3 -0.1 -0.4 -0.2 0.5 -0.2 -0.1 0.3 0 -0.1 -0.5 0.3 0.3 0.5 0.4 -0.3 0.2 0.1 -0.4 -0.1 -0.2 0.5 0.3 0.3 -0.1 0 0 0.1 0.4 0.3 0 0.4 -0.2 0.4 -0.4 0.2 -0.4 -0.4 0.4 0 -0.5 -0.3 0.5 0 0 0.4 -0.3 0.5 0 -0.1 0.4 0 0.3 0.2 0.1 0.2 0.1 0.2 0.4 -0.2 -0.1 0.4 -0.1 -0.1 -0.2 0.3 -0.1 -0.2 -0.2 0.5 0.2 0.2 0.5 -0.2 0.4 0 -0.3 0 0.4 0.3 0.4 0.5 0.2 0.2 -0.4 -0.2 
-0.5 -0.2 0.3 0.1 0.1 -0.3 -0.1 0 -0.2 -0.5 0.2 -0.4 0.5 0.3 0.5 -0.2 0.4 0.5 0.3 0.4 -0.3 -0.3 0 0.3 0.3 0 0 0 0 -0.5 0 -0.5 -0.3 -0.2 -0.5 0 0.5 0.4 0.4 -0.1 -0.5 0 0 -0.2 0.2 0.4 0.1 -0.4 -0.2 0 0.3 -0.2 0.5 0.1 -0.2 0.3 0 0.2 0 -0.1 -0.5 0.3 0.2 0.5 -0.1 -0.2 -0.1 0.5 0.4 -0.4 0 0.2 -0.3 0 0.4 -0.4 0 -0.3 0.5 0.3 -0.5 0.2 -0.2 0.5 0 0.4 0 -0.3 0 0.1 -0.4 -0.4 -0.3 -0.4 0.2 0 0.4 -0.3 0 0.5 0.2 -0.1 0 -0.1 0.4 0.2 -0.5 0.2 0.3 0.4 -0.3 0.1 0.4 0.3 -0.4 -0.3 -0.2 0.1 -0.3 -0.4 0 0.3 0.1 -0.1 0 0 0 -0.1 
0.1 0.1 -0.3 0.1 0.2 0.5 -0.3 -0.1 -0.2 -0.3 -0.4 0 0.4 0 -0.3 0.5 -0.3 0.3 0.5 0 0 0.4 0.5 0.1 0.2 0.4 -0.2 0 -0.1 -0.5 0.1 0.2 -0.4 -0.4 -0.2 0.1 0 0.4 -0.3 0.3 0.3 -0.5 0.1 0.1 -0.2 -0.1 0 -0.3 -0.4 -0.5 -0.5 0.2 0.3 0.5 -0.4 -0.5 0.4 0 -0.4 0.2 -0.5 -0.2 0.4 -0.4 -0.4 0 0.1 -0.1 -0.1 -0.4 0 0.1 -0.3 0.2 -0.2 0.4 0.1 -0.4 -0.3 -0.2 0.4 0 -0.4 -0.3 -0.3 -0.5 -0.5 -0.1 0.5 -0.4 0.3 0.4 0.4 -0.3 0.5 -0.5 -0.5 -0.5 -0.1 -0.3 0.3 0.5 -0.5 0.1 -0.2 -0.1 0 0.3 0.3 0.2 -0.4 0.1 0.4 0.4 0.2 -0.1 -0.4 0.1 0.4 0.2 0.4 -0.2 0.1 0.4 0 0.2 0.4 0.1 
0.1 0.3 0.5 0.4 -0.4 0.4 -0.1 0 0.5 -0.4 0 0 -0.3 -0.5 0 -0.4 0.2 -0.5 0.2 0 -0.1 -0.5 -0.4 0.4 0.1 -0.4 0.5 -0.3 0.1 -0.2 0 0 0 -0.1 -0.1 -0.1 -0.2 -0.3 0 0.4 0 0 0.2 0.2 -0.3 -0.1 -0.5 -0.3 -0.4 0 0 0.5 -0.1 0.3 0.1 0.4 0.5 0.5 -0.3 -0.5 0.1 -0.2 -0.3 -0.2 0.4 0.3 0.5 -0.5 0.1 0.1 0 0.1 0 0.2 -0.1 0.3 0.2 -0.3 -0.3 0.3 -0.3 0.4 0 -0.5 0 0 -0.1 -0.4 0.2 0.2 -0.4 0.2 0 -0.2 -0.5 0.1 -0.3 -0.2 0 0 0.5 -0.1 0.3 0.5 0.2 0.2 0.5 -0.4 -0.5 -0.4 0 0.3 0.2 -0.5 -0.5 0 0.2 0.3 0 -0.4 0.4 -0.1 0.3 -0.1 0.1 0.5 -0.4 0 
0 -0.1 0.5 0.4 0.3 0.3 -0.1 0.4 0.2 -0.2 0 -0.2 -0.4 -0.3 0.4 0.3 -0.1 0.5 0.4 0.3 0.2 0.4 0 -0.5 0 -0.5 0 -0.5 0 -0.4 0.2 -0.1 0.3 -0.2 0.4 0.2 -0.3 -0.1 -0.4 0 0.4 -0.1 -0.1 0.4 0.3 0.5 -0.5 -0.3 -0.2 -0.5 -0.1 -0.2 0.1 0.4 0.1 0 -0.3 -0.2 -0.1 0.5 0.5 0.5 0.1 0.2 0.4 -0.3 -0.5 0 -0.4 0 0.4 0 0.2 0.4 0.5 -0.3 -0.3 0.1 0.2 0 0.4 0 0.3 0.3 -0.5 -0.1 0.4 -0.1 0.5 0.2 0.3 0.5 -0.5 0.4 -0.4 0.4 0.4 -0.2 -0.5 -0.3 0 -0.4 0 -0.3 -0.3 -0.3 0 0 -0.4 0.2 0.3 0.3 0.4 -0.2 0.5 0.3 -0.2 0.5 -0.1 -0.5 -0.2 0.1 0 0.1 0.5 -0.1 0.4 -0.2 
-0.4 0.4 -0.1 0.1 -0.5 -0.3 -0.5 0.5 0.2 -0.4 -0.2 0.2 -0.5 -0.2 -0.2 0 0 0.1 0.5 -0.5 0.5 -0.1 0.3 -0.4 -0.5 0.5 0.2 -0.3 -0.3 -0.3 -0.3 -0.2 -0.2 0.2 0.3 0 -0.5 0.3 0.1 0 0 0 -0.3 -0.5 0.1 -0.1 -0.2 -0.5 -0.4 0.4 -0.1 -0.5 0.3 0.2 -0.3 -0.4 0.3 -0.4 -0.1 -0.4 0 -0.5 -0.3 0.3 -0.5 0 0.3 -0.4 0 -0.4 0.3 -0.3 0.5 0.3 0.3 -0.5 -0.5 0.4 0 0.1 -0.1 0 0.5 -0.3 0 0.4 0.1 0.2 -0.2 -0.1 -0.5 0.1 0.4 0.1 -0.1 -0.2 0.2 -0.3 0.4 0.5 -0.2 0.2 0.3 0.4 -0.1 0.1 -0.2 0.1 0.4 -0.2 0 0.1 -0.4 -0.5 0.2 -0.2 -0.4 -0.1 0.3 0.1 0.2 0.2 0.4 0 0.1 0.4 0.3 -0.5 
0.3 -0.4 0.1 -0.3 0.4 -0.4 -0.5 0 0.1 -0.4 -0.5 0 0.1 0.3 0.5 0.3 -0.1 -0.3 0.3 -0.5 0.4 0.2 0.5 -0.3 -0.5 0.5 -0.3 -0.4 0.2 -0.4 -0.2 0 0 0.1 0 0.1 -0.2 0 0 -0.2 -0.1 -0.4 0.4 0 -0.3 -0.3 0.5 -0.1 0 0.1 0.4 -0.2 -0.3 0.2 0 0.4 -0.3 0.3 0 0.5 0.4 0.3 -0.5 -0.1 -0.5 -0.2 0.5 -0.1 -0.5 -0.5 0.3 -0.2 0 0.5 -0.3 0.3 0 0.5 0.2 -0.4 0 0.2 0.2 -0.1 0 -0.4 -0.5 0.4 -0.2 -0.3 0 0.3 0 0.3 -0.4 -0.1 -0.3 -0.3 0.1 0 -0.1 0 -0.2 -0.2 0.1 0 -0.3 0 -0.2 -0.4 0.4 0.5 -0.1 0 -0.4 -0.5 0.2 -0.5 0 -0.3 0.5 0.5 0 0 0 -0.4 -0.1 0.1 
0.3 0.3 0.5 -0.5 -0.4 0.1 -0.5 -0.1 -0.2 -0.2 0.3 -0.3 0 0.2 -0.3 -0.2 0 0.5 0.2 0.5 -0.2 -0.4 0.4 0.1 0.2 0 0.4 0.2 -0.2 0.4 -0.3 0.5 0.3 0.3 -0.3 0 -0.2 -0.4 0.5 -0.1 0.3 0.3 0.3 0.3 0 0.5 0.3 -0.1 0 0.5 -0.4 0.1 0.5 0 0.4 -0.5 -0.1 0.2 -0.4 -0.1 0.2 -0.2 0.1 0.4 0.2 0.3 -0.1 -0.5 -0.3 0 0.5 -0.2 0.2 0.3 0.5 -0.3 0.3 -0.4 -0.5 0.5 0 0.4 0.2 0.5 0.1 0.5 0 0.3 -0.3 0.1 -0.1 0 0.3 0.2 0.3 0.1 -0.2 0 0.2 0.5 -0.1 -0.1 0.3 0 -0.4 0.1 0.2 0.3 0 0.4 0.1 0.3 -0.1 0 0.1 -0.2 0 -0.4 -0.4 0.3 -0.3 0 -0.5 0.3 0.4 0.1 0.1 0.4 
-0.5 0.1 -0.2 -0.4 -0.1 0.1 -0.1 -0.1 -0.2 -0.3 0.3 0.1 -0.3 0.5 -0.5 0.1 0 0.5 -0.2 -0.1 -0.3 0.5 -0.1 0 0.5 0.4 -0.5 0.4 0.5 0.5 -0.4 0.1 0.5 0.4 -0.4 0.4 0.3 0.2 0 0.5 -0.3 -0.4 0.2 0.2 0.2 -0.1 0 -0.3 -0.2 -0.2 0.3 0.2 0.1 0.2 0.3 0.3 0.5 -0.4 -0.2 0 0.4 0 -0.3 0.4 0 0.3 0.1 -0.3 0.2 0.2 0.3 -0.3 0.5 0.5 0.4 -0.1 0.2 -0.1 -0.3 -0.4 0.5 0 0.5 0.4 -0.2 -0.4 0.2 0.4 -0.2 0.2 0.1 0.4 0 0 0 0.4 0.2 0.2 -0.5 -0.3 0 -0.5 0 0.5 0.2 -0.2 0.5 0 0 -0.1 -0.4 0.1 -0.3 0.3 0 0.3 -0.2 -0.4 -0.2 0.3 0.3 -0.4 -0.1 -0.2 -0.2 0.5 -0.1 -0.2 
-0.2 0 0 -0.2 0.1 0 0.1 -0.2 -0.1 -0.1 -0.1 0.1 -0.4 -0.4 0 -0.4 0.1 -0.1 0 -0.3 -0.4 0 -0.5 0.5 0.2 0.2 0.5 0.5 -0.2 0.5 0.5 -0.4 0.4 0.2 -0.1 0.5 0.3 0.3 0.5 -0.1 0 0.5 -0.1 0.3 -0.2 -0.3 0.1 -0.5 0 -0.3 -0.3 0.1 -0.1 0 -0.1 0.3 -0.5 -0.5 0 0.1 0.1 0.1 0 -0.3 0 -0.3 0.3 0 -0.2 0.5 0.5 0.2 0 -0.3 0 0.3 -0.1 0 0.3 0.5 -0.2 0.2 0.5 0 -0.1 0.1 0.1 -0.1 0.5 0 -0.2 0.2 0.3 -0.1 0 -0.4 0.1 0.3 -0.2 -0.4 0 0.1 0.1 -0.1 0.5 0.1 -0.4 -0.1 0.1 -0.3 0 0.5 -0.5 -0.4 0.4 0 0.4 -0.2 0.5 -0.2 -0.5 0.1 -0.3 0.2 -0.4 -0.3 -0.3 -0.3 
0.4 0.2 0 -0.2 0 -0.5 0.5 -0.3 0 -0.5 0.1 -0.3 0.4 -0.1 0 0.3 0 0.2 -0.3 0.1 0.1 0.3 0 0.2 0.1 0 0 0.1 0 0.4 0.3 0 -0.5 -0.3 0.4 -0.2 0 -0.3 -0.2 0.5 0.4 -0.4 -0.3 -0.2 -0.2 0.3 0.3 -0.3 -0.4 -0.4 0 -0.4 0.1 0.3 -0.2 -0.3 0 -0.2 -0.5 -0.5 0.3 -0.1 0.2 -0.1 0.1 0.4 -0.1 0 0.1 0 0.3 0.5 -0.2 0 -0.2 -0.5 -0.5 0.5 0 -0.4 0.5 -0.4 0.4 0.2 -0.2 -0.4 -0.5 -0.1 0 0.4 -0.3 0.1 -0.3 -0.4 -0.3 -0.5 -0.3 0.2 -0.4 0.2 -0.1 0.4 0 0.5 -0.1 -0.1 -0.4 -0.4 -0.5 0.3 -0.3 0.1 -0.3 -0.5 -0.1 0.3 0 -0.2 0.3 0.4 -0.1 0.4 -0.1 -0.3 -0.5 0.4 0.3 0.1 
0.5 -0.5 -0.2 -0.1 0.4 0.1 0.5 0.4 -0.4 -0.1 0.4 -0.5 0.3 0 0.4 0 0.3 0 -0.5 -0.3 0.4 -0.2 0 0 0 -0.1 -0.3 0.1 -0.5 0.2 0 0.1 -0.3 -0.1 0.2 0 0.4 -0.3 0.3 0 -0.3 0.4 0.4 -0.5 0.5 -0.5 -0.2 -0.3 -0.5 0.3 -0.2 -0.4 0.1 0.1 0.2 0.4 0.2 0.3 -0.1 0.2 0.1 0.4 0 0 0.3 0 0.5 0.1 -0.5 -0.2 0.1 0.3 -0.3 -0.2 0.2 -0.4 0.2 0 0 0.5 -0.2 -0.2 -0.2 0 0.1 0.5 -0.2 -0.4 0.1 0 0.2 -0.1 0 -0.2 -0.4 0.3 -0.4 0.2 0.5 -0.1 0.5 -0.4 0.3 0.3 0.5 0 -0.1 0.2 0.5 -0.5 -0.4 0.5 -0.5 -0.2 -0.3 -0.3 -0.2 -0.2 0 0 0.1 -0.2 0 0.4 -0.5 0 -0.4 0.2 
-0.3 0.5 0.4 -0.3 -0.1 0.2 0.2 0.2 0.5 -0.3 -0.2 0.1 0.2 -0.1 -0.1 0.1 -0.2 -0.2 0 -0.1 0.3 0 -0.1 -0.3 -0.5 0.1 0.3 0.4 0.4 -0.5 0.5 0.1 0 -0.4 0.5 -0.5 0.5 0.4 -0.4 0 0.3 -0.1 0.5 -0.5 0.1 0.5 -0.5 -0.1 -0.5 0 -0.3 0.5 -0.3 0.5 0.2 0 -0.2 0.1 0.5 -0.4 0.1 -0.2 0.2 0.4 0 0.3 0.3 0.1 0.4 0.5 0.5 0.4 -0.4 -0.4 -0.2 0 0.1 0.3 0.4 -0.2 0.1 0.2 -0.1 -0.2 0.4 -0.3 0.5 -0.3 0 -0.3 -0.4 -0.5 -0.5 -0.1 -0.3 0.2 0.1 -0.3 0.2 0.2 0.1 0.2 0 -0.4 -0.4 -0.3 0 0.3 0.5 -0.3 -0.4 0.1 -0.5 0.3 0.4 0 0 -0.1 -0.2 0 -0.3 -0.5 -0.2 -0.2 -0.1 0.3 0 -0.2 
-0.5 -0.2 0 -0.2 0.4 0.1 0.2 0.1 0.5 -0.2 -0.4 -0.5 -0.3 0 -0.1 -0.2 0.3 0 -0.2 0 -0.2 -0.1 -0.5 -0.2 -0.1 0.5 0 0 -0.3 0 -0.2 -0.2 0.2 -0.2 -0.4 0.5 0.3 0.2 0.5 0 -0.5 0.4 0 0.2 -0.1 0.3 -0.1 -0.1 -0.3 0.1 0.1 0 0.1 0.1 -0.1 0 0.4 -0.2 0 0.3 0 0 0.2 -0.1 -0.2 0.5 -0.1 0.5 -0.2 0 0.3 -0.3 0 0 -0.3 0.4 0.2 0.2 -0.1 0.3 0 0 -0.5 0.2 0.1 0 0.1 0.2 -0.4 -0.3 0.3 -0.4 0.2 -0.5 0 -0.4 0.3 -0.3 0.5 -0.4 0 0.1 -0.5 0 0 0 0.3 0 0 0.1 0.1 0.1 -0.5 0.2 -0.2 0.5 -0.3 -0.5 0 0.3 -0.4 -0.4 -0.4 0.3 -0.3 0.5 0 -0.1 
0.4 -0.4 -0.4 0.4 0.2 -0.5 0.4 0.2 0.4 0 0.4 -0.3 -0.5 0.5 0.5 0.3 -0.4 0.4 0.5 0.2 -0.1 0 0 -0.1 0 0 0.1 0.1 0.3 0 -0.1 -0.4 -0.1 -0.3 -0.1 -0.2 0 0 0 -0.4 -0.4 0.3 -0.3 0.3 0.5 -0.1 0 -0.3 -0.5 -0.2 -0.4 0.1 0.3 -0.1 -0.3 0.4 0 -0.3 0.2 -0.4 0 0.1 -0.2 -0.3 0 -0.4 0.5 0 -0.5 0 0.1 -0.2 0.5 -0.4 0.5 -0.4 -0.4 -0.1 0.3 0 0.1 -0.2 -0.5 0.2 -0.4 -0.5 0 0.1 -0.1 0.1 0 -0.2 0 0.2 0.3 -0.5 0.2 -0.4 -0.4 0.5 0.4 -0.1 0.4 0 0 0.1 -0.5 -0.3 -0.4 -0.1 0.4 0.1 -0.3 0.3 0.5 0.4 -0.1 -0.3 0.5 -0.3 0.4 0 -0.3 -0.2 -0.2 -0.4 0 0.5 
-0.4 0.4 0.2 0.2 -0.3 -0.2 1.93454e-07 -0.4 0.5 -0.2 0.2 0.4 -1.6952e-09 4.49152e-13 8.51197e-11 -0.4 0.3 -0.2 0.3 -0.4 -0.4 -0.3 0.3 0.5 0.3 8.52464e-09 -0.2 -0.5 -0.4 -0.3 -0.4 0.5 -0.4 0.2 -0.4 0.5 -0.2 -0.1 -0.3 -0.3 2.98964e-14 -0.2 -0.1 -1.92163e-07 0.3 0.3 0.1 -0.1 -0.1 -0.3 0.3 -0.2 -0.1 -0.5 0.4 -0.1 -1.8367e-13 0.5 0.2 0.2 -0.4 -0.1 0.3 -4.78458e-15 0.5 6.22025e-12 0.3 0.2 0.1 -0.5 0.1 -0.4 3.15294e-11 -0.3 0.3 3.14462e-09 -0.3 -0.2 -0.5 0.1 -2.91888e-10 0.4 -0.2 -0.2 -0.1 -4.76284e-08 1.42206e-07 0.5 -1.89621e-11 0.4 0.2 -0.1 -0.1 6.14174e-13 0.1 0.1 -0.2 -0.4 -0.3 -0.1 0.1 -0.3 -2.95895e-07 -0.4 -0.1 -0.5 -0.2 -0.2 2.86081e-10 -0.5 0.4 0.5 1.12386e-11 -0.2 -0.1 0.1 0.3 -0.5 -0.5 0.1 -0.2 0.3 -0.3 0.4 -0.4 -2.53841e-07 0.2 1.23638e-08 
-0.400001 -0.306877 0.406657 0.0964386 0.499988 0.302341 0.402715 -0.300645 -0.498011 -0.400016 -0.10099 0.199989 0.299485 -0.299991 4.75414e-05 0.100262 -0.00265586 0.399999 0.39999 0.000106606 0.498132 -0.208012 -0.500016 2.08692e-08 0.19947 0.201069 0.197898 -0.0998801 -0.1 -0.499888 -1.00306e-06 0.5 5.30891e-09 0.4 0.0999855 -0.300719 -0.301826 0.294113 0.3 0.299982 3.40845e-10 0.2 0.199998 -0.500003 -0.199747 2.75772e-06 0.300227 -0.304028 -0.5 -0.399936 -0.100013 -0.0964453 0.299967 -0.202091 -0.399999 0.300762 -3.32322e-06 -5.98275e-06 -0.0001584 0.3 -0.293263 0.402192 0.3 0.4 -0.500225 -0.299963 -0.499998 0.40006 -9.16318e-06 -0.400208 0.499952 -0.100029 0.406433 -0.502132 -0.499998 0.400029 0.199999 -0.499982 0.400132 -0.199906 -0.300153 -0.400931 -0.198995 0.400011 0.00022919 0.0968882 -0.0975871 0.400291 0.0994078 -0.40005 -0.0995927 -0.100002 0.40017 0.100056 0.4 8.10894e-05 -0.499932 -0.299988 -0.20002 -0.200926 0.299192 0.200092 0.299744 0.1 0.3 0.399986 -0.100013 0.100429 0.000153941 0.100002 0.299764 0.5 0.00132533 -0.499105 0.399949 -0.398185 -0.300999 -0.100002 -0.19548 0.100047 0.199189 9.4496e-07 0.298758 0.10021 5.48753e-05 -0.400126 0.400043 0.00145111 
0.3 0.479264 -0.182051 0.0985898 -0.000384402 0.20388 0.00588769 -0.00107025 -0.397247 -2.15486e-05 0.496434 -0.000716586 0.390335 -0.199763 0.00174426 0.00971 -0.411043 0.199893 0.199965 0.00266996 -0.0115031 0.0743104 -0.00154526 0.500049 0.493523 -0.0919599 -0.307249 -0.199894 -1.22749e-07 0.397944 0.100046 -0.2 0.1 0.0999994 0.199786 -0.406712 -0.501112 -0.512992 7.08834e-07 -0.100856 0.5 -0.300003 0.0998345 -9.96719e-06 -0.200391 -4.90761e-05 -0.000193572 -0.306205 -0.3 -0.0998085 -1.47681e-05 -0.385928 0.499629 -0.408475 6.82204e-06 0.30449 0.099987 -0.100009 0.494819 -0.4 -0.278102 -0.392285 -0.0999997 -0.300002 -0.401368 0.50004 0.30003 0.505732 0.399884 0.397809 0.000593207 0.399166 0.309207 -0.107742 -0.299991 -0.200022 0.299593 0.50027 0.400128 0.300311 0.29979 -0.40112 0.50427 0.100563 0.300162 -0.405644 0.207438 -0.483928 0.198539 0.399947 0.402367 -0.300051 -0.399763 0.196397 -0.499998 0.00761664 0.204782 -0.299978 0.30195 0.288042 -0.20163 0.40033 -0.403279 -0.1 -0.5 -0.50119 0.399995 0.00462293 -0.294908 -0.299209 -0.401992 0.5 0.00140805 -0.19748 -0.000562805 -0.0965001 -0.50212 -0.1002 0.213002 0.00245219 0.188567 -0.0999976 0.293267 -0.299665 -0.399355 0.0996993 -0.0998445 -0.281547 
0.299955 -0.0211906 0.0225913 0.19705 0.199624 -0.395474 0.405117 -0.502547 -0.297548 0.299895 0.495207 -0.000721458 -0.310952 -0.396589 -0.498252 0.310643 0.287635 -0.200115 0.499914 0.00403984 0.487508 -0.327956 0.397978 0.400061 -0.00649009 -0.289104 0.390237 -0.200155 -0.400073 -0.00249964 0.200376 -0.199997 -0.399999 0.299999 -0.100647 0.192826 -0.206052 -0.013961 0.100004 0.498746 -0.5 0.399714 0.399816 0.498912 0.399473 -9.91329e-06 0.100519 -0.113063 -0.5 0.20061 0.400839 0.318258 -0.10066 -0.408986 0.500007 -0.493309 -0.500014 -0.100367 0.0945824 0.199997 -0.0753462 0.112749 0.10032 -0.100122 0.398506 2.40229e-06 0.301267 -0.292152 -0.500152 0.0974656 0.401302 0.298771 -0.188963 -0.50807 0.200061 0.50001 -0.30043 0.201822 -0.399872 -0.199163 -0.200713 -0.0012277 0.105179 -0.0985978 0.200526 0.190656 0.00800008 -0.181824 0.0980555 0.0991912 -0.197429 -0.400104 0.10022 0.196427 -0.199999 -0.0913269 0.00600575 2.93377e-05 0.402098 -0.113099 -0.204265 0.000294534 0.495999 0.499994 0.400117 0.198137 0.0999938 0.105788 0.10496 0.300876 -0.202267 0.3 -0.397704 -0.294641 -0.100568 -0.39459 0.498763 -0.400136 0.115907 0.202261 -0.417316 0.100005 0.390402 0.400059 -0.299083 0.299559 0.300453 0.322255 
-0.200029 -0.408874 0.0132312 0.393496 -0.498958 -0.493599 0.200561 0.495408 -0.496882 0.0998901 -0.501659 0.198034 -0.308901 0.30457 0.50097 -0.197054 -0.207735 0.19875 0.498978 0.205395 -0.210011 -0.0188311 0.297282 -0.199835 -0.505931 0.310371 -0.00860301 -0.200131 0.499922 0.499672 0.103715 0.100008 -0.199956 -8.74809e-07 -0.00153001 -0.303416 -0.210208 0.390012 -6.71067e-06 0.396421 -0.5 -0.300265 -0.500888 0.0959501 -0.400703 0.398563 0.300592 -0.512963 0.1 0.300765 -0.0986648 0.21207 0.499361 -0.212918 0.300014 0.105886 0.299998 -0.201437 0.49876 -0.100003 -0.0830062 0.11063 -0.299211 -0.0013571 0.397375 4.27868e-05 -0.185025 -0.194405 0.0999171 -0.405418 0.201824 0.489673 0.00954668 -0.307161 -0.399906 0.100065 -0.400649 0.507731 0.500792 0.501527 0.299067 -0.302096 0.204438 -0.292373 -0.299721 -0.307682 -0.288831 -0.189862 -0.501117 -0.501138 0.508718 -0.000567325 -0.199586 -0.499812 -0.295869 0.102282 -0.496006 0.0999288 -0.298703 0.397513 -0.304062 -0.499264 -0.204764 0.099939 0.200145 -0.50442 -0.300121 -0.0965141 0.504531 0.307934 -0.504097 0.3 -0.397708 0.00879005 0.0987789 0.506676 -0.103862 -0.000388223 -0.488125 -0.196736 0.191643 0.199996 0.19021 -0.298957 0.300896 -0.404147 0.100818 0.206332 
-0.000706831 0.495541 -0.191271 -0.00488766 -0.0993102 0.204958 0.000162968 0.395336 -0.198745 0.298931 -0.3038 -0.00314615 0.190476 0.404386 -0.299042 0.104683 0.0929949 -0.200996 0.498828 0.406054 -0.111613 -0.11931 -0.00411381 -0.500332 -0.506556 0.114576 0.0905422 -0.300249 -0.399386 0.198452 -0.396572 0.499028 0.10011 0.399998 -0.30221 0.39505 -0.308354 -0.00576144 0.300121 -0.403294 2.87728e-05 7.37102e-05 -0.100909 -0.405514 -0.500854 0.000161841 -0.40005 -0.311008 0.200012 0.400779 0.500965 0.0101256 0.298568 -0.0112312 0.000209865 -0.193845 -0.50005 0.498891 0.396902 0.200004 -0.387749 -0.0885473 -0.299267 0.398703 -0.302299 9.00394e-05 0.0208437 0.00745225 0.199818 -0.00771425 0.401738 0.186451 -0.0966437 -0.410772 8.75792e-05 -0.499963 -0.100638 0.00827209 -0.0993807 -0.198562 -0.400736 -0.301485 0.20637 0.50772 -0.399872 -0.00513384 -0.290324 -0.0861267 -0.400296 -0.301309 0.40837 0.199762 0.301533 -0.300277 -0.196054 0.00404453 -0.191223 0.0998374 -0.398883 -0.00158376 -0.30226 0.500447 0.0929495 0.000412634 0.000132987 0.295545 -0.399233 0.00381471 -0.294956 -0.488793 -0.404828 0.0999999 -0.398154 0.310404 -0.201177 0.305589 -0.501234 -0.0010041 -0.288777 -0.195636 0.491031 -0.299895 0.390252 0.300771 0.500805 -0.00463282 -0.298667 -0.387903 
0.199529 -0.522368 -0.183834 0.0998162 0.00339884 0.416256 0.185462 0.278856 0.100916 0.102327 0.397195 0.382156 0.289076 0.299901 0.00527837 0.0153401 -0.207594 -0.00181973 -0.000429773 -0.487346 -0.0277342 0.362728 -0.00203401 0.00140167 -0.00445918 0.0196658 0.384905 -0.111422 0.500475 0.395519 -0.498467 -0.400834 0.298424 -0.49987 0.189841 -0.225117 0.299782 -0.205334 -0.200274 -0.00550686 -0.400938 -0.200524 0.399627 -0.509786 0.0929948 0.00282917 -0.302034 -0.0892799 0.200154 -0.298355 -0.181872 -0.287163 -0.302394 -0.308985 -0.399795 -0.40487 -0.300058 0.198887 0.193899 -0.200058 -0.388809 0.2063 0.201107 -0.500159 -0.107198 -0.0997335 0.234072 -0.190063 -0.400366 0.495851 0.0119885 -0.522174 -0.297234 -0.206718 0.199872 -0.500523 0.399239 -0.29134 -0.30195 0.304908 0.0990538 0.499091 0.30922 -0.295884 -0.500424 -0.501295 0.0092415 0.220847 -0.300344 0.499615 -0.496895 0.285607 -0.498486 -0.201959 0.401426 -0.389864 0.215837 0.199293 -0.297029 0.0953811 -0.000397334 -0.497817 -0.0197391 -0.0021744 0.501305 -0.403272 -0.09896 0.106796 0.508051 0.123179 -0.403001 0.3 0.000543886 0.205953 0.10088 -0.199764 0.506194 -0.000332275 0.0248092 0.293279 -0.303241 -0.101331 0.296997 -0.396514 0.00703235 -0.305021 0.504576 -0.483199 
0.099485 -0.0313488 0.0215994 -0.298698 -0.196841 0.517865 0.384452 0.379949 0.0999495 0.301654 -0.402693 0.479092 -0.0151297 -0.199329 0.205391 0.316862 0.288568 -0.0019098 -0.199623 -0.284161 0.473928 -0.147628 0.500553 -0.0986337 0.0924619 0.421089 -0.41649 -0.51121 -0.499519 -0.504262 -0.498749 -0.400833 0.39825 -0.299869 0.0877036 0.268605 0.199826 -0.313496 0.0995648 -0.504703 0.399062 0.299556 0.099601 -0.211698 0.0929287 0.00248214 -0.302145 -0.288826 0.000131728 -0.198896 0.017219 -0.181725 0.497672 -0.107325 0.300186 0.39408 0.0999434 -0.399877 -0.406062 0.500071 0.0187792 0.00816043 0.00268803 -0.299448 0.192249 0.500558 -0.167904 -0.281571 0.0995898 -0.00254774 0.411615 -0.0207616 -0.397284 -0.206631 -1.31594e-05 0.499477 0.299625 -0.389367 -0.00185828 0.00851743 -0.0013414 -0.101691 0.109289 -0.296505 -0.000175449 0.396306 0.411554 0.525628 -0.201906 -0.000748758 0.504673 0.285416 0.201203 -0.501842 0.301016 -0.0908148 0.521981 0.199335 0.00253219 -0.206621 -0.198685 -0.0985716 0.476138 -0.00206601 -0.0986543 0.296673 0.400329 0.00649792 0.00821212 0.0270451 0.0952604 0.3 -0.40047 -0.287292 -0.499209 -0.100469 -0.0933064 0.200444 0.0269454 -0.305885 0.292702 -0.00115229 0.0911059 0.503376 0.209485 0.0919452 -0.0952881 0.116543 
-0.501177 -0.217985 -0.182732 -0.297738 0.30509 0.0164739 0.385408 -0.00564008 0.000176055 0.402425 -0.00196649 -0.116027 -0.414506 -0.298878 -0.390169 -0.191258 -0.21372 -0.201692 -0.0982653 0.116167 0.385053 0.168714 0.296737 0.499821 0.395213 0.412688 0.490915 -0.415467 0.000692103 -0.3012 0.400804 0.299297 -0.101546 -0.39997 0.38924 -0.0278141 0.399942 0.492888 0.000141186 0.0952871 -0.0999605 0.000717567 -0.00104847 0.486927 -0.106524 -0.396646 -0.203242 -0.488576 0.399917 -0.499727 -0.0816749 0.311624 0.496667 -0.302797 0.500397 -0.206474 -0.300342 -0.501723 -0.300466 -0.299862 -0.182432 0.305524 0.00318228 0.398341 -0.211111 -0.399936 0.0204518 -0.279582 -0.500389 -0.00871132 0.407472 -0.015604 0.504356 -0.407792 -0.099546 -0.300192 -0.500574 0.310413 -0.199941 0.111532 0.0983677 -0.10079 0.0067855 0.109059 0.0988372 -0.205036 -0.287902 0.113274 0.495997 -0.402513 0.00739527 0.2847 -0.499008 -0.501394 -0.000153003 0.300545 -0.087043 -0.301947 0.303622 0.391916 0.302714 0.402515 -0.0165607 -8.90632e-05 -0.298543 -0.400323 0.499268 0.307884 -0.191561 -0.38437 -0.0077057 0.499999 -0.000736905 -0.192348 0.400794 -0.400045 -0.29667 0.398794 -0.082855 0.0908923 -0.102887 0.0977554 0.490735 -0.501731 0.00964778 0.0920444 -0.394663 0.403029 
-0.00116528 0.384653 -0.390256 -0.395159 -0.4952 0.00912848 0.489871 -0.502458 0.304311 0.399047 -0.00222252 -0.310583 -0.107549 0.00112565 0.104683 0.304772 0.486746 -0.401428 -0.0993355 -0.489257 -0.503383 -0.0236085 0.395474 -0.00028736 0.2961 -0.0912419 -0.00909398 0.384064 -0.299451 0.000672754 0.498902 0.0994624 -0.501529 -0.499946 -0.501086 0.38096 0.200162 0.494936 0.299941 0.100625 -0.300042 0.300764 -0.10019 0.387573 -0.00510355 0.402847 0.0975247 -0.0873852 0.399961 0.399248 0.509946 0.408253 -0.500855 -0.502139 -0.0996053 -0.103625 -0.0037471 0.198519 -0.299744 -5.90498e-05 -0.289439 0.104719 0.00282124 0.198483 -0.00771882 -1.48872e-05 0.00746075 -0.181971 0.199675 -0.307824 0.00274528 -0.506509 0.302146 0.192535 0.500141 -0.500126 -0.000460858 0.206503 0.399051 -0.19225 -0.000910822 0.498029 -0.195348 -0.292939 0.401352 0.0947303 0.00986888 0.409754 -0.00311729 -0.202504 0.507125 0.196475 0.00134813 0.398358 0.499869 0.400685 -0.187252 -0.50119 0.401294 0.293497 0.502421 0.402923 0.490231 0.100197 0.20006 0.499702 -0.300664 0.00530295 -0.391608 0.409964 0.192424 0.0999989 -0.401139 -0.0923108 0.000359299 0.0978404 0.301769 0.299774 0.111194 0.0952452 -0.503746 0.295451 0.290846 -0.00289214 0.00560066 -0.0052788 0.000852579 0.0053312 
0.395383 0.470067 0.00739531 -0.416815 0.402771 0.508881 0.299807 -0.199559 0.495899 0.390598 0.292357 0.486317 0.402371 0.102161 -0.296703 0.0040051 -0.405864 0.382623 -0.406665 -0.0992893 -0.00342309 0.28144 -0.01204 0.0997331 -0.00717169 -0.495806 0.485692 0.49114 0.513376 -0.00417238 0.198715 -0.200764 -0.00292514 -0.285715 -0.199951 0.489829 0.492593 -0.400178 -0.413044 -0.098199 0.417098 -0.380557 -0.0902541 0.488386 0.201668 -0.398057 0.300067 -0.488748 0.403836 0.498202 -0.00159589 0.502234 0.2942 -0.502659 0.00735117 0.301504 0.407068 -0.00115423 -0.505657 0.123634 0.303633 0.000997326 -0.184185 -0.0940022 0.100829 0.501155 -0.387206 0.207161 -0.297989 -0.40585 0.00451113 -0.00919415 0.201552 0.299237 0.498193 0.398785 -0.502631 0.0957211 -0.296425 0.299565 0.494881 -0.509746 -0.0973386 -0.389997 -0.30473 -0.00493229 -0.00575642 -0.287053 0.300371 0.498526 -0.494817 -0.00058681 -0.383604 0.401516 -0.00127828 -0.490127 0.30593 -0.000578872 -0.303897 0.00314013 -0.00366411 -0.194696 -0.0166682 -0.0966712 -0.186878 -0.306242 -0.388491 -0.0923775 0.201429 0.401938 0.291955 0.3 -0.299945 0.203359 -0.499725 0.0035263 0.0979135 0.498108 0.209529 -0.396391 0.294235 -0.212449 0.192711 0.101858 0.49839 0.197254 0.00470068 0.00951212 
0.391749 -0.343083 -0.184631 -0.113642 -0.194864 0.40842 0.300576 -0.102474 -0.403599 -0.00861369 -0.309032 -0.323971 0.30308 0.404533 -0.294632 0.507199 0.289942 -0.21725 -0.00362755 0.314175 -0.507584 -0.0322711 -0.320122 0.401557 -0.30705 0.514873 -0.116151 0.298325 -0.18762 -0.304866 0.101981 0.00347629 0.3968 0.214721 -0.109918 -0.104447 0.289105 0.39763 0.0966869 -0.00716123 -0.382523 0.220633 0.411083 -0.320438 0.00649679 -0.208894 0.000941361 -0.098889 0.00569048 0.199442 -0.288986 -0.196284 0.088193 -0.115678 0.0061568 -0.096529 -0.192548 0.489134 -0.308743 -0.0783509 0.516488 0.400127 0.0170015 -0.498765 0.301179 -0.49814 0.013507 0.0140928 -0.0998794 -0.00670754 0.208477 0.191209 0.502087 0.298559 -0.504397 0.194451 0.198876 -0.00625836 -0.500707 -0.398623 -0.105933 -0.511891 -0.495452 0.0161592 -0.405086 0.289905 0.28973 -0.187475 -0.0993879 -0.30666 0.211559 0.300063 0.51008 0.299307 -0.301196 -0.0867255 0.506281 -0.196132 -0.200414 0.400289 0.394891 -0.292669 0.0706096 0.301113 0.113268 0.387973 -0.288281 -0.490857 0.309892 -0.188149 -0.208475 0.3 -0.496325 0.00589606 0.500056 0.303455 -0.103612 0.49785 -0.178955 0.404013 -0.507101 -0.512331 0.185243 -0.498538 0.105798 -0.304364 0.405404 0.313439 
-0.309261 0.149228 -0.184021 -0.499995 -0.493145 0.014049 0.289106 0.0970367 -0.00786094 0.391512 0.0912346 -0.53088 -0.0998879 0.50471 0.00556521 -0.392715 -0.110648 -0.435363 0.097277 -0.0830223 0.191985 0.0565927 0.178983 -0.298275 -0.30963 0.0146825 0.384117 0.295708 -0.287461 -0.207058 -0.396437 0.302828 -0.303833 0.214343 -0.022062 0.38909 -0.410669 -0.00188039 -0.402776 -0.0107039 0.0173095 -0.279259 0.110582 -0.0128653 -0.194611 0.202006 0.100796 -0.499252 0.00541689 -0.199577 0.319845 -0.295843 -0.51342 -0.415755 0.106353 0.102995 0.211086 -0.0109314 -0.00834275 0.02189 0.220207 -9.43092e-05 0.116807 0.201547 9.35424e-05 0.20168 0.233324 0.319641 0.000162709 0.0824404 -0.390769 0.490282 0.501912 0.298955 -0.403568 -0.00511606 -0.000877156 -0.0987124 0.300644 0.501231 0.393639 0.0868276 -0.0946751 0.0138885 -0.50786 -0.00976635 -0.508255 -0.187677 -0.19962 -0.306291 -0.0884623 -0.100307 0.409947 0.298732 -0.301627 0.0109242 -0.393876 -0.297262 -0.300493 -0.099625 0.493671 0.511639 -0.431394 0.30241 -0.0866836 -0.311547 0.211478 0.410959 -0.090399 0.219776 -0.00806841 0.5 -0.497687 0.304757 -0.199918 -0.401845 0.100544 0.0971424 -0.176823 -0.395653 -0.205495 0.388223 -0.0188671 0.200887 0.10642 0.493091 0.408321 0.306595 
-0.499665 -0.4314 0.210465 -0.0647386 0.105975 -0.0903995 0.288504 -0.0157734 -0.299029 0.300964 0.497415 0.276632 -0.205503 0.400756 -0.192242 0.505148 -0.0118998 0.375378 0.104214 -0.478461 0.290812 -0.0450663 -0.0152636 -0.298101 0.396057 -0.382351 -0.314644 0.395879 0.399556 0.192769 -0.19289 0.109643 -0.204093 0.299943 0.278417 -0.319244 -0.205878 -0.500577 0.00171162 -0.214712 0.100487 0.000107828 0.199695 0.287243 -0.00042179 0.0038788 0.496367 -0.103517 0.200669 -0.0994423 0.0402444 -0.391106 0.487215 -0.212023 -0.300441 0.402156 5.741e-05 -0.00759839 -0.203024 -0.300023 0.221323 0.506504 -0.499704 -0.00668564 -0.2109 -0.202559 -0.155405 0.516813 -0.19979 -0.0155075 0.00772759 0.185764 -0.395879 0.096355 0.197566 -0.00415197 -0.500271 0.0252159 -0.00415406 -0.400073 -0.303502 -0.102029 0.00447298 0.00683748 0.205977 0.290601 -0.192462 -0.283174 -0.301557 0.39772 0.210256 -0.506523 -0.403716 0.394648 0.199674 0.204566 -0.399527 -0.398828 0.0050178 0.0941902 0.295173 0.109394 0.380121 -0.20055 -0.299095 -0.00578431 0.300734 0.508252 0.106147 0.223438 -0.101159 0.299999 -0.298596 -0.00166194 -0.000152082 -0.203544 0.309313 0.500204 0.116 -0.400773 0.398642 0.387932 -0.513871 -0.207998 0.122206 -0.00434843 -0.197155 -0.186016 
0.203698 0.275248 0.0105114 -0.364834 -0.396523 0.010278 0.0855612 0.485769 -0.199161 0.50009 -0.301178 -0.419366 -0.306095 -0.299224 0.00758917 0.00126578 -0.110835 -0.122012 0.203697 0.114977 0.187553 0.0594143 -0.109451 -0.199119 0.296262 0.214028 0.0919185 0.19405 -0.000177891 0.491336 -0.0951525 -0.190051 -0.00756974 0.0999004 0.37525 0.2766 -0.106454 -0.100149 -0.100675 -0.00955507 -0.100128 0.298625 -0.000576524 0.394797 0.0994172 -0.493387 -0.204361 -0.500275 0.399754 -0.199902 0.0389133 0.00674018 0.0913146 -0.204574 -0.099968 -0.200396 -0.000449586 0.290663 -0.000190136 0.500153 0.217077 0.108299 0.300728 -0.10309 0.189802 -0.203081 0.0440326 0.411974 0.0995829 -0.415367 -0.292756 -0.113212 -0.290299 0.0965972 -0.20043 -0.0031536 -0.000307524 -0.477547 0.199044 0.498956 0.197282 0.298754 -0.3971 0.400545 0.106058 -0.306549 0.308213 0.4211 -0.00284935 0.402225 -0.189236 -0.206354 0.295775 0.0981864 0.500274 -0.0946702 -0.0997629 0.199469 0.301446 -0.20242 0.39276 -0.187654 -0.315886 -0.000737298 0.200977 0.29861 -0.299281 -0.194038 0.304581 -0.381047 0.000604877 0.0999999 -0.49629 -0.502536 -0.499974 0.295411 -0.291994 0.093546 0.116709 0.198259 -0.199963 0.288074 -0.311855 0.491744 0.217616 -0.202914 0.502058 0.0140054 
0.000722717 0.0862366 -0.392384 0.213934 0.000636987 0.200814 0.500048 -0.0127666 0.200748 0.100191 -0.400764 -0.409293 -0.0019157 -0.400287 -0.493473 0.300963 0.390587 -0.305337 0.20056 -0.197297 -0.105068 -0.324777 -0.507682 -0.49954 -0.00122927 0.506836 -0.211628 -0.00177618 0.0998589 0.0909033 -0.39693 0.00778886 0.0942725 0.19991 -0.102213 -0.00983814 -0.103046 0.0999204 0.398935 -0.502723 0.299297 -0.401502 -0.301239 0.0902855 -0.299381 0.104228 -0.503232 -0.501308 0.299941 0.500156 -0.479444 0.303337 -0.505453 -0.402941 0.200027 0.400568 -0.000632685 -0.000418261 -0.300684 -0.199892 0.207938 -0.193567 -0.0999689 -0.502794 0.49374 0.0970201 0.219839 0.402394 -0.100393 0.49675 -0.495096 -0.312092 -0.090228 0.1981 -0.200339 -0.200217 -0.300049 0.412997 0.199573 -0.19988 -0.502477 0.100214 0.300882 0.400397 0.406446 0.392572 0.106774 0.320051 0.497708 0.00192747 0.502679 -0.0050932 -0.401628 -0.301535 0.400294 -0.49553 0.200338 0.299386 0.400419 0.497652 -0.402302 0.403791 0.392445 -0.400102 -0.398725 -0.500419 -0.398872 -0.494198 -0.199215 0.205178 -0.00029843 0.5 -0.0966839 -0.202454 0.100059 0.200506 0.504274 -0.00585062 0.00709801 -0.301503 8.49542e-05 -0.00927652 -0.507243 -0.00695904 0.412821 0.399043 0.300163 0.514787 
-0.399151 -0.411488 0.407043 0.114809 -0.099118 0.10022 0.108229 -0.203037 0.0999953 0.100303 -0.000543139 0.387253 0.498381 -0.399934 -0.293499 -0.399227 -0.307221 0.495933 0.0989258 -0.190893 -0.214313 0.185663 0.19315 0.402811 0.298639 -0.494109 -0.305093 0.297942 -0.201939 0.393367 0.101549 0.502963 -0.107234 0.399013 -0.404103 -0.00820162 -0.400948 -6.88293e-05 -0.300808 0.294555 -0.000970079 -0.00198777 0.398042 -0.408544 0.500223 -0.0970848 -0.301011 -0.100387 0.299663 0.000816844 -0.0862408 0.00179947 0.296755 -0.00340712 0.198963 -0.399786 0.501468 -0.200669 -0.500888 0.500677 0.108631 0.00784538 -0.500055 -0.00323864 -0.309582 -0.499882 -0.18288 0.209516 0.399433 0.395347 -0.491402 -0.00919754 0.010142 0.396712 0.399706 0.199903 0.0999415 0.0084014 -0.500371 0.500116 0.396772 -0.101072 0.503925 0.000489729 -0.300903 -0.105011 0.00501114 0.319718 0.399534 -0.00131251 0.201458 -0.200916 0.492112 -0.200704 0.100492 0.00383532 0.200611 0.29939 -0.298236 -0.101736 -0.30069 0.403142 -0.503422 -0.300284 0.401146 0.199931 -0.29958 -0.394821 -0.199266 -0.397509 0.499207 0.1 -0.292001 0.10117 0.19937 0.100839 0.50116 0.394273 -0.394256 0.497843 0.199951 -0.205402 -0.00329077 0.199602 0.00722804 -0.500986 -0.0997189 0.308418 
0.500766 0.198456 -0.297049 0.512466 0.300827 2.14059e-06 0.307662 -0.101719 0.199996 -0.499727 -0.400466 0.395254 -0.101509 0.099886 0.102575 0.300166 0.398631 -0.501788 0.0985816 0.408952 -0.110451 -0.108271 0.396336 0.00280863 -0.401064 -0.495677 0.198016 -0.301415 0.0981879 0.398665 0.000196203 0.102012 -0.402449 -0.100899 -0.103938 0.0968005 -0.400572 -0.400058 0.199424 0.0953219 0.398865 -0.10198 0.49848 -0.306976 0.100397 -0.299318 -8.25315e-05 -0.4996 0.299987 0.300812 0.410613 -0.0998223 0.299304 -0.00328859 -0.30102 -0.50017 -0.498812 -0.500553 0.0992901 -0.299693 0.305122 -0.0966803 0.299942 0.398072 -0.30663 4.17038e-05 -0.187183 0.50842 0.199668 -0.00264469 -0.493237 -0.308118 0.103071 0.39843 0.499855 0.500042 0.399962 0.104228 0.0996016 0.000114813 -0.102012 0.499786 0.403393 0.000483953 -0.200874 0.198449 -0.195378 0.409321 0.100505 0.100375 -0.398896 -0.300702 -0.307022 -2.65549e-05 0.00049135 0.401257 -0.0996429 -3.18448e-06 -0.399107 -0.0013804 -0.298752 -0.498928 0.397605 0.299782 -0.0990489 -0.100082 0.400445 0.502178 0.400481 -0.399654 -0.000653221 0.5 -0.494991 0.00130476 -0.300653 -0.399874 -0.299577 0.399992 0.401329 0.498952 -5.49427e-05 0.498074 -0.401836 0.30083 -0.0940317 0.299553 0.500273 -0.395452 
0.100111 -0.312719 -0.491866 0.111688 0.200808 -0.395625 0.310224 -0.401453 0.4 -0.399958 -0.405426 -0.00464274 -0.20195 0.199957 -0.197663 -0.195473 -0.506069 -0.100343 0.297294 0.0173559 0.388859 -0.221984 -0.511771 0.102488 -0.102479 0.311943 -0.204193 -0.300463 -0.301805 -0.501591 0.0999394 -0.398827 0.0985174 -0.300904 0.397345 -0.00196694 0.100234 -0.21108 -0.499753 -0.108224 0.199792 0.198171 -0.000906594 -0.0098358 -0.199374 0.500716 0.499852 -0.301555 0.499968 0.000724467 -0.191622 -0.390188 -0.301095 0.0969133 0.0989443 0.300814 0.301058 -0.400232 0.495248 -0.199305 0.505273 0.103437 -0.200078 -0.101513 -0.00670696 -0.39969 0.429232 -0.486678 -0.500334 -0.313267 -0.293109 0.182753 0.315864 0.195566 -0.0999825 -0.500086 -0.100106 -0.38867 -0.500204 0.100732 0.198068 0.300117 0.00396967 0.00139156 -0.500744 0.0974695 -0.0901413 -0.469632 -0.499396 -0.501305 0.307868 -0.304941 0.393729 -0.100009 0.000232627 -0.492842 -0.0826249 0.000574247 -0.298105 -0.00155392 -0.199113 -0.498579 -0.109938 -0.100214 -0.499388 0.198961 0.299868 0.30361 0.00150264 0.212399 0.395307 0.3 0.30499 0.304887 0.0993104 -0.287326 0.100218 0.188121 0.105433 -0.100578 0.389068 0.201607 -0.00247845 0.00169046 -0.289508 -0.000271035 -0.0996264 0.00540526 
-2.79764e-05 0.287737 0.105797 0.400592 -0.399267 0.104222 0.502575 -0.300282 0.5 -0.400131 0.394704 0.197436 -0.30186 0.500028 0.400629 0.504502 0.394083 0.499958 -0.00102181 -0.38958 0.298874 0.284868 -0.408701 6.96023e-05 -0.5016 0.408402 0.296001 -0.200006 -1.48713e-05 -0.200456 -0.099474 -0.199936 0.0991106 -0.400004 0.199554 0.398509 0.100081 0.0889203 3.59045e-05 0.195275 -0.299999 -0.3 -0.400114 0.396942 -0.200075 -0.499329 0.0999163 -0.501842 0.30001 -0.0999904 0.100079 0.509708 0.299512 0.0999794 0.200009 -0.298886 -0.499356 0.300001 0.196034 0.200023 0.301022 0.300448 1.71128e-06 -0.500013 -0.00068367 0.100308 0.0198393 -0.494463 0.0998958 -0.412414 -0.499443 -0.0111689 0.213129 0.396944 0.300034 -0.100111 -0.200075 -0.0913436 -1.30909e-05 -0.199302 -0.300686 -0.300154 0.101189 -0.0988208 0.400078 -0.401095 0.306426 -0.378116 -0.400096 -0.501405 -0.192143 -0.104412 -0.299977 -0.500017 -0.299968 -0.493431 0.217181 -0.299403 0.50038 -0.50148 -4.03497e-05 0.30093 -0.00889372 0.0999946 0.300173 -0.101002 -0.100246 -0.398076 0.00131572 0.0123788 0.49579 0.5 0.400007 -0.39645 -0.400002 -0.187581 0.100071 0.388209 -0.294645 0.200038 0.489197 -0.397868 -0.000964043 0.200667 -0.494357 -0.000218672 -0.499778 0.50034 
-0.4 0.3 -0.5 0.2 0.1 0 0.1 0.3 -0.2 0 0.3 0.2 0.2 0 0.2 0 -0.3 -0.3 -0.4 0 0 -0.3 0 -0.5 0 -0.2 0 0 -0.3 -0.4 0 0.3 0 -0.1 0.3 -0.3 0.2 -0.1 -0.1 -0.4 0.5 0.4 -0.1 0.1 0.4 -0.5 0.4 -0.1 0.5 -0.4 -0.1 0.4 0.3 0.3 -0.4 0.5 -0.1 0.1 0.2 -0.1 0.2 -0.2 0 0.2 -0.5 0.5 0 -0.2 -0.2 0.1 -0.1 0.1 0.4 0.3 0.3 0.1 -0.3 0 0.4 0.5 0.4 0.3 0.5 -0.5 0.1 0.4 0 -0.5 -0.3 0.2 0.2 0.4 0 0.2 0.4 0.4 0.3 -0.3 0.4 0 -0.3 0.4 -0.1 0 0 0.1 -0.4 -0.5 0.1 -0.3 -0.2 0.1 0.2 -0.1 0 0.3 -0.5 0.5 -0.2 0 -0.1 -0.1 -0.1 -0.3 -0.5 0.1 0 0.1 
0 0 -0.5 0.5 -0.3 -0.4 0.2 0.2 -0.2 -0.4 -0.1 0 0.2 -0.5 -0.1 0.1 0.3 -0.1 -0.5 0.4 -0.1 0.4 0.1 -0.5 0.5 0 0 -0.1 0.5 -0.3 -0.3 0.3 -0.2 -0.5 0 0 0.2 -0.5 0 -0.2 -0.3 0 0.4 -0.4 -0.4 0.5 0.1 -0.3 0.3 0.5 0 0.3 -0.5 0.5 -0.4 0.4 0.1 0 0 0 0.4 0.2 -0.4 0 0.3 0 0 -0.2 0.2 0.3 -0.1 0 0.1 0.5 -0.5 -0.1 0.5 0.1 0 -0.2 -0.4 0.1 0 0.1 0.4 -0.1 -0.3 -0.5 -0.2 0 -0.1 0.4 -0.4 0.1 0.3 0 -0.1 -0.4 0.5 -0.2 0.5 0 0 -0.2 0.2 -0.2 -0.1 -0.4 0.1 0.3 -0.4 0.3 0.4 0 -0.1 0 0.1 0.3 0.2 -0.4 0.1 -0.2 -0.5 0.4 0 -0.1 0 -0.4 
0.3 0.2 0.1 -0.5 0 -0.5 0.4 0.1 -0.3 0 0.3 0.5 -0.3 0 0.1 0 -0.4 0.3 -0.5 -0.2 -0.2 -0.3 -0.3 0 0 0.3 -0.3 -0.3 0 -0.1 -0.4 -0.4 -0.5 0 -0.5 -0.2 0.3 0.4 -0.5 0 0.2 0.3 0.1 -0.5 -0.1 -0.3 0.3 -0.5 0.1 0 0 -0.2 0.3 0.5 0.5 -0.4 -0.3 -0.5 0.5 -0.2 -0.2 -0.1 0 -0.1 0.5 0.4 0 -0.5 -0.3 -0.2 -0.1 -0.1 -0.2 0.5 0 -0.3 0.2 0.4 0.1 0.3 0.1 -0.1 0 -0.3 -0.5 0 -0.5 0.4 0.3 0 0.2 0.3 0.1 0.3 0.2 -0.1 -0.2 -0.2 -0.4 0.3 0.5 0.4 -0.5 0 0.4 0.3 0.4 0.5 -0.1 -0.3 -0.5 0.3 0.4 -0.5 -0.5 0.4 0.5 0.1 0.3 0.4 -0.5 0.1 0.1 -0.2 -0.4 0.1 0 -0.4 
-0.5 -0.5 -0.3 -0.5 -0.3 0 0.4 0.1 -0.2 -0.5 0.3 0.5 0 0.1 -0.1 0.3 0.5 -0.1 0 0.4 -0.1 0.2 0 -0.3 0.3 -0.1 0.4 -0.1 -0.3 0.4 0.5 0 0 0.2 -0.4 0.3 0.3 0.2 0.4 -0.1 0 -0.4 0 -0.2 0.5 0.5 -0.2 -0.3 0.3 0.5 -0.5 -0.2 0.3 0.1 0.5 0.2 0 0.3 0.3 0.1 -0.5 0.5 0.1 -0.3 -0.4 -0.4 -0.4 -0.3 0.5 -0.5 -0.3 -0.1 -0.2 0.1 0.4 0.1 -0.1 0.5 -0.1 -0.2 0 0.1 -0.2 -0.1 0 -0.1 0.2 0.1 0.4 -0.5 -0.3 0.3 0.4 0.2 0.5 -0.5 0.2 -0.1 -0.3 -0.4 0.2 0.1 0 -0.2 -0.3 -0.2 0.3 0.4 0.5 -0.5 -0.4 0.1 0 0.2 0.4 -0.3 -0.5 0.1 -0.5 -0.3 -0.1 0.3 0.2 0.5 0 0 0 0.5 
-0.4 0.5 -0.3 0 -0.1 0 0.2 0.4 0 -0.3 -0.3 -0.3 -0.5 0.2 0.2 -0.4 -0.4 -0.5 -0.2 0.1 0 -0.5 0.5 0.2 -0.2 -0.5 -0.4 -0.4 0 0.4 0.5 0.3 0.2 0.3 0.3 -0.5 0.2 0 -0.1 0.1 0 0.1 0 0.5 0.3 0.1 -0.3 -0.5 0.4 0.4 0.2 0.3 -0.2 0.4 -0.2 0 0 0 0.1 -0.4 -0.5 -0.1 -0.3 0.4 -0.4 0.5 0 -0.5 0.4 0.3 -0.1 -0.2 -0.5 -0.1 -0.2 -0.3 -0.4 0 -0.1 0.5 0.3 0 -0.1 0.3 -0.3 0 0 0.4 0.3 0.3 0.3 0.3 -0.3 0 -0.1 0.2 0.5 0.2 0 0 0 -0.3 -0.1 -0.5 0.1 0.3 -0.5 0.3 0.2 0.1 0 0.1 0 0.3 0 -0.2 0.5 -0.1 -0.3 0.5 0.3 0 0.2 -0.1 0 0 -0.4 0.5 
0.4 -0.2 0.1 -0.4 0.4 0.3 0 -0.3 0.1 -0.1 -0.2 -0.3 0.1 0.5 0.4 0.5 0.1 0.1 -0.3 -0.5 0.3 0.2 0.3 0 -0.3 0 0.3 0.4 0 0.3 0 0.3 -0.5 0.1 0 -0.2 -0.2 -0.1 0.5 0.5 0.5 -0.4 -0.5 0.4 -0.5 -0.5 -0.5 -0.3 0 -0.3 -0.2 0 0 0.4 -0.2 -0.2 -0.2 0.3 0.4 0.4 -0.3 -0.2 0.1 0.2 0.1 0.5 -0.2 -0.2 0 0 -0.1 -0.1 -0.2 -0.2 -0.4 0 0.4 -0.5 0.4 0 -0.2 -0.2 -0.1 -0.3 0 -0.2 -0.3 -0.2 -0.5 -0.5 -0.2 0.4 0.1 -0.1 0 0 -0.2 0.4 0.3 0.5 0.5 -0.5 0.3 0.5 -0.4 -0.3 -0.4 -0.5 -0.2 -0.5 0.1 0.5 0.2 0 0.3 0.5 0.1 -0.5 0.4 0.3 -0.5 -0.3 0.4 -0.4 -0.3 0.3 0 -0.4 
0.4 -2.28167e-10 0.1 -1.28141e-07 -0.2 1.19452e-08 0.2 -6.46676e-11 0.4 -0.5 0.2 0.3 0.2 1.00113e-07 -1.07186e-09 -0.2 -0.2 -0.5 0.5 -0.3 -9.7288e-09 -0.2 -0.2 0.1 -0.1 0.2 0.4 0.2 0.1 0.4 -0.3 -0.4 -0.5 -7.59987e-13 0.3 0.5 -0.1 0.5 7.85475e-10 -3.35152e-11 -0.3 0.4 0.4 -1.92593e-10 0.5 0.3 -0.2 -0.5 0.4 -0.4 0.5 0.1 0.2 0.2 7.66071e-13 0.3 0.2 -0.3 0.2 0.1 -0.3 1.54436e-09 -0.5 -0.5 0.5 -8.61557e-15 3.03726e-10 0.4 0.5 -0.1 -0.5 0.2 3.90374e-10 -1.26953e-13 0.2 0.4 0.3 -0.4 4.46434e-11 0.1 0.0999997 -2.10214e-07 2.794e-10 -0.1 0.5 0.1 -0.2 -0.3 -0.4 -0.1 -0.3 0.2 6.95521e-12 -0.3 -0.1 -0.5 4.01972e-11 0.5 0.2 -0.5 0.3 -1.68189e-10 -0.4 -0.1 3.04057e-13 0.2 -0.1 -0.2 -0.4 -0.0999999 -2.72011e-11 0.1 0.4 -0.5 -0.5 0.4 -0.5 -1.16058e-07 0.2 -0.3 -0.4 0.3 -3.33927e-08 0.5 -0.3 -0.5 0.3 -0.2 
-0.50008 0.495368 -0.2978 -0.103267 0.496954 -0.400023 0.000868667 -0.400016 0.4 -0.301733 -0.000116438 -0.300037 -0.300941 -0.299902 0.500104 0.3 0.0995088 0.498903 -6.43475e-08 0.299559 -0.500021 0.0979478 -0.200329 0.197369 0.400192 -0.199993 -0.500662 0.1 -9.26802e-07 0.398366 -0.198023 -0.00011435 0.399891 0.4 -0.199917 -0.500002 -0.299137 -0.300023 0.499934 0.402148 0.00657494 -0.290261 0.299981 -0.512168 0.400168 0.299799 0.0997361 -0.500025 0.399998 -0.299962 -0.10066 7.66108e-06 -0.201137 0.199916 0.500001 -0.099882 -1.37122e-05 -0.19993 -0.200004 -0.199855 -0.199787 -0.499975 -0.0996451 -0.1 -0.295796 0.199961 0.407587 0.300303 -0.299996 -0.304982 -0.00132784 0.397306 0.300556 -0.4 0.0999711 1.1146e-06 0.198381 -0.499743 0.00668136 -0.194974 -0.00131534 0.399562 -0.399766 0.494857 0.198297 4.50118e-05 0.400003 -0.399953 -0.100031 0.399342 0.499945 0.2 0.114653 -0.2 -7.51986e-05 -0.29843 0.5 0.1 -0.0999985 0.399905 -0.200076 0.399192 0.49675 0.502825 0.200023 -0.299997 0.200041 0.500749 0.200015 0.501228 0.199978 0.3 0.396897 -0.190851 -5.27008e-08 0.305081 0.299969 -0.200661 -0.498314 0.4 0.399774 0.207661 0.300001 -0.0998629 0.499724 0.499975 -0.3 0.500265 
-0.100038 -0.104638 0.502308 -0.503151 -0.102862 0.100221 0.400165 -0.500233 0.1 -0.401741 -0.199819 -0.300037 -0.200949 -0.399716 -0.0998249 -0.199995 -0.200478 0.498302 8.26776e-05 -0.100408 -0.200153 -0.402053 -0.100062 -0.102797 0.500019 -3.17136e-05 0.0992548 0.49996 0.299999 -0.501634 -0.49764 0.499962 0.299895 -0.5 -0.300039 0.199532 -0.399167 -1.1126e-06 -0.200026 0.00193688 0.406591 0.409748 5.5761e-06 -0.212171 -0.200156 -0.00032647 0.499779 -0.499942 -1.66236e-06 0.400038 -0.000357147 -0.299992 0.398734 0.199974 -0.499977 0.299883 -0.399725 0.499696 -0.400004 0.40016 -0.399914 0.500042 0.100367 0.399995 -0.395789 -0.300128 -0.292142 0.499977 -8.89268e-05 -0.404981 -0.00132326 0.297203 0.400598 -4.23724e-06 -0.499907 -0.200016 -0.501617 0.000315256 -0.493186 0.505026 0.298593 -0.400679 0.100326 -0.405159 -0.301919 0.500335 0.100038 -0.299957 -0.400014 0.199266 -0.399754 0.099994 -0.28564 -0.499999 0.100018 0.401382 0.499999 0.199918 -0.200036 -0.500127 -2.40147e-05 -0.400718 -0.00326946 0.202825 -0.499912 0.200005 0.400012 0.400586 0.100133 -0.0987093 0.500013 0.3 0.1967 -0.490831 -0.499999 0.00505658 0.0999713 -0.400428 0.102045 -0.200003 -0.400225 0.307361 0.299873 0.000166344 0.299779 -0.400033 0.500009 0.299985 
0.400191 0.0931161 0.306661 -0.403478 0.400287 0.0026331 0.00220374 0.39912 -0.098025 3.38833e-05 -0.000938694 0.199988 -0.300515 -0.399942 -0.49978 0.300306 -0.102659 -0.500575 0.000125618 -0.299671 -0.30201 0.291973 0.499971 -0.299979 -0.000574846 0.301066 -0.202184 0.499923 -0.1 -0.0997674 -0.39964 0.300051 -0.100024 9.55796e-08 -0.000388572 -0.00137709 -0.401953 0.194049 0.499978 -0.000431565 -0.199986 -0.100039 3.98748e-06 0.500103 -0.400064 -0.000188717 0.400187 -0.503941 6.34638e-07 0.100072 0.20023 -0.396445 0.199842 0.497865 -0.199979 0.300625 0.000236646 -0.000496793 -0.100158 -0.299989 0.00678524 -0.197793 -0.199992 0.199996 0.399747 0.299909 -0.0994524 0.300098 -0.200106 0.0997961 -4.35569e-05 0.399799 0.206495 -0.202135 0.100009 0.399995 -0.300044 0.40014 -0.499881 -0.399906 0.199776 -0.00120353 0.301027 -0.399986 -0.199741 -0.202783 -0.0975745 0.100363 0.0992496 -0.199764 0.500745 -0.300063 0.399786 -0.299944 1.82395e-05 0.200054 5.38596e-05 -0.000143927 -0.10007 0.0990681 -0.500863 -0.0997235 0.49973 -0.400003 0.300031 0.0999865 -0.499999 0.500495 -0.0997343 0.500139 -0.200236 0.4 0.101228 0.400802 -0.100051 -0.29821 -0.101023 -5.58816e-05 0.305154 0.000114368 0.399348 -0.500567 0.498648 -0.499786 0.40033 -0.400176 -0.0998649 -0.198553 
0.000296245 -0.220926 -0.481847 0.400806 0.400433 -0.395886 0.403965 0.298783 0.00309023 0.000172524 0.29627 0.198911 0.28983 0.299542 0.401763 0.0101471 0.187363 0.299908 0.500075 0.105115 0.387085 -0.0260542 0.398424 -0.399899 0.292622 -0.491248 0.492082 0.199666 0.20003 -0.00219304 0.199694 -0.19998 -4.46915e-05 -0.199998 0.0993259 0.493048 -0.101342 0.186793 -0.200002 0.498414 0.299979 -0.401525 -0.300167 0.197269 0.399113 -0.00013002 0.299698 -0.106153 9.34178e-08 0.00023112 -0.0998716 0.113834 -0.200143 0.291286 0.20001 -0.195628 0.499993 -0.000975715 -0.305185 0.500007 -0.17709 -0.391741 -0.20121 -0.300013 0.49851 -0.399971 0.100537 0.00580212 -0.100113 0.497236 0.00266364 -0.200912 0.509378 -0.307759 0.499873 0.19996 0.398213 0.5005 0.499503 0.499617 -0.200307 -0.00132415 0.00573531 0.000566798 -0.0995654 0.293754 -0.392262 0.416797 0.39856 -0.498687 -0.397776 -0.500117 -0.499887 0.196393 0.200004 -0.290062 -0.495245 -0.500051 0.401848 -0.212033 -0.301632 0.500459 -0.404066 0.399961 -0.500004 -0.301197 3.81927e-06 -0.395162 0.505156 0.500874 -0.402015 -1.59294e-06 0.101451 0.301683 -0.000560457 0.00348254 0.299186 -8.06434e-05 -0.385342 0.401408 -0.0109642 -7.28237e-05 -0.00729795 0.100306 0.0011798 0.499249 -0.30007 -0.377747 
-0.199565 -0.226137 0.52273 0.000346231 -0.0969868 -0.290818 0.00471625 0.293045 -0.495878 -0.406196 -0.109644 -0.0106484 -0.01833 0.402826 -0.00207756 0.313804 -0.42 0.299439 0.498417 -0.0931117 0.274241 0.0614504 -0.304913 -0.100872 -0.00918286 -0.279158 -0.513429 0.404121 -0.502815 -0.301346 0.100452 -0.196547 0.201368 -0.100015 0.393981 -0.409856 0.298231 -0.32171 0.507212 -0.301891 -0.0956971 0.396274 0.199189 0.48898 0.0988927 -0.39413 0.300421 -0.523421 0.199866 -0.199231 0.296123 0.422663 0.398393 0.492352 0.0996017 0.208302 -0.300009 -0.496713 -0.306427 -0.000769654 -0.465267 0.228619 0.399167 -0.496537 -0.501993 -0.202287 -0.0966931 0.00897111 0.497792 -0.0078579 0.00224669 -0.506414 -0.386499 -0.311368 -0.3018 -0.199063 0.0975123 -0.393199 0.00115446 -0.397081 0.29817 -0.400071 0.411553 0.411586 0.00142749 -0.512123 0.0119365 0.529038 0.297316 0.0971191 0.199595 -0.208306 0.00688761 -0.00802615 -0.0993408 -0.284499 -0.284069 -0.300005 0.505776 0.182806 -0.00137296 -0.500002 0.092733 0.00927374 0.197596 -0.00618463 -0.300097 -0.090875 0.111507 -0.104107 -0.504382 0.199993 0.504592 0.104375 -0.400567 0.011592 0.303906 -0.19936 -0.177539 -0.300713 -0.22112 0.503555 -0.0177491 -0.199865 0.204133 -0.300902 0.300985 0.334653 
0.512462 0.0688027 0.526217 0.0981616 0.511587 0.0175681 -0.392728 -0.0254487 -0.494883 0.196491 0.0904166 0.384567 -0.531709 0.0998605 0.396811 0.0139334 0.272689 -0.295436 -0.198888 -0.479087 0.362217 -0.354227 -0.508712 0.198947 -0.515975 0.0383938 -0.0155662 0.0953884 0.19217 -0.302211 0.407368 0.292489 0.299651 -0.500292 -0.320272 0.388202 0.186734 -0.534261 -0.39025 0.277267 -0.300593 -0.302207 0.292466 -0.213118 -0.105539 0.204377 -0.00353709 -0.507142 -0.00371551 -0.498605 0.0168192 -0.383388 0.00308302 0.464337 -0.0994966 0.00628768 0.0957594 0.197901 -0.207934 0.499522 -0.24278 -0.260624 -0.397145 0.498132 -0.102673 0.0954515 -0.452331 0.214711 -0.201692 -0.513951 -0.384923 -0.221026 -0.183896 -0.316522 -0.402729 0.304499 -0.00331171 -0.0854356 -0.0068891 0.10204 -0.401018 0.00560671 0.518413 -0.381329 0.501617 0.399631 0.526976 0.0410949 -0.509774 -0.491661 -0.475653 -0.409562 -0.41695 0.492544 -0.386393 0.221682 0.409945 -0.400545 0.000180833 0.47721 -0.203528 -0.00576114 -0.403796 -0.105151 -0.00828188 -0.309944 0.199347 0.0132117 -0.481745 0.505517 -0.00321173 -0.200206 0.503907 -0.190853 0.298203 0.512429 -0.105863 -0.503706 0.130845 0.298161 0.388068 0.0154348 -0.421024 0.0966391 0.314509 0.193516 -0.393142 0.142305 
0.518134 -0.139089 -0.263005 0.105822 -0.182789 0.415595 -0.092578 -0.546936 -0.00341995 0.29422 0.290488 0.17696 -0.228395 -0.410414 -0.106624 0.324929 -0.0188901 0.11263 -0.20183 0.444144 -0.532761 0.324544 0.191088 0.502458 -0.116455 0.0609016 -0.528186 -0.507331 -0.208529 0.392024 0.315927 -0.0118289 -0.203046 -0.000727529 -0.0203252 0.272189 0.38604 0.0578772 0.516087 0.253851 0.397474 0.386801 -0.0089674 -0.0247794 0.493724 0.211297 -0.510606 -0.0977509 -0.406893 -0.196066 0.215817 -0.474742 -0.406959 -0.357349 -0.0993108 -0.395309 -0.307621 0.19394 -0.2167 -0.506755 0.346925 0.138616 0.00586831 0.193139 0.202723 -0.505344 0.372249 0.117324 -0.000282317 0.0502448 -0.17499 -0.553882 -0.0804719 -0.533115 0.199891 0.304752 -0.505254 -0.386367 -0.00860636 -0.1956 0.101028 0.207965 0.330337 0.237052 0.00134455 -0.507129 0.02956 -0.124622 -0.407246 -0.397202 0.238428 -0.310716 0.270894 0.493219 -0.484614 0.0301577 0.0249976 -0.102082 -0.101799 -0.219199 0.292133 0.39881 0.268798 0.482234 -0.00733616 0.187789 0.396393 0.0114302 -0.184049 0.320795 0.389842 -0.200632 0.497382 -0.0768089 -0.501096 -0.389754 0.301243 -0.51613 0.352908 0.0929978 0.487737 0.0269258 -0.326277 -0.304487 0.321878 -0.414396 0.00699433 0.0594993 
0.0412702 -0.0782363 0.16848 0.415875 0.0269224 0.522357 -0.495844 -0.0674487 0.299536 0.482372 -0.311635 -0.0564506 0.145779 -0.516314 -0.100023 -0.346591 0.0707801 0.219306 -0.51125 0.0928044 -0.444861 -0.609684 -0.0279599 0.128734 -0.0147465 -0.113013 -0.042904 -0.319144 -0.51657 0.18531 -0.179542 -0.211639 -0.409018 0.193337 -0.532824 -0.14985 0.281756 -0.0656013 -0.358343 -0.0858099 -0.21507 -0.529362 -0.413091 0.237307 0.0893939 -0.177189 -0.115538 -0.274481 -0.310506 0.108339 -0.470683 -0.350016 0.186204 -0.166544 -0.0108728 0.291935 -0.117735 0.0877141 -0.0214869 -0.417871 0.584224 0.0507368 0.394265 -0.416314 0.195855 0.0917057 -0.00779979 -0.255201 -0.103369 0.316658 -0.346413 0.211565 -0.280405 -0.542469 -0.414669 -0.297893 -0.512079 0.518245 -0.526842 0.517321 -0.207361 -0.393832 0.327835 0.102396 -0.287847 -0.0163114 -0.346864 -0.389988 -0.122518 0.215056 -0.347071 -0.332571 -0.0188137 0.378116 0.0251159 -0.446482 -0.0227684 -0.493176 -0.200792 0.171116 0.491371 0.008331 -0.0541127 -0.186427 0.49495 -0.307945 -0.508008 0.125056 0.214434 -0.359235 0.292608 -0.000275953 0.10308 0.0329738 0.000867507 -0.282345 0.515673 -0.120922 -0.108945 -0.117817 -0.328646 -0.459186 -0.333801 -0.218398 0.346746 -0.0235937 0.415446 -0.119787 
-0.356788 -0.318736 0.160969 0.0107243 -0.267392 0.0323774 -0.464398 -0.0465912 0.10093 0.297373 -0.210889 -0.0650937 0.230321 -0.201949 0.102707 0.366644 -0.0370154 -0.377473 -0.51258 -0.103745 -0.342998 -0.334242 -0.536841 0.231066 0.280198 -0.214034 -0.0562894 -0.271835 0.38944 0.0828636 -0.48683 -0.522941 -0.325003 0.28593 0.36591 -0.100154 0.10893 -0.258655 -0.446085 0.295777 0.169478 -0.0359457 -0.310459 0.116005 -0.218922 0.42877 -0.41801 -0.272954 -0.512106 0.205115 0.226818 0.584179 -0.0373166 -0.279237 -0.0149986 -0.306535 0.479049 -0.205391 -0.222539 0.468949 0.28545 -0.153052 -0.323443 -0.118437 -0.286978 -0.01162 -0.195074 0.0564481 0.194861 0.403536 -0.35144 0.103823 -0.183429 -0.443309 -0.420246 -0.103713 -0.0119826 0.440766 0.273183 0.0152259 0.271288 0.209027 -0.36282 -0.290155 -0.380061 0.497982 0.168451 0.124982 -0.215297 0.197395 0.351086 -0.54332 -0.0834529 0.266363 0.311595 -0.451714 -0.301291 0.194284 -0.493623 -0.125264 0.403637 -0.0855783 -0.168626 0.119164 -0.11287 0.090442 -0.406364 0.043013 -0.368285 0.451732 0.384752 -0.384274 0.500981 0.333173 -0.398978 -0.395789 -0.28713 -0.121042 0.111067 0.468053 0.0619946 0.242125 -0.543547 -0.0143334 0.339286 0.462356 0.0113234 0.189382 
0.245493 0.162158 -0.0336721 0.211027 0.528753 -0.386556 -0.44706 -0.100647 0.405124 0.101316 0.369362 0.253764 0.129341 0.296209 -0.00323462 -0.34299 0.459285 -0.00390891 -0.402438 0.314361 -0.0147726 0.171514 -0.235187 -0.254351 -0.0217609 0.57772 0.252034 -0.0751187 -0.407772 0.475403 -0.309411 0.258318 0.467158 0.48914 0.501217 -0.603203 0.511778 -0.0382862 0.0504826 -0.485982 -0.124959 -0.03583 -0.0344677 -0.00114503 -0.0263163 -0.16425 0.279236 -0.0850107 -0.308911 0.0996574 0.423234 0.072585 -0.435801 -0.102391 -0.3128 0.295222 -0.53354 -0.219619 -0.527563 -0.357312 0.505158 0.543649 0.0789833 0.281734 0.503484 -0.399249 0.601844 0.0840429 0.200318 -0.175802 -0.35742 0.195281 0.505439 -0.226103 0.263072 0.492292 0.0736307 0.381751 -0.121318 0.310496 -0.429585 0.00215443 -0.154664 0.325983 -0.0729563 -0.415199 0.335106 0.00931492 0.296159 -0.188774 0.417679 -0.0604338 0.166963 -0.328509 0.305995 0.234954 0.275378 0.192812 0.4221 0.375789 -0.00817874 -0.0852262 0.12468 0.321403 -0.321383 -0.410233 -0.289942 -0.245917 -0.364632 0.0703592 0.366623 -0.00358765 0.101625 0.0250769 -0.2988 0.111501 0.501966 -0.530741 0.52527 -0.407455 -0.129466 0.0573394 -0.352177 -0.322181 0.243712 -0.555007 0.0155904 0.365274 
0.345655 0.182159 0.563088 0.120927 0.024509 0.325867 -0.274893 -0.0174896 0.513297 0.31595 -0.0290058 -0.354681 -0.348627 0.404353 0.208072 0.54546 -0.0533373 0.17232 -0.196793 0.525271 0.280737 -0.625747 0.161181 -0.340666 0.0780755 -0.0205444 0.356144 -0.509824 0.0857717 -0.0274007 -0.00730784 -0.00745441 0.149119 0.198276 0.145985 0.382131 -0.370855 0.481241 -0.0628931 -0.489763 -0.13451 0.0904199 0.45293 -0.294059 0.381151 0.0116682 0.271936 -0.0431258 -0.503396 -0.406535 -0.43246 0.569277 -0.242416 -0.308955 0.517293 0.499688 -0.424227 0.270172 -0.328859 0.139551 0.499405 -0.455025 0.0842152 0.163053 0.102196 0.301621 0.406804 -0.317372 -0.297355 -0.456958 -0.160877 0.0910653 0.111479 -0.026815 0.270928 -0.292025 0.38355 0.509007 0.181593 -0.18351 0.0709094 -0.201767 -0.0498683 0.227902 0.435868 0.419775 0.449417 0.409793 0.205172 -0.470694 -0.256486 -0.0663761 -0.316644 -0.410566 0.214474 0.218157 0.131483 0.0911 0.137384 -0.413968 0.293337 0.524473 -0.281326 -0.464113 0.377837 0.280764 0.0442207 -0.144955 0.145515 -0.108863 0.0679357 -0.39543 0.0975977 0.519344 0.0999494 0.0102482 0.499084 -0.226071 0.233862 0.00210342 -0.535612 0.539644 -0.436993 -0.0206996 0.243227 0.352517 0.207159 -0.348418 
-0.47054 -0.136496 0.580177 -0.278988 0.0245105 0.434241 -0.266709 0.479559 0.312676 0.00391493 -0.224125 -0.156778 -0.335101 0.514193 -0.00518491 -0.360026 0.0427168 -0.284375 -0.285564 0.126134 0.359762 -0.117048 0.257147 0.059867 -0.428809 -0.225743 -0.0404792 -0.20967 -0.403812 0.472955 0.309956 -0.382217 -0.137935 0.113878 -0.376166 -0.298471 -0.383532 -0.30811 0.115245 0.401514 0.501224 0.039723 -0.420884 -0.601761 -0.000532562 -0.00343515 -0.0334074 -0.0542709 -0.490656 -0.306149 0.153075 0.0735964 0.34703 -0.123847 0.235766 -0.401196 -0.00395896 0.170815 0.0530771 -0.509414 0.210999 0.34858 -0.0666966 -0.021049 0.0098545 -0.300095 0.0497711 -0.226544 0.097625 0.251901 -0.156263 -0.299913 0.211782 -0.423078 -0.113194 -0.0794159 -0.014343 0.01986 -0.00438887 0.504516 -0.449225 -0.0259106 -0.0479916 0.0344545 0.521085 -0.454519 -0.0415063 0.500413 0.300251 0.514996 0.575179 0.32221 0.370153 -0.209004 -0.0912114 -0.287271 -0.491625 0.48747 0.0138812 0.492403 0.485432 0.427023 0.197123 0.372649 -0.370705 -0.425 0.0845562 0.357979 0.330214 0.307529 -0.442215 -0.19398 0.401678 0.0210685 -0.000774962 0.135943 -0.499379 -0.0344541 -0.15581 0.41954 0.0617387 -0.401107 -0.432168 0.00507596 -0.359562 -0.432047 -0.4855 -0.157316 
-0.498434 0.0835501 -0.420156 -0.457716 0.330342 -0.470806 -0.092358 0.458257 -0.192056 0.406869 0.481783 0.235359 -0.0255883 0.0188841 -0.112154 0.328486 -0.450797 0.307919 0.303223 0.136965 -0.336221 -0.62061 -0.548888 -0.439815 -0.128117 0.0724638 0.0724086 -0.372876 0.0891782 -0.531471 0.41958 -0.0600006 -0.5156 -0.28776 -0.289057 0.210561 -0.4888 -0.507744 -0.183926 -0.378123 -0.169899 0.134694 -0.392407 -0.264016 0.00393335 -0.0160269 0.0752541 -0.251471 -0.483418 -0.406014 -0.123912 -0.433 -0.261527 -0.109153 0.0296161 0.198101 -0.00590506 -0.130495 0.163688 0.078845 0.191958 -0.370886 0.137746 -0.316353 -0.182786 0.380389 0.226648 -0.221809 -0.407241 0.25076 -0.0474726 -0.371551 0.311015 0.37028 0.280084 0.213128 -0.110366 -0.314543 -0.0065783 -0.40617 0.256047 -0.439094 -0.163912 -0.182104 0.223616 0.2327 -0.25934 0.178417 -0.0984022 0.0925518 -0.3165 0.227976 -0.25193 -0.308719 -0.374503 -0.495128 0.0129612 0.398954 -0.482207 -0.522353 0.390091 0.0517831 -0.50842 -0.337394 0.11875 0.270811 -0.0115385 0.454787 -0.454705 0.264112 -0.0258635 -0.405958 0.20837 -0.290664 0.198509 -0.186981 0.509234 -0.425011 -0.0814061 -0.193078 -0.134539 -0.229293 -0.240469 0.50356 -0.337141 0.0790559 0.111653 0.338405 
0.195244 -0.52619 0.267188 -0.140407 -0.0708508 -0.486283 -0.0607836 -0.061776 -0.294613 0.0247458 0.479061 -0.552753 0.470991 -0.0881505 0.479916 -0.282141 0.153994 -0.0565725 0.322074 0.109727 -0.44716 0.267259 -0.458607 0.0576455 -0.135653 0.267222 -0.220051 -0.356993 -0.131017 -0.0274126 0.534031 0.146418 0.203228 -0.400636 -0.558687 -0.579282 -0.0846988 0.384027 0.533883 0.0482106 0.00619809 -0.375815 -0.491017 0.40238 0.506171 -0.0268349 0.488577 -0.137647 -0.481855 0.292994 0.211229 -0.225452 -0.0731517 -0.0777791 0.017863 -0.180449 0.389608 -0.116034 0.167806 -0.034214 0.199704 0.0349069 -0.081974 0.27292 0.11638 -0.449195 0.201642 0.0755124 0.188284 -0.259502 -0.251412 -0.452301 0.31493 0.449709 0.482602 -0.00717587 0.398822 -0.428413 0.486514 0.00280792 -0.541141 -0.0320253 0.047041 0.434646 -0.459114 -0.0844445 0.240639 0.0659107 0.0112419 -0.431778 0.564827 0.0388583 0.408983 -0.310781 -0.279417 0.416759 0.520456 0.399763 -0.155613 -0.0291641 0.000808144 0.43791 0.228617 0.451286 -0.0903559 -0.320508 -0.3383 0.0332825 0.135124 0.06391 -0.31383 0.0026449 0.0245118 0.0157738 -0.505705 -0.37751 0.0936431 -0.231569 0.296616 -0.300391 -0.250374 0.0382397 -0.529858 -0.198154 -0.42677 0.0890622 -0.287306 0.389494 
-0.00122888 0.208 0.432308 -0.302536 0.227257 -0.00829871 -0.454853 -0.180581 -0.269519 0.0410279 -0.513678 -0.113342 0.406674 0.00171065 -0.510982 0.404965 -0.542332 -0.401973 0.219348 -0.121168 -0.144961 -0.450317 0.153024 0.536039 0.369237 0.0504175 -0.0139598 -0.261387 -0.031458 -0.232276 0.0424958 0.267723 0.0928753 -0.212504 0.340232 -0.293005 -0.188657 0.382061 -0.334674 0.0936552 0.0894109 -0.03012 0.403361 0.414231 0.520362 0.0902125 -0.00299977 -0.366518 -0.279003 0.396961 -0.301473 0.251032 -0.0542073 -0.560901 0.10154 -0.190911 0.375757 -0.0285195 0.38418 0.13928 0.3768 0.131904 -0.00581207 -0.0360352 0.326854 0.250135 -0.0199824 0.0664938 -0.298666 -0.549446 -0.0669792 -0.357694 0.0344285 0.26272 -0.0270897 -0.235601 0.301394 0.451771 -0.113423 -0.0997425 -0.0294312 -0.0276339 -0.468121 0.00599308 -0.124875 0.378534 0.225312 -0.453102 -0.287563 0.360098 -0.260707 0.0490346 -0.0675012 -0.00902127 -0.140525 0.428403 0.556844 -0.0946781 -0.0677892 0.439904 -0.498458 0.423784 -0.240761 0.0447654 -0.112653 -0.00792572 -0.26872 -0.273753 0.216797 0.25018 -0.000321543 -0.403411 0.430658 -0.480817 0.393863 0.311347 -0.307344 0.366898 0.0681604 0.47578 0.345977 0.396835 -0.133893 0.213089 -0.234291 -0.304808 -0.0841007 0.0903493 
-0.296836 0.434346 -0.183284 -0.00170283 0.0157186 0.309183 -0.272651 -0.190789 0.0206666 0.0370219 0.497977 0.498406 -0.491025 -0.111219 0.232086 -0.294563 -0.0411596 -0.0339861 0.416186 0.562831 0.33848 0.071909 0.466559 0.117622 0.283379 -0.252295 -0.121656 -0.0567811 -0.321485 -0.528228 -0.149147 -0.105357 -0.293795 -0.108581 -0.071827 0.111459 -0.413069 -0.220767 0.499968 -0.0229423 -0.130407 -0.103773 0.115533 -0.0722552 -0.0923447 -0.291205 -0.501981 -0.336334 -0.483662 0.093006 0.295385 0.324843 -0.0257218 -0.152572 0.103337 0.309178 -0.182736 0.061415 0.298597 0.0854962 0.260453 -0.265988 0.192649 -0.241557 -0.110116 0.251839 0.376795 0.0545323 -0.10816 0.465515 -0.26463 0.233278 -0.452336 0.458033 -0.415393 0.373034 -0.300054 0.463427 -0.321114 0.400257 -0.524018 -0.233366 0.32426 -0.446723 -0.266684 -0.0157032 -0.0748011 -0.275485 -0.399174 0.387551 0.429789 0.368251 0.176384 0.296941 0.236847 -0.270407 0.423342 -0.508744 0.49233 -0.55731 -0.511728 -0.0825501 0.0864148 -0.535132 0.411239 -0.50429 0.232169 0.0245344 0.0113812 -0.162653 0.00136331 -0.201067 0.0279834 0.188066 0.195177 0.20542 0.297232 0.191171 -0.0317387 -0.512249 -0.429311 -0.130292 0.0919908 0.515683 -0.211688 0.40021 0.31393 -0.327565 
0.116058 -0.0750147 0.0392341 -0.444726 -0.280145 0.107834 -0.0870568 -0.299372 0.409167 0.316895 0.0994593 -0.319231 -0.303058 0.288957 0.458426 0.398968 -0.143255 -0.0336922 0.507598 0.562611 -0.0675507 -0.495454 -0.031137 0.437584 -0.00473677 0.158168 0.164056 0.455451 0.365808 -0.126827 -0.0589393 -0.210242 -0.385767 -0.310598 0.0380066 -0.371723 0.0757455 -0.412881 -0.0148418 -0.0431468 0.0712527 0.184952 -0.113464 -0.144229 0.501692 -0.0950945 -0.107816 -0.316474 -0.198491 -0.00897612 0.0341882 -0.16802 -0.42088 -0.551835 -0.207263 -0.498347 0.445984 0.248019 0.100522 -0.206833 0.0619616 0.239555 -0.0102329 -0.528114 -0.229427 -0.145832 0.595234 0.139582 -0.0173543 -0.0201954 -0.0488601 -0.0637014 -0.0505594 0.479952 -0.0084839 0.174848 -0.00093362 0.565473 0.188492 -0.499827 0.16431 -0.521061 0.0225977 0.11984 0.326995 0.489916 -0.245727 0.0739865 0.102385 -0.104907 -0.0656816 0.358702 -0.0629082 0.499198 0.115963 -0.47372 -0.288574 -0.017899 0.39454 0.150024 -0.230454 -0.268611 -0.22308 -0.0398885 -0.386384 -0.00593709 0.0261373 0.525537 -0.195011 -0.174219 0.31271 -0.202225 0.214417 0.0852949 -0.501232 0.308197 0.5149 0.491695 -0.0446264 0.298926 0.182842 -0.344482 0.0981461 -0.000257154 -0.320022 -0.203263 -0.497057 0.557204 
0.317029 0.34855 0.0346492 -0.0461939 0.514922 -0.385839 -0.281907 -0.16458 0.501133 0.523367 -0.402648 -0.42571 0.392158 -0.00960283 -0.341797 -0.304745 -0.0290422 -0.423297 0.306531 -0.422088 0.234543 0.0361521 -0.419914 -0.465629 0.296942 -0.254858 -0.511313 0.0745677 -0.426483 0.386483 0.427975 0.575569 0.0137846 0.189884 -0.248137 -0.0485602 0.0814268 0.494826 0.256375 -0.0584108 -0.21485 -0.328993 -0.00415017 -0.416378 -0.00212151 0.103666 0.000597324 -0.0771278 -0.194991 -0.111979 -0.322742 -0.083365 0.388856 -0.344043 -0.410001 0.0994328 0.139811 -0.244068 0.504528 0.206904 0.0377973 0.0299299 0.197067 0.472942 0.180006 0.379692 -0.199795 0.539977 -0.227378 0.284818 -0.443444 0.247037 -0.152043 0.495367 -0.204634 -0.209247 -0.500395 0.0531992 -0.41007 0.389243 -0.131042 0.273824 0.214354 -0.279495 0.406954 -0.411259 0.442377 -0.04238 -0.00636903 -0.29935 0.329183 0.0646423 0.224824 0.406073 0.2081 0.208498 -0.0995512 -0.110975 0.0849885 -0.420223 -0.221481 0.336713 0.281014 -0.228948 0.424074 0.488731 -0.0881 0.423035 0.0130379 0.20201 0.208676 -0.00271272 0.208798 0.377646 0.0995823 -0.00201873 -0.088247 0.490919 0.443677 -0.005521 0.193494 -0.420829 0.20628 0.193637 0.0562413 0.0975869 0.00378045 0.345288 
-0.384823 -0.549193 -0.181829 -0.155765 0.00650743 -0.295422 -0.3785 -0.0421511 0.0025032 0.50419 -0.40924 0.370618 0.287311 0.0950961 0.35949 -0.0040346 -0.121899 -0.0162804 -0.202781 -0.435243 -0.0499547 -0.253175 0.284497 0.025881 -0.00253704 0.0287279 0.289155 0.486208 0.0868465 0.0868163 0.505547 0.0417229 0.492028 0.195875 -0.536865 -0.231875 0.184054 -0.304302 -0.0192722 -0.239375 0.391972 -0.426182 -0.504727 0.0823779 -0.406148 -0.495743 0.0984078 -0.483491 -4.75466e-05 -0.00438418 0.574585 -0.384446 -0.00654996 -0.325576 -0.00431561 0.494776 -0.057871 -0.528238 0.496267 -0.0982171 -0.170136 0.218313 0.202527 0.381785 0.287683 -0.214625 0.375209 0.040821 0.279781 -0.517467 -0.260863 -0.0471213 0.539887 0.392611 -0.20969 0.196076 0.400066 -0.469407 0.391484 -0.3131 -0.0232426 -0.312201 0.307996 -0.0725061 0.314062 0.480218 0.527906 0.471784 0.291968 0.300849 0.00758979 -0.316772 -0.0438603 0.402898 0.112336 0.207994 0.407528 -0.507455 0.0013833 0.487802 -0.317508 0.42813 -0.414125 -0.0161658 -0.485531 -0.109389 -0.189272 0.52311 -0.1901 -0.401021 0.199508 -0.000396461 0.210926 -0.519458 -0.399974 -0.49884 0.520462 0.292169 -0.18576 -0.213605 -0.4054 0.0976028 0.196037 -0.316231 0.0405478 0.503049 0.403166 -0.163063 
-0.388753 0.254051 0.216247 0.438365 0.00850855 0.109464 -0.38078 -0.0308905 0.00257739 0.303608 -0.0132861 -0.0224775 0.39046 -0.204464 -0.45267 -0.299521 0.183905 -0.396681 -0.00282728 0.365074 -0.137258 0.440703 0.0824701 -0.376785 -0.405217 0.230019 -0.00864725 -0.00753286 -0.00906239 0.291489 0.403074 -0.169671 0.00255988 0.497753 -0.0307574 0.278451 0.189118 -0.513261 0.47962 0.468682 0.186227 0.17531 0.396818 0.378687 -0.00484745 -0.29673 0.29897 -0.290925 -0.198503 -0.503855 -0.13462 0.119698 -0.404151 -0.222059 0.0968435 -0.105179 0.524888 0.0798851 0.393113 0.000114556 -0.0795957 0.309227 0.00334705 -0.214291 -0.108576 0.487035 0.178375 0.0425568 -0.114553 -0.42395 -0.0674078 -0.444266 0.342557 0.393002 0.491669 0.396063 0.500239 0.0345101 -0.308424 0.387769 -0.114366 -0.102938 0.507859 0.0261805 -0.18579 -0.0150925 -0.0737327 0.269536 -0.306398 0.299899 -0.486867 -0.315319 -0.132045 -0.496447 0.00989322 -0.490822 0.0196517 0.393395 -0.299642 -0.0105716 0.287628 -0.378791 0.479964 0.384373 -0.287871 0.390752 -0.487427 -0.381478 -0.0887628 -0.190736 0.495606 -0.000406533 -0.393003 -0.0127891 0.200298 -0.187439 0.519076 0.288921 -0.0886257 0.387343 -0.017749 0.504307 -0.00304228 0.087078 0.0300549 0.00331353 -0.19685 -0.375609 
0.499894 -0.0274153 0.00793652 0.110858 -0.298067 0.404821 0.00234006 0.489746 0.500094 -0.499819 -0.206542 -0.208313 -0.00728428 -0.300776 -0.0792917 0.00331414 -0.506463 -0.000704132 -0.105479 -0.477843 -0.216206 -0.235037 -0.0103824 -0.288906 -0.102788 0.211031 -0.105056 0.201524 -0.400679 0.393626 0.101923 -0.283564 -0.392856 0.299934 0.0882902 -0.507144 0.490685 0.38349 -0.417337 -0.513491 -0.299974 -0.299117 0.508081 0.0853397 0.200972 0.503466 0.199185 -0.493571 -0.195259 0.201377 0.0281363 0.016896 0.395872 -0.206571 -0.299988 0.00104516 -0.0830038 -0.00626233 0.192318 -0.193865 -0.296974 -0.0973635 0.303723 -0.501977 -0.103856 0.487952 -0.466275 0.419653 -0.00974366 0.482862 -0.492562 -0.122041 0.0286818 -0.00724658 0.299183 -0.501046 -0.0988629 0.518127 -0.101429 -0.503978 0.393239 0.295495 0.302617 0.209867 -0.297834 0.290512 -0.385251 0.535144 -0.402148 -0.407991 0.210425 -0.406114 0.486158 -0.500128 -0.297428 -0.0957704 -0.486608 0.197055 -0.00174949 -0.00257102 0.287504 -0.195099 -0.0137642 -0.101669 0.325621 -0.303554 0.410058 0.0114904 0.103006 0.512148 -0.203373 -0.40003 0.00281853 -0.309104 -0.499047 0.311854 -0.290686 0.289158 0.105079 -0.00783904 0.0876796 -0.000958035 0.292368 -0.393318 -0.0883541 0.203161 0.00128066 0.106022 
0.101067 -0.208506 -0.199648 0.102387 0.199534 -0.301399 -0.19847 0.200095 -0.39993 -0.400637 -3.99395e-05 0.198066 -0.100175 -0.401117 0.402379 -0.499987 0.000967798 0.000168649 -0.30594 -0.096004 0.298039 0.496528 -0.501891 0.405245 0.198481 -0.397789 0.0987801 0.205909 0.299795 -0.00307935 -0.501789 0.0989829 0.0969036 -7.68464e-05 0.398222 0.00240644 0.301048 0.195588 0.300997 0.297599 0.0999094 -0.000206498 -0.102572 -0.303673 0.301623 -0.497063 0.0994825 -0.301836 -0.401037 0.501422 -0.500888 0.500812 -0.203314 -0.00264627 -0.000651767 -0.397772 -0.0968033 0.502242 -0.400925 0.300247 -0.499636 0.00147609 0.296684 0.299735 0.199457 -0.200003 0.0955165 0.502553 -0.0014357 0.297994 -0.101287 -0.406295 0.501365 0.191552 -0.099669 -0.499908 -0.00010134 0.399474 0.500006 0.200706 -0.303033 -0.299966 -0.199663 -0.194189 -0.199097 -0.303001 0.00229394 0.208583 -0.101504 0.198962 -0.399505 -0.399407 -0.39918 -0.000768618 -0.0996102 0.201123 -0.195085 0.301859 0.102896 0.100687 0.000969623 0.498446 0.50136 0.100844 -0.199526 -0.000623154 -0.00013903 -0.0993044 0.0973893 -0.29951 -0.000886957 -0.199566 -0.298127 -0.00166875 0.0999812 0.400543 0.500501 0.300286 0.297376 -0.0985895 -0.101528 -0.296335 0.49347 0.501634 -0.0983596 -8.57335e-06 0.000331536 0.304319 
-0.499754 0.399567 -0.400536 0.298188 0.199275 -0.100176 -0.198703 -0.0999958 -0.4 -0.200064 0.3 0.400164 0.399915 0.299089 2.52847e-05 0.400001 -0.298812 2.82738e-05 -0.000275655 0.498904 -5.56979e-05 -0.101999 -0.101019 0.299961 0.499395 -0.299567 0.000158905 0.102216 -0.400094 -0.100064 -0.400014 -0.000611401 0.299772 -0.300021 0.29974 0.502207 0.399935 -1.41022e-06 0.000171545 0.399886 -0.300286 -0.300008 -0.200006 -0.400005 -0.499503 0.301741 0.300038 -0.301019 -0.000513553 0.399999 -0.299804 -0.299615 -0.400061 -0.200661 -9.51436e-05 0.000556714 0.3 0.00115997 -0.500063 -0.399865 -0.000254189 -0.39991 -0.101936 -6.99673e-05 -1.49755e-05 0.200002 0.296857 -0.29996 -0.29981 -0.000860631 0.298197 -0.0986836 0.300016 0.2 0.300004 0.3 -0.300002 0.099234 0.000106916 -0.499984 0.0996877 -0.300019 0.00020411 0.40026 0.50025 -8.86075e-06 0.299952 -0.49882 0.00043646 0.399688 0.0999946 -0.200049 0.49997 -0.0999908 -5.21676e-07 0.40066 0.000825933 0.300056 0.200629 -0.499402 0.399909 -0.100557 -0.0998146 0.100049 -0.000217724 -0.500007 -0.300139 0.198884 -0.301067 -0.299973 -0.299999 -0.2 -0.500015 0.500373 3.84633e-06 -0.399801 0.000129681 0.199724 -0.00096031 0.300011 0.499996 0.500179 0.0996465 -0.299955 0.499937 0.299917 -0.400001 -0.199208 
0 -0.5 0 0.2 -0.5 0 -0.2 -0.3 -0.1 -0.2 0.5 0 0.5 0.4 0.2 -0.5 0.3 -0.4 -0.2 -0.3 0.3 0.4 0.2 0.1 0.4 0.3 0.1 -0.5 0.3 -0.1 -0.3 -0.4 0.4 -0.3 -0.2 -0.1 -0.2 -0.3 0 0 0.4 0.4 -0.3 0.1 0.3 0.5 0 -0.1 -0.2 -0.3 0.2 -0.2 0 0 0.3 0.2 -0.3 -0.2 -0.1 0 0 0.3 0.3 -0.2 -0.1 -0.3 -0.5 -0.1 0.5 -0.1 0.3 0.3 0 0.5 0.3 -0.5 0 -0.4 0.2 0 -0.2 0.3 -0.1 0 0.2 -0.1 -0.5 -0.5 0.5 -0.3 -0.4 -0.1 -0.2 -0.3 0.1 -0.5 0.3 0.2 -0.3 0.4 0.3 -0.1 0.4 -0.5 0.4 0.5 -0.4 0.3 -0.4 0.3 -0.4 -0.2 -0.5 0.4 -0.2 -0.5 0 0.2 -0.4 -0.1 -0.1 0.4 0.3 -0.4 0.3 0.3 0.5 -0.2 
0.4 0.3 -0.2 0.2 0.1 0.3 -0.2 -0.4 0 -0.4 -0.1 0.1 -0.5 0.1 -0.3 0.4 -0.2 0 -0.3 -0.4 -0.4 -0.3 0.4 0.4 0.3 0.1 -0.2 -0.1 -0.5 -0.2 0 -0.5 -0.1 -0.4 -0.1 0 -0.5 0.1 -0.3 0 0 -0.4 0.4 0 0.3 -0.5 -0.5 -0.5 -0.2 -0.1 -0.2 0.5 -0.2 0.2 -0.5 -0.1 -0.2 0.5 -0.5 0.3 0 0.3 -0.5 -0.3 0.5 0.1 0.2 0 -0.4 0.1 0.2 0.4 -0.4 0.1 -0.2 -0.1 0 -0.3 0 -0.3 0.5 -0.3 -0.5 -0.2 0.3 0.2 -0.2 0 0 -0.5 0.2 -0.3 0 0.4 0 -0.1 -0.1 0.2 -0.2 -0.3 0.5 0.2 -0.1 0.4 -0.5 -0.4 -0.5 -0.4 0.4 -0.1 0.2 -0.4 -0.1 -0.2 0.3 0 0 0 0.3 0.5 -0.3 0.3 0.2 0.3 0.4 -0.2 0.5 0.1 
0.5 -0.2 -0.2 0.3 -0.2 0.1 0 -0.3 0 0 0.3 0.3 -0.4 0.4 -0.5 -0.1 0.3 -0.4 0.1 0.2 -0.3 -0.4 -0.1 -0.5 0 -0.4 0.4 -0.4 0.4 -0.1 0.5 0.5 -0.5 -0.4 0.2 -0.5 -0.1 0.3 0.4 -0.2 -0.2 0.5 0.5 0.5 -0.5 0.3 -0.1 -0.1 -0.2 0 0.5 0 -0.4 0.1 -0.5 0.5 0 0.4 -0.5 -0.3 -0.2 -0.5 -0.5 0.5 0.1 -0.2 0.2 -0.4 0.4 0.4 0 0.5 -0.1 0.3 0 0.1 -0.1 -0.2 -0.1 0.2 0 -0.1 -0.4 0.4 -0.2 0.3 0.3 -0.5 0.3 0.5 -0.3 -0.1 -0.1 0 0.1 0 0 -0.3 -0.1 0.3 0 0.4 0.2 -0.4 0.3 0.1 0.4 -0.1 -0.2 -0.1 0.3 -0.4 -0.1 -0.1 -0.2 0.3 0 0.2 0.3 0 0.1 -0.2 -0.4 -0.3 0 0 -0.1 0.1 
-0.1 -0.4 0.2 0.1 0.2 -0.4 -0.2 0.2 0.1 -0.3 0.3 -0.5 -0.5 -0.5 0.5 0 -0.4 -0.4 0.3 0.4 0 0.3 -0.1 -0.2 -0.4 0.4 -0.5 -0.2 -0.3 -0.5 0.4 0.4 0.4 -0.1 0.1 0.5 -0.4 -0.4 -0.5 -0.5 0.5 0 -0.5 -0.2 -0.4 0.3 -0.2 -0.5 -0.1 0.3 -0.3 0.1 0 0.5 0.4 0.5 -0.2 -0.2 0 0.4 -0.1 0.4 0.4 0.2 -0.4 -0.4 -0.4 -0.3 -0.3 0.1 0.2 0.1 -0.2 0.3 0.4 -0.3 -0.4 -0.3 0.1 -0.1 0.3 0.5 0 0 -0.5 -0.4 0.5 0 -0.5 0 0.2 0 0 0.3 0 0.5 0.3 -0.2 0.4 -0.4 -0.2 -0.2 -0.3 0 -0.5 -0.2 0 0 -0.2 0.1 0.2 0 -0.3 -0.2 0.4 0.4 -0.4 0.4 -0.3 -0.2 -0.4 -0.4 -0.2 0.2 0.4 -0.5 0.1 -0.1 
-0.499971 0.300001 -0.200134 -0.500209 -0.3 -0.500018 -0.40007 5.03556e-06 -0.000407968 -0.5 -0.399999 -0.0999991 2.92223e-07 -1.31124e-06 -1.89545e-06 -0.0997181 0.500003 0.299992 0.199598 -0.400005 0.100043 -0.5 0.2 -0.500053 -0.100003 0.00028739 0.199934 -0.299951 0.200338 0.200003 0.399793 -0.200094 -1.98444e-07 -0.499906 0.199994 -0.199994 -0.4 0.4 -8.16273e-06 0.299998 -0.499993 0.50061 -0.399999 -0.5 0.2 -0.1 0.500133 -0.299953 -0.5 0.400001 -4.64963e-06 -0.200256 1.39467e-05 0.1 0.400233 -0.299918 0.200014 -0.29997 -2.30039e-08 -0.0999313 -0.100234 -0.000319808 0.000514343 7.75803e-08 -0.399968 2.7531e-06 0.399934 -0.500037 0.300024 -0.3 -0.000892072 0.400002 0.2 -0.5 -0.199908 -0.399593 -0.1 0.199362 -0.5 0.4 -3.21224e-05 -0.3 -0.100323 -0.5 -0.200024 7.40912e-05 -0.000242426 0.199999 -0.2 -0.4 -0.5 0.401149 0.000192217 0.499903 -0.400252 -0.500012 0.0995955 2.9041e-05 0.5 0.501227 -0.500001 -0.3 0.4 0.400008 0.000520734 0.0999921 -0.499882 0.0999472 0.500007 -0.300004 -2.13213e-05 0.000170223 -0.500002 0.3001 -0.499997 0.0999797 0.399589 0.499977 -0.2 0.400609 -0.4 0.50017 -0.300006 -0.0997193 0.399786 0.299793 -0.0999033 3.79993e-07 
0.200583 -0.107515 -0.397848 -0.40299 -0.502483 0.50053 -0.199003 0.0968879 0.399592 -0.503298 -0.000131933 0.0992781 0.298531 -0.0992515 0.20203 0.200359 -0.20145 -0.301403 0.199422 0.200591 0.199005 -0.00253209 0.295841 0.0973118 -0.000132918 -0.0961861 -0.203323 -0.299951 0.000320246 0.397516 -0.498719 -0.300744 -0.500286 0.200093 -0.299395 -0.00324855 -0.299745 0.199762 -0.300154 -0.498385 0.00641412 0.0100056 -0.500048 -0.113547 0.000737151 0.400366 0.499886 -0.300553 -0.300003 0.500039 -0.000110892 -0.500207 -0.201344 0.096598 -0.29978 0.400238 0.000311947 -0.399887 -0.000478678 0.499672 0.101559 0.0996594 -0.398778 -0.301351 0.00380052 -0.300036 0.407493 -0.29859 0.400041 -0.00566403 0.197931 -0.503378 0.300594 -0.200083 5.97667e-05 0.40041 0.0983875 0.500028 0.40655 -0.295044 0.0981154 0.298329 0.499745 -0.504801 0.498165 -0.300278 -0.200637 0.302845 -0.500467 -0.000779908 0.29996 0.101154 0.114842 -0.00118679 -0.100318 -0.198247 -0.398079 -0.499968 0.400276 -0.498871 -0.300095 0.0998592 -0.103561 -0.497305 0.000586028 -0.200692 -0.199834 0.101354 0.500357 0.101415 0.49991 -0.19983 -0.102604 0.209569 -0.0999986 -0.394931 -0.00039586 0.0974163 0.402195 0.000616662 0.399854 0.407782 -0.300355 0.500412 0.500074 -0.50045 -0.0996504 0.00204392 
0.200639 0.392416 0.402103 -0.402562 0.397856 0.000696028 0.000477838 0.396557 0.500003 -0.301643 0.199924 -0.100728 -0.101438 0.300846 0.00249117 -0.299906 0.298613 -0.30189 0.299836 0.000624486 -0.301143 -0.502472 -0.503617 0.197495 0.100097 -0.0971067 0.0965917 -0.299969 0.0999824 0.497532 0.00182432 0.499381 -0.20029 6.64201e-08 0.000479142 0.296392 0.100165 -0.500235 -0.00049282 0.501334 0.0063612 0.409221 0.199949 0.386999 -0.199614 0.199976 0.199725 -0.500544 -0.499998 4.18704e-05 -0.499866 -0.199983 0.198501 0.496788 0.499997 -0.399944 -0.399462 -0.00032915 -0.300391 -0.200384 0.30119 0.0999856 0.00071209 0.0990587 0.50375 0.49977 -0.192329 -0.198866 -6.82406e-05 0.294962 0.19882 -0.403448 0.400661 -8.26275e-05 0.299953 -1.10704e-05 0.398332 0.500407 0.206465 0.00488591 -0.401847 0.298207 0.200143 0.295449 0.198143 0.399949 -0.500331 0.202866 -0.000498127 -0.000633844 -0.399772 0.500098 0.414333 -0.1011 9.6177e-05 -0.398385 0.00166319 -0.300004 -0.29993 -0.00010452 -0.400146 0.10006 -0.0034003 0.302626 -0.0998882 0.19932 -0.499938 -0.398627 -0.299577 0.101371 -0.200079 -0.199926 -0.102711 0.309028 -1.55435e-06 -0.294937 0.0002218 0.49837 0.502489 -0.399992 -0.200162 0.00709701 -0.500171 -0.199983 0.300387 -0.400182 0.000313651 -0.4979 
-0.0983699 -0.0145078 0.0130137 -0.18482 -0.201842 0.104223 -0.00748286 -0.304373 -0.304415 -0.0882191 -0.202761 -0.108945 -0.401626 0.20228 -0.492303 0.00709584 -0.00454923 0.500139 0.10481 0.010389 -0.0103777 -0.0170244 -0.000614745 0.304971 0.403836 0.505856 0.197477 -0.212849 0.200219 0.498635 -0.298288 0.194765 -0.00260007 0.499582 -0.50353 0.00332509 0.397239 -0.108523 -0.092537 0.202339 -0.400104 -0.489346 0.306162 0.500184 0.497135 0.0033912 0.0997638 -0.489321 -0.301951 -0.300051 0.297903 0.116327 0.0058366 0.0962544 0.49938 -0.404186 0.101145 0.483486 -0.500396 0.311442 0.00803591 -0.196286 -0.400064 0.399322 -0.501523 -0.193274 0.0104954 0.401715 0.0963712 -0.00208267 0.412502 -0.403384 0.0154495 -0.195906 0.0997645 -0.398393 -0.300254 -0.0029043 -0.00491119 -0.299919 -0.498615 -0.102037 0.200354 -0.489672 -0.105779 -0.100465 0.0101777 -0.300721 0.292732 -0.099104 -0.299279 0.298215 -0.318343 -0.0974807 0.112074 0.501428 -0.0891426 0.396593 -0.00196755 0.3847 0.00284249 -0.402539 -0.102511 0.291124 0.2975 -0.50142 0.298265 -0.100405 0.302212 -0.0891262 -0.201071 -0.192868 -0.198691 -0.405645 -0.400116 -0.401533 0.00652039 0.499972 -0.0958176 0.0991851 0.00597457 -0.497948 -0.403671 0.398526 0.115746 0.388957 -0.19731 -0.0988307 
0.502294 0.350668 0.0297752 -0.282568 0.0984153 -0.300573 -0.513519 -0.516997 -0.00576631 -0.402023 -0.00492146 -0.0166293 -0.516914 0.299642 0.505029 -0.481327 -0.112759 -0.499623 -0.200288 0.0222123 -0.530168 -0.550335 0.201325 0.00114521 0.496144 0.527092 -0.12012 0.403915 -0.0993838 0.396926 0.000859749 -0.408834 0.0950954 0.399923 0.391337 -0.00296041 0.193767 0.270357 0.21426 -0.390499 0.110577 0.00389193 -0.0885801 -0.215068 0.497012 0.406291 0.100173 -0.29158 -0.103356 0.000560554 -0.396615 0.536107 -0.390555 0.177432 -0.000776714 0.209108 0.496132 -0.21371 0.289352 -0.0879094 0.22612 0.416079 0.403509 -0.401258 -0.204216 -0.382926 0.404351 0.115019 -0.49867 -0.209448 0.420223 -0.496908 0.521747 -0.201968 -0.301169 0.205188 -0.403068 -0.507863 0.29856 -0.00374246 0.301621 0.0998722 0.403791 -0.091727 -0.406101 0.385688 0.428375 -0.0731597 0.39515 -0.49874 0.29496 -0.00214406 0.476728 -0.00624724 0.187966 0.112573 0.208613 0.197388 -0.504431 -0.306168 0.305933 0.396849 -0.0166532 -0.396743 -0.501533 0.194401 0.201521 0.00510053 0.509389 0.519893 -0.506226 -0.402982 -0.197211 -0.297326 0.299489 0.00154313 0.409332 -0.103636 -0.189015 -0.498994 -0.00373986 0.209903 -0.0102702 0.300941 0.417842 -0.512919 0.00728404 0.438851 
0.311468 0.0080857 0.243605 -0.266425 -0.292571 -0.181425 -0.102989 -0.438957 -0.504244 -0.397921 0.0864678 0.167817 -0.0435251 -0.194696 -0.102207 0.00806192 0.0743381 -0.294132 0.00898551 0.348136 -0.0615998 0.13166 0.096947 -0.418907 -0.397368 -0.361385 0.0638614 -0.00421733 0.492271 0.096358 0.495537 -0.308604 -0.508558 -0.000547521 0.294972 -0.104789 0.0935092 -0.0422665 -0.266841 0.19847 -0.493619 -0.0994355 -0.181602 -0.121471 -0.508718 0.0102498 -0.401126 -0.488681 -0.108046 0.496746 0.317223 0.0512448 0.22574 0.355644 -0.0108018 -0.0872568 -0.311294 -0.504259 0.286679 -0.408765 0.0684161 0.0954233 0.506914 -0.109443 0.194126 0.314737 -0.379796 0.527458 0.187328 -0.331399 0.0418654 -0.0157569 -0.185118 -0.414077 0.290662 -0.00230454 -0.117022 -0.179695 -0.504394 -0.31681 -0.202403 0.110094 0.122717 0.0980279 -0.118956 -0.514999 -0.0790737 0.0602909 0.295314 0.498021 -0.393171 0.371956 -0.0237093 -0.00721221 0.491329 -0.380827 0.0418761 0.295184 0.00750061 0.194023 0.301651 0.189297 -0.327795 0.189817 -0.00625986 0.487911 -0.495965 0.320153 -0.180571 0.350781 -0.2101 -0.20262 -0.196124 -0.187269 -0.300192 0.110664 -0.373076 -0.100523 0.431608 0.0877012 -0.202429 0.0251148 -0.21262 -0.00185312 0.437093 0.292796 0.00810875 0.48067 
-0.366876 -0.361233 0.039615 0.00911552 0.406723 0.326867 -0.0847211 -0.52063 -0.103869 -0.395847 0.0689784 -0.244534 0.343936 -0.510051 0.173821 -0.52129 -0.211979 0.533449 -0.495715 -0.247012 0.432422 -0.270726 -0.00605711 -0.132348 -0.184049 0.447211 -0.422705 0.296891 -0.028233 -0.099219 0.0922128 0.0666805 -0.412263 -0.515991 0.00372977 0.136535 0.277599 -0.449898 0.251951 -0.407713 -0.117828 -0.222684 -0.27041 -0.0341892 0.272945 -0.371588 -0.299466 -0.090892 -0.522057 0.197688 -0.293116 -0.448123 0.0381468 0.124901 0.282702 0.327983 0.426718 0.112076 0.386405 0.264252 0.48747 0.607274 -0.318831 0.0724427 0.196805 -0.306192 -0.361181 0.528566 -0.521926 0.361686 0.269712 0.484241 0.0146891 -0.10753 0.283943 -0.194996 0.474873 0.300724 -0.513794 0.165986 0.104234 -0.29456 0.112315 -0.125691 0.381346 0.0975168 -0.0743305 -0.233928 -0.516238 0.195076 0.334822 0.380073 0.293294 -0.504484 -0.1112 0.0463704 -0.284255 0.307854 0.313189 -0.209615 0.40182 -0.522692 0.397723 -0.0505304 0.172444 -0.423324 -0.214049 0.398174 -0.176988 -0.0748025 0.3052 -0.382587 0.0304164 0.125831 0.198189 0.0092421 0.414914 -0.00678178 0.0126228 0.0943679 0.110113 0.377417 -0.203164 0.372342 -0.377251 -0.00322598 -0.389141 -0.206151 
-0.371684 -0.106338 0.0560039 -0.00620753 -0.219581 0.363251 -0.482994 0.39151 -0.0102024 -0.217319 -0.16147 0.361937 -0.574594 -0.0412186 0.360897 0.413821 0.0721005 -0.462603 -0.300079 -0.0243928 0.115478 0.141566 -0.440361 -0.435618 -0.491544 0.499105 0.434044 0.485601 0.474685 -0.401295 0.177756 0.137105 0.290952 -0.313338 -0.465867 0.0442339 0.337516 -0.0962324 -0.0275762 -0.0902331 -0.0543211 0.327401 0.206328 0.215471 0.357208 0.0544872 -0.314201 -0.297076 0.0397989 0.301503 -0.0120039 -0.323689 -0.370359 -0.0925385 0.0768278 0.498214 -0.373772 0.061516 0.173824 -0.18021 0.599743 0.209791 0.0756273 0.350188 -0.0819475 0.211733 0.468961 0.251831 -0.51214 -0.0849363 0.486342 0.42875 -0.461373 -0.354566 -0.463119 0.519493 0.372396 0.398919 -0.0117539 -0.138887 0.0119842 0.0998742 -0.160459 -0.272346 0.497271 -0.23986 0.196961 0.32512 -0.412031 -0.412033 -0.272461 0.052136 0.0245641 -0.0174163 -0.0225229 0.178988 -0.261107 0.0345357 0.441135 0.3139 0.227673 -0.324475 -0.0442169 -0.237563 -0.248701 -0.0310378 -0.505021 0.489406 0.212103 0.453533 0.484696 -0.175774 -0.144648 0.25777 0.000211262 -0.0824066 0.413121 -0.398603 -0.461846 -0.168609 0.283876 0.114049 -0.53985 -0.143485 -0.151506 -0.419562 0.0153662 -0.343664 
0.514759 -0.126604 0.248458 0.422795 -0.315864 0.083041 -0.287254 0.231315 0.0829712 0.148561 0.0706008 0.344504 -0.0777952 0.0487613 -0.438389 -0.0863521 -0.462369 -0.415539 -0.0179848 0.388714 -0.579148 -0.360571 0.068403 -0.311088 0.38752 -0.378567 -0.164999 0.414238 -0.536881 -0.218981 -0.136951 -0.12577 0.0595262 -0.424825 -0.00194141 0.529749 -0.365754 0.209643 0.2418 0.258889 -0.0857264 -0.394268 0.328516 -0.109727 -0.43366 0.0464298 -0.411685 -0.463422 0.326837 0.201872 0.0484866 0.182542 0.00629011 0.0951272 -0.436263 -0.491428 -0.59922 -0.0361814 0.354754 -0.0725333 0.237033 0.0742705 -0.33509 -0.266714 -0.461047 -0.1712 -0.00328336 0.48949 0.167281 0.361418 0.0747062 0.344647 -0.169325 -0.150526 -0.489211 0.316436 -0.524792 0.531306 -0.414616 0.382913 0.105055 0.30685 -0.173072 0.189968 -0.0216322 0.48289 0.19147 0.17207 -0.314518 0.00793191 0.242395 -0.56446 0.0524523 0.342921 -0.534587 0.186602 0.107422 0.520933 -0.284118 -0.0590389 0.549155 0.099535 0.267175 0.0466201 0.0340722 -0.508529 0.479816 -0.49985 0.0112659 0.0836463 0.382596 -0.380961 -0.160143 0.369221 -0.499156 -0.39932 -0.406642 0.00918816 -0.00492915 0.454535 -0.134618 -0.351268 -0.56818 -0.0639715 -0.260878 0.387032 0.1186 0.346968 
0.316905 0.345762 -0.205936 0.309501 0.485171 -0.211326 -0.273484 0.364299 0.277914 0.0547613 0.0643497 -0.244686 -0.374343 0.12233 0.470927 0.018599 0.0159623 0.167665 -0.00698474 -0.190101 -0.0703812 -0.0800072 0.457936 0.462566 0.28006 -0.370008 0.128207 -0.141763 0.355656 -0.523208 -0.0610262 -0.645887 -0.236877 -0.233143 -0.0815338 -0.0910198 -0.343448 -0.579133 0.139564 -0.117262 0.301782 0.316285 -0.454735 0.0686067 -0.432904 0.0637028 0.0478495 -0.21517 0.340116 -0.5042 -0.524501 0.323723 -0.38881 -0.036429 -0.250654 0.403843 0.402325 -0.241896 0.260564 -0.460659 0.474468 0.472663 -0.369735 -0.350082 0.419279 0.0488976 0.0174037 0.137993 -0.0423424 -0.169952 0.402677 -0.383133 -0.372851 -0.558482 0.304435 -0.292205 -0.220391 -0.281234 -0.00745596 -0.536697 -0.412634 -0.176587 -0.470539 -0.0758105 -0.505382 -0.179396 -0.315124 0.628052 -0.422555 0.509395 -0.0576005 -0.609903 -0.46055 0.429636 -0.28138 -0.315226 0.247953 -0.285723 -0.350114 -0.155786 0.567046 0.0249329 -0.0494639 -0.377317 -0.561311 0.180479 0.410464 -0.159454 -0.287498 -0.0703437 0.0849804 0.0168651 -0.140411 0.275986 0.00122963 0.0798094 -0.393858 -0.383738 0.361581 0.0098696 0.453043 0.500457 0.390775 -0.0791743 -0.0367473 -0.553132 -0.0821598 0.370996 
-0.46381 0.0861185 -0.152393 0.0934067 -0.242404 0.196063 -0.221681 0.562808 0.375416 0.219811 -0.421731 -0.0314123 0.234423 0.426111 -0.566666 -0.286057 -0.275926 -0.178944 0.00898083 -0.200107 -0.0892893 -0.608726 0.340784 0.0881493 0.358965 0.653327 -0.195652 -0.138722 -0.547282 -0.340657 -0.390389 0.309629 -0.0197696 -0.533003 0.0565223 -0.0386251 -0.241979 -0.191682 0.173119 0.100378 -0.53388 -0.140404 -0.304561 -0.276277 0.173075 0.049326 0.263175 -0.419279 0.120097 -0.414624 0.137673 0.246775 0.0456766 0.109338 0.380616 0.0877305 -0.546056 -0.325767 0.0145564 0.0535824 0.612711 0.0243385 0.417599 0.0768928 -0.36129 0.384351 -0.0805872 0.647042 0.465376 -0.374651 0.40345 -0.0706525 0.320534 -0.494895 -0.281164 -0.05774 -0.0331486 -0.153164 -0.51327 0.341929 0.459202 0.167057 -0.471144 -0.281783 -0.0019352 0.499288 -0.283209 0.500249 0.285993 -0.0978164 0.241617 -0.123622 0.530718 0.437148 -0.0377807 -0.111474 0.0271894 -0.172009 0.016649 0.585962 0.0526559 -0.150916 0.421499 0.457159 -0.169213 -0.535922 -0.00870549 0.361951 0.553643 0.425976 0.0495816 -0.209503 -0.140181 -0.392853 -0.402509 0.195013 0.373014 -0.434055 -0.00920944 -0.0820653 -0.367712 0.444633 0.0557317 0.0538818 -0.427851 0.0634241 0.356191 -0.318009 
-0.141505 -0.410914 0.44134 0.415542 0.126391 0.506144 -0.446605 -0.196423 0.287649 0.48344 -0.444692 0.247375 -0.0484535 0.342712 -0.175209 0.398189 0.390813 0.424853 0.366951 0.699667 0.0504401 -0.157519 -0.113224 -0.00546419 0.256932 0.394826 -0.00746005 0.116865 0.139141 0.130124 -0.281001 -0.142189 -0.329692 -0.590915 0.450483 0.25883 0.00440641 -0.0406427 -0.275357 -0.0153021 -0.516057 0.377553 -0.401958 -0.181968 -0.228366 0.063183 -0.0713028 -0.14128 -0.0605805 -0.341404 -0.0712496 0.159558 0.00917594 0.296143 0.49343 0.09336 -0.50767 0.13235 0.0104436 -0.470035 0.490201 0.433584 -0.0886297 0.368246 0.0146113 -0.408744 0.0623992 -0.33714 -0.342643 0.334104 0.397503 -0.343756 0.102545 -0.170048 -0.585718 0.158622 0.468701 0.0443249 -0.299599 -0.177838 -0.256724 0.312236 0.0303578 0.122472 -0.291506 -0.249568 0.152177 -0.174581 0.393974 -0.0695546 -0.320386 -0.177961 -0.116692 0.166998 0.0559151 0.588628 0.0467994 -0.20073 0.229676 -0.0222124 0.0381691 0.0922394 -0.14011 0.193362 -0.0823888 0.341581 0.132839 0.470053 0.40359 0.301131 -0.272131 -0.056991 -0.20829 0.128365 0.293034 0.297747 -0.228443 -0.0500519 -0.0650323 0.470871 -0.156995 -0.251836 0.0985285 -0.00246568 0.0186399 -0.441012 -0.0874156 -0.163638 
0.0587481 -0.22371 -0.157952 0.24387 -0.597002 0.611683 -0.501521 -0.327424 0.455854 0.214065 -0.0102057 -0.501581 -0.071034 -0.575206 0.336333 -0.504006 -0.0983261 0.293125 0.357165 0.0931906 0.580257 -0.304998 -0.659825 -0.0988499 -0.427977 -0.0170847 -0.100205 -0.652931 -0.265009 0.224424 0.108665 -0.118972 -0.0445382 -0.0714951 0.199225 -0.418045 0.0643122 0.143203 0.560892 -0.422507 0.307776 -0.33302 0.292513 0.096748 -0.119659 0.0450765 0.214074 -0.377271 0.144972 0.358556 0.277617 -0.330776 0.00754146 0.257747 -0.477591 0.120001 0.342847 0.338498 0.264843 0.157441 0.252207 0.246365 -0.443392 -0.402431 0.524681 0.471767 0.143648 -0.209987 0.386567 -0.123124 0.17621 -0.610691 0.216792 -0.150908 0.251904 -0.0829682 -0.0236881 -0.296575 0.297588 0.318882 0.446191 -0.505968 0.0254375 0.0540494 0.194028 0.0075259 0.396587 -0.138135 0.30475 0.31723 0.372328 -0.669365 0.171648 0.00628766 0.0580406 0.329362 -0.0388656 -0.108634 0.502151 0.0754092 -0.105992 0.196528 0.352662 -0.291667 -0.0873812 -0.073929 -0.164596 0.572392 -0.221314 -0.0940644 -0.381803 -0.395408 0.0240964 -0.396179 -0.309516 -0.485242 -0.0435991 -0.557549 0.301097 0.159285 0.411462 0.068401 0.115278 0.435633 0.141627 -0.232339 -0.0863764 0.533008 
0.466475 -0.638974 -0.180057 0.300596 0.0366898 -0.403009 0.277223 0.156275 -0.364465 0.0688783 -0.00502149 -0.694708 -0.0983008 -0.442368 -0.336454 -0.104132 0.0433726 -0.315756 0.452886 0.0757957 0.126139 -0.170562 0.0943016 -0.492518 -0.425159 0.571069 -0.14614 -0.666182 0.382189 0.0566908 0.4202 -0.392151 0.0304317 -0.0820125 -0.246435 -0.0691255 -0.132275 -0.45536 -0.354104 0.23343 0.0528543 0.576822 0.589724 0.237241 0.287129 0.424833 0.421117 0.0404575 0.342657 0.0523045 -0.415373 -0.296826 -0.353815 -0.665261 -0.197509 -0.0878727 -0.466727 -0.13855 -0.127738 0.0157625 -0.220998 0.101142 0.291795 -0.509541 0.373369 -0.397469 0.104062 -0.0515052 0.183388 -0.274717 0.382656 0.35406 0.115758 -0.158774 0.428983 -0.552946 -0.114398 0.553387 -0.00351255 -0.18182 -0.248624 0.090111 -0.47185 -0.417256 0.286 -0.105642 -0.22776 -0.0697227 -0.105061 -0.0174307 0.0863576 -0.652473 0.444165 -0.0975365 -0.618114 0.0221928 0.485613 -0.10629 0.215728 -0.477937 -0.44583 -0.0154374 -0.487354 -0.04477 -0.160422 0.439553 0.583468 0.074914 0.0365916 0.206372 -0.339863 -0.421067 -0.32356 0.460675 -0.00887866 -0.176817 0.326702 -0.159462 0.640109 0.525508 -0.111294 -0.0291409 0.336054 0.518921 -0.287657 0.122218 0.288078 0.125455 
-0.526595 -0.0429816 0.638539 0.249677 -0.0207392 -0.352051 0.245595 -0.475439 -0.466252 0.418516 -0.080584 -0.0866145 -0.0123873 -0.162726 0.378568 -0.407534 -0.151837 0.0215267 0.0335845 0.628781 -0.41761 -0.42254 0.268026 -0.355045 -0.328012 0.485849 0.372476 -0.351633 -0.122895 0.174666 0.378098 0.556394 -0.51529 0.0456046 -0.534917 -0.530551 0.312449 -0.545632 0.0891716 -0.557343 -0.000432979 0.0555025 -0.030482 0.164189 0.269595 -0.258297 -0.256345 -0.0146098 0.159308 -0.0166141 0.480376 0.362432 0.371543 -0.257627 -1.3714e-05 0.172922 0.204986 -0.502741 -0.281188 -0.104901 0.063062 0.0924012 -0.283466 0.111195 -0.33398 0.0150801 -0.206118 0.161572 -0.116724 -0.385576 0.583021 0.403568 -0.262043 0.0344981 -0.13097 0.226096 -0.304001 0.476387 -0.00698511 -0.0414314 0.123036 0.0925771 0.151433 0.412161 0.413524 0.410928 -0.21833 -0.161338 -0.448581 -0.419472 -0.103 -0.432564 -0.231789 0.0262707 -0.216002 -0.167648 -0.00595882 -0.0192148 -0.0881172 0.402519 -0.417375 -0.0363068 0.43119 -0.269009 -0.200804 -0.0503303 0.0830703 -0.190631 0.0425117 0.342386 0.015727 0.00917981 -0.0879766 0.497355 0.191001 0.110607 -0.262872 -0.344151 0.178607 0.383239 -0.486858 0.123979 0.0952379 -0.049325 -0.259374 -0.262348 -0.0347424 0.0434971 
-0.232134 0.370055 -0.350836 0.124603 0.0177398 0.136797 0.504591 0.164508 -0.474627 0.0821749 0.510895 -0.489922 0.198101 0.354965 -0.197781 0.353494 0.115289 0.287028 0.30454 0.500767 -0.197536 -0.391917 -0.391586 0.0450485 -0.0431914 -0.361096 -0.236831 -0.579191 -0.252324 0.158157 0.305339 0.114089 -0.153375 0.315165 -0.486729 0.116737 0.311556 0.408598 -0.163898 -0.551664 -0.0903043 0.279516 -0.233822 -0.157573 -0.133779 -0.0700313 -0.338888 -0.293459 -0.0384402 -0.502962 0.275335 0.525595 -0.0433622 -0.154046 0.159481 0.516196 0.202283 0.140143 -0.24922 0.2762 -0.112634 -0.415672 0.27314 0.161753 0.0573968 0.327732 -0.166182 0.096297 0.455547 -0.103394 0.633646 0.144434 -0.333437 0.401329 0.225111 -0.333276 0.398801 0.734039 0.357135 -0.529833 -0.606148 -0.0745157 0.595106 0.544558 -0.0780182 0.469211 0.341299 0.480463 -0.153244 -0.427178 0.601054 -0.169064 0.159753 0.0464816 0.0181272 0.548532 -0.232934 0.374262 -0.349372 -0.204338 0.0179948 0.445247 -0.231422 -0.410232 -0.466271 0.0598636 -0.148887 0.0154322 -0.179842 0.139487 0.122756 0.086353 -0.0857876 0.358674 -0.513135 0.236227 -0.431522 -0.110739 -0.0768272 -0.39062 0.307141 0.423513 0.279311 0.231379 0.0811797 0.127537 -0.434857 -0.31709 
0.469548 -0.303455 0.0207101 0.0734832 0.135828 0.156262 0.00889058 0.313202 -0.378229 0.0558865 0.292689 -0.194041 0.300972 0.355675 6.93551e-06 -0.566127 -0.363971 -0.515124 0.117077 0.294486 -0.516376 0.329563 -0.37064 -0.489061 0.468126 -0.151788 0.445609 -0.355601 -0.028199 -0.529637 -0.380103 -0.0416038 0.401292 -0.0653321 0.379321 -0.192211 -0.0562047 -0.374381 0.436283 -0.0409386 -0.219607 0.057217 -0.272388 -0.289748 -0.00391108 0.334957 -0.512983 -0.446766 -0.0194056 -0.207805 -0.257054 0.093655 -0.41155 -0.163991 -0.315727 -0.018311 0.0386331 0.0769715 -0.526059 -0.544869 -0.132187 0.181926 0.322161 -0.0610758 0.0316968 -0.543322 0.341227 -0.104438 -0.419336 0.125995 0.225481 -0.120233 -0.417486 0.310844 -0.0545067 -0.278875 0.304735 -0.218616 -0.341052 0.190031 0.318498 -0.0917093 0.271016 -0.0697195 0.0234464 -0.253842 0.296015 0.615193 -0.460213 0.095227 -0.0886227 0.0934324 -0.557762 -0.0830015 0.0669779 0.113023 0.481035 0.0656738 0.0530344 0.184061 -0.1318 0.434656 0.487721 -0.0631368 0.0927014 -0.238707 -0.187778 0.500274 -0.360671 0.0693986 0.118685 0.0361537 -0.477564 -0.245069 0.290891 0.117791 -0.0179091 -0.12055 0.431629 0.454067 -0.249528 -0.254202 0.0912921 -0.449037 0.099627 0.0233228 0.132271 0.58052 
