-26999 23999.6 -22500 500 13000 -25500 -16000 -28000 -9500 500 -1500 18500 23999.6 -8500 27500 -2000 1000 -23500 -4500 2500 -17500 18000 -11000 -6000 -19999.6 -11000 15999.7 -5500 -18000 -19999.6 25999.5 2000 22500 9000 22500 17500 16500 11500 14000 -12000 -26999.5 23500 12000 9000 -21000 18000 4999.9 -21500 0 -25499.5 -29999.5 500 2000 -13500 1500 -25000 23000 16000 -18000 0 -2500 -1500 -26500 -22000 -24000 22000 -23000 22500 -26500 -19000 -29500 -16500 -27500 -9500 2000 21498.4 20000 -12500 29000 28500 26000 27000 14000 -17000 10000 -11000 22499.6 15500 16000 23000 -1500 -6500 10500 13000 -26500 6499.9 5499.8 -16500 28500 -21500 -12000 -16500 29500 -11500 15499.4 21000 26500 -11000 -7500 -18500 -14000 25000 -1000 -2000 9000 26500 -9000 -4000 0 20000 27499.5 27500 26000 -22000 18000 0 16500 9000 
13499.6 -25499 1500 0 -1000 15000 -30000 500 28000 -11500 11000 -6000 2000 -16500 -3000 3000 5000 21500 -16500 11500 -2500 -28500 16500 -2500 -2999.8 5499.9 -10500 1000 16500 -17500 -23500 -6000 -5500 4999.9 -30000 -22999.6 7999.9 24500 -2500 5000 3999.9 29500 -6500 -7500 9500 26000 -500 -23000 20000 -19500 9500 -5500 -11500 -9999.8 29999.5 15000 -11999.6 10499.8 -14000 15500 8500 9999.8 -27000 29000 6499.8 -20000 2000 9000 26500 -8500 -4500 28500 -11999.8 -23000 25000 12000 -6500 5000 -14500 -22000 -8999.6 -17000 500 -28000 -26500 20000 11500 20000 -8999.6 -13499.8 22000 -25000 -11000 25500 -21000 9500 2000 -4999.9 19999.6 20500 -12500 18500 -9000 0 -20998.8 19000 -2000 25500 28000 29500 -500 18500 19999.6 -5000 -13500 -4500 -11000 -10000 19500 -9000 -5500 -28500 23500 24000 24500 -18500 -27000 -22000 
11000 3500 6500 28999.5 8000 22500 -25499.5 2500 6499.9 -24500 -11500 -11000 -6000 -12999.8 -2000 500 1000 0 -21500 23000 -7000 11000 16000 5500 -14500 -15000 12000 -11000 -1500 -30000 -16500 -27000 -22000 25500 1500 22000 21000 -26000 26000 -27500 -3499.9 2500 -12500 -13500 2999.9 -15499.7 -25000 -12000 8999.6 -7500 20500 -15500 -9500.1 -10000 5000 6500 0 -2000 -17500 -16000 8500 -5500 11000 29000 4499.9 4500 -10499.8 20500 -22000 25500 -28000 21000 -22499.6 -17500 3500 -2500 -21500 9000 -25000 15000 5500 -8000 -23000 15500 500 -8000 -17499.4 -22499.6 -9499.8 -28500 -7499.9 -23500 14000 14500 20000 -21500 -500 22000 -18500 28000 -6500 29500 7500 -500 -1500 -16499.7 -10000 23000 28000 -17499.7 -21500 16499.7 20499.2 -13500 -29000 -13500 1000 -23999.2 -29000 -12000 -2000 -13500 -2000 -16000 22500 4000 15500 -17500 
-27499.5 28500 -17000 15500 -2500 -5500 -17000 -8000 13000 11500 1000 8500 -1000 -18000 -2500 4000 26500 0 -2000 -17000 23000 -25000 -22000 18000 10500 -6500 -26500 -23499.6 27500 11500 -18500 9000 21500 11500 -14500 17499.7 20000 -15000 -24499.2 28999.5 -2500 22000 23500 25000 -16500 14500 -5500 -19500 -2000 24000 -17500 -2000 8500 -2500 -13000 -2000 1999.6 -4500 -20000 11999.8 19500 27000 2000 -20500 -28499.5 17000 1000 16500 2500 30000 -3500 17500 30000 -14500 -8000 13000 -25000 14000 21000 -12500 1500 5500 -4000 -17500 -16499.7 1500 -12000 -19000 -15500 18499.4 12500 20500 -22000 1500 7000 -5499.9 -27500 12500 -11000 500 14500 0 -21000 -16500 10500 2500 -7499.9 16500 -6000 -17500 26999.5 28999 -500 -3500 13499.8 18000 -20500 -22499.6 -26500 2500 0 26000 -10000 22000 -21500 -22999.6 -17500 25000 
6499.8 -22000 -18500 20500 21500 -3000 -22000 11500 5999.9 -2500 30000 23500 5500 9000 -12000 -2500 -10500 22000 -9500 -18000 28000 500 -9000 23500 26500 24000 11500 -3999.9 -24500 13999.7 11999.8 12500 18499.7 1500 0 -16500 16000 7999.9 4000 16500 8500 -29000 4000 10500 16500 25500 -1000 -10000 21500 -2500 14500 19000 -28000 -7000 -9000 500 -10999.8 1500 -13500 -16999.7 16000 28500 -8500 -19500 2500 -19500 -2500 -26000 -18000 -9000 -6999.9 24000 24500 -25500 5500 22000 1000 1000 -500 17000 -5500 -16499.7 -16500 -7000 24500 -26500 21500 1000 -500 -18000 -14000 24000 15000 20500 -500 8000 10500 26000 -19500 9000 7000 2000 5500 28000 -16500 -18000 -2000 -21500 -23000 19000 10500 14500 26999.5 14000 -19499.6 8499.8 -22500 -19500 20000 -20500 -12000 8500 -29000 -12000 500 -11500 -1500 20500 
5499.8 -2000 14000 0 -14500 -22000 -500 8000 8000 26000 6500 -12000 -27000 4000 17500 16500 -5500 -1500 26000 16500 11000 -17499.7 -25000 -25500 9500 -2500 -8500 -25000 0 7000 16000 -6499.9 -25000 -25500 10000 1000 3500 13500 -13000 -12500 -22000 2500 -2500 15000 24999 -3500 17500 -24500 19500 17500 -11000 -19500 -3000 -26499.5 2500 -9499.8 9999.6 11500 -10500 4000 5000 -20500 11000 25000 13500 -2500 -13500 -9000 27999.5 -7000 -16500 -12000 2000 -17500 7000 -8500 0 -25000 -2500 2500 27000 -5500 0 3500 16500 0 18500 -4500 3500 1000 7500 17500 -3500 -14000 26500 21000 0 25500 25000 -27500 2000 12000 -11000 -27000 14500 11000 28500 -15000 12000 -18000 2500 25500 14500 24500 27500 3500 2500 13000 -23000 5500 -2000 -2000 -8000 18000 -3000 24500 11000 -12499.8 
-1000 -25499.9 -4000 23500 -5499.9 4000 1000 25000 -9000 18499.7 -17000 22500 -1500 500 -14000 0 25500 -23500 16500 -29500 -4000 -2000 4000 -10000 29499.5 2500 29500 -29500 -18000 2000 21500 -14000 -12500 -6000 27500 -28500 9000 1500 25499.5 19500 3500.3 -15500 -26000 -24500 -4000 20500 3499.9 -13499.8 13500 0 -1000 -27499.5 25999 -15500 26000 -11000 29500 7000 -25500 -22000 15000 24500 -12000 5500 14999.7 -23500 -9000 2500 20000 28500 -17000 -25499.5 5499.9 -3500 -10000 26500 -17000 -8500 -27499.5 14500 1500 8000 -23500 -14500 9500 -13500 -26500 8000 20500 20000 -21999.6 27500 -500 -20500 -10000 -19500 -4500 1500 12500 5500 1000 -5500 28500 21999.6 -14000 -3000 22000 -5000 -20500 29999.5 4500 6000 4499.9 4500 -5500 0 -24500 0 -9500 29500 21999.6 -26500 -5500 0 -16500 -14500 -22000 -29000 
499.9 17999.7 -27499.5 5500 0 7499.9 -11500 1500 -18500 29499.5 4499.9 0 -17500 -26499 -5500 3499.9 2500 14000 -2500 -7999.9 -22000 500 -2000 -500 -21499.6 -12999.4 0 -10999.8 0 20999.6 27500 10499.8 25500 0 -8499.8 26500 -8499.8 -8500 -13000 -22000 -4999.9 23500 -1500 -24499.5 2500 12500 11000 -2000 2000 -15000.3 -8000 -10000 -7500 -30000 -29000 29500 -6500 -21000 -6500 22499.6 20500 -26500 -1500 -12000 -24999.5 7000 500 0 -11000 8500 -27500 1000 -15999.4 -22000 -12500 30000 -21000 0 -14000.5 1000 26500 -2999.9 -14500 -8500 -28000 29999.5 -24500 0 7499.9 13499.8 -26000 8500 -26500 -24000 -29500 -8000 -6999.9 -14500 18000 -22000 17000 -15500.2 -11000 -23500 -2500 7500 -2000 2500 -2500 18000 -13000 7500 14499.7 -9500.3 0 -17000 -500 26000 18000 -19000 0 2000 0 -2000 -16500 18000 2500 4000 
7999.1 -500 26000 -5000 -9500 -23500 -22000 -16000 -18999.7 3500 4000 1500 12000 -15000 500 -1500 26500 -5500 2000 15000 -5500 30000 -27000 -6000 -25500 28000 -6000 2000 -30000 -14500 -23000 2000 24999.5 -8500 -16999.9 0 -25500 6000 4499.9 2500 -6999.9 -1000 20500 4500 -2000 2500 18500 -9500 -21999.6 -2500 10500 27500 -26500 -27999.5 2000 -6499.9 4499.8 -14500 17000 18000 10500 27000 16500 -23000 -3000 5000 -22000 -8000 17500 5500 16000 -28500 2500 -1000 -2000 -5500 -27499.5 26000 6500 6500 500 29499.5 14500 22500 1000 0 21500 28500 -10499.6 -11500 29000 2500 5000 -25499.5 -4999.9 29500 -2000 -27000 -2500 16500 25500 5499.9 22000 -23000 11999.6 2500 -26499.5 19000 3500 -29500 -21000 26500 26999.5 -30000 13500 -21500 500 30000 27499.5 16999.7 8499.8 500 -21500 5000 -14499.7 0 13500 0 
14999.4 -11500 27500 -11000 27000 -27500 -13500 -6500 -1500 7500 -22000 10000 30000 0 -22000 29000 500 -15500.2 15500 -5500 -2500 -1000 -4000 -1000 -17000 -18000 5000 25000 27500 -17000 -20000 -29000 -20000 -15500 500 15500 -27500 -4000 -18500 6500 13000 5000 7000 -1000 -2000 21500 27500 -8500 -3500 15500 11500 1500 14500 -14500 24000 7000 -3500 7000 14000 -10999.8 -2500 -18500 -17500 26500 10000 -24500 -13000 -7500 -6000 -28000 17500 29500 -16499.1 -22000 -499.9 -15000 26000 22000 -10500 -1499.7 25000 16500 7000 23000 -3999.9 14500 6500 19500 0 -18500 -24000 20500 -10000 -6500 -2500 -2500 15000 -22000 -5500 -5500 -11999.8 12000 -30000 12500 -22500 3500 20000 -19500 18500 28500 -7500 25000 4999.9 0 -25000 26500 -22000 5499.9 -24000 -1000 17999.4 17999.7 -11500 -23000 -10000 -1000 -22000 -23000 
-15999.1 30000 -3500 -24500 -25000 16000 -22000 -20000 15000 0 -10500 17500 -29500 14500 21500 1500 27000 6000 8000 -27000 5499.8 25500 -2000 14500 20000 -17500 -13000 5000 -13500 -22500 -27000 -4500 -19499.6 -15000 8000 -27500 -10500 -13999.4 -2000 -4000 -21000 -10999.8 21499.6 4500 -9499.8 22499.6 -10499.8 -23999.6 -5500 11500 -25000 17000 -27500 -9000 -1500 6000 -7499.9 8500 24000 8500 -23500 -23000 30000 15499.7 -23999.6 2500 -2500 -11500 13500 0 -2000 -2000 -16500 2500 -22000 5000 21499.6 5500 11000 26000 -10999.8 -27500 12000 -10000 22999.6 -500 -9500 -28000 -6999.8 17000 5500 4500 -16999.7 11000 25000 -23000 -3500.4 -23500 -9000 -24000 -500 1000 -500 -25500 16000.1 -2500 16500 -5500 -3500 16499.7 2000 3500 8000 6000 6000 3499.9 -12999.8 27499.5 -10000 -1000 -8000 -21999.2 -9999.8 1000 -10000 27000 19000 -5500 
500 -17999.7 18000 -13000 -2000 24000 -23000 -27499.5 14499.7 9000 2000 -7000 -1000 -1500 -6499.9 27500 -21000 -14999.7 1000 29000 23500 -10500 9000 25000 16000 12000 16500 7000 -16000.1 -3000 -22500 2500 -17000 22000 21000 -8500 -12000 12500 -6499.9 3500 25000 19000 -28000 0 30000 0 -14000 -500 -4999.9 16000 5499.9 -27500 -5500 -2500 -26000 -22000 15499.7 -17000 -2000 -3000 -17999.7 21500 -5500 -12500 -27500 -27500 1000 1000 -12500 16000 12500 5500 -11499.8 -500 18000 -27500 -15500 -500 -500 -19500 24999.5 28999.5 10500 -2500 28999.5 28000 -500 -29500 -13499.8 15000 -13499.5 -25500 1500 23499.6 11999.8 -2999.9 -20999.2 -17000 3500 17500 -28500 -22000 -19000 7000 -15499.4 3499.9 0 -9999.8 3000 -7499.9 -9999.8 28000 7000 8500 500 -21000 0 14000 17000 24498.8 27000.1 1000 -3500 -4000 -10000 -17500 25000 25500 
-1000 24999.5 27500 -30000 12000 -6000 500 20000 0 23999.6 -11499.8 -3500 -26000 27500 -5500 1000 5000 -13999.7 -12000 -22000 -27500 500 -18000 -1500 1500 21499.6 -8000 23000 9000 -30000 8000 -2500 10999.8 25500 -16500 -1500 -17500 2500 9999.8 3000 -3000 -10999.8 -19500 -4500 26999.5 -1000 -6000 2500 -5000 2000 2000 -21000 26500 -2500 -15000 1000 -5500 -16500 -500 24000 -5500 -16500 -15500 -11500 16500 25500 -9500 500 -5500 28500 11000 2000 13999.7 16000 28500 -17999.7 1500 -27500 -8000 27500 -9000.4 25000 7000 20000 10000 -5500 26500 -1000 5500 1000 -1500 -26499.5 -23000 26000 14500 16000 -500 -16499.7 -1000 -27499.5 -7500 27500 -1500 14500 -10999.8 -26000 -22000 7500 29000 500 5500 29999 7499.7 18499.7 1000 -7000 -22000 24500 15999.7 -1500 -4999.7 7499.9 -30000 3500 -25500 25000 -28500 1000 
27497 -9500 -28000 -14000 -5499.9 -3500 -24000 12999.8 13499.4 24000 -29500 27000 24500 -24499.6 17000 5499.9 2500 6499.9 -14999.7 -20000 -20500 -6500 -22000 -16500 29499.5 -22000 500 10000 1500 23999.6 0 -14500 -2500 8000 -21000 -28000 14000 1500 -5500 -11000 -27500 24000 21500 -20500 -16499.7 13000 -9500 -9000 -16000 -17000 1000 14000 -16000 -10000 20999.6 -22500 -23999.6 -23000 6499.9 -22500 -18500 17500 8000 15000 26500 0 27500 6999.8 27500 -13499.8 13500 -2000 5499.9 18000 -28000 10000 -22500 -10500 5500 -11000 26499 -7000 27500 -24000 -28500 11000 7500 -18000 500 22000 -17500 -500 6000 12500 -8999.6 2000 3499.9 1500 -16000 11000 2500 -3500 -17000 -7000 500 11500 -6500 12000 1000 20500 24500 15500 12000 -23000 -4500 -10500 2000 23000 -16499.7 -15000 -28999.5 12500 28000 -11000 -14499.7 -8500 14000 1500 
-26499 -13500 14000 -3499.9 25000 -2500 1500 5500 17000 11000 4000 -28500 24000 -15500 2000 -11000 25499.5 -3500 -27499.5 20499.2 -8000 0 24000 500 -8500 -6500 -27000 0 14500 21000 17500 -6000 -25499 0 -17500 1500 22000 -3000 10500 1500 21999.2 -7999.9 25999 23500 6499.8 -13000 5000 -20500 -16499.7 -21500 -27000 12500 -13999.7 23000 -12000 2500 9999.8 25499.9 3500 26999.5 -7499.9 -10499.8 -22000 27000 -21499.7 1000 -6500 15499.9 0 -14500 9000 -5500 -2000 3000.5 3500 500 26500 7999.9 -25999.5 5499.9 -22498.8 4500 500 20499.6 -12499.8 -19000 24499.6 9500 7500 1500 10000 -2500 -13000 11499.8 -23500 -2500 -1500 0 -20500 -19999.6 -9000 -16500 -500 21000 -2500 -16500 24000 23000 0 2500 2500 26000 23999.6 -16000 -1000 4500 11000 20000 -22000 4500 3000 -29000 10000 6000 27500 1000 -7000 -5000 
-16499.4 3500 28500 500 -21500 29500 -23999.6 11000 -9000 7000 16500 -26999.5 -6999.9 -11000 2500 3000 -30000 -3499.9 -16000 9000 22000 -26000 27000 1500 -6499.8 8000 28499.5 6000 1500 16500 -25500 2000 -13999.4 11499.9 -2000 -24500 0 6000 -7000 2000 -1500 -2000 1500 30000 11500 10500 3000 -13000 -16499.1 -18500 -3000 16000 25000 -2500 -27000 22000 1000 26999.5 17000 -1000 -24000 -21000.2 -12000 -23500 -8500.3 4499.9 -7000 10499.8 1500 20500 11500 -20000 27499.5 14000 -1500 -13500 10999.8 23000 11000 -22000 24000 27499.5 -2000 10500.1 -15500 10999.6 -17500 24000 -10500 -29500 -1500 -21500 28000 -27500 -7000 -25500 -20500 3000 -17000 3500 -14499.7 1000 -17999.7 -10500 6500 -2500 15500 -27500 -1000 12500 16000 8000 23500 -11000 21000 20000 -23500 -2000 2000 -18500 -5000 -5500 1000 -26500 28499.5 6000 -17499.7 28000 
19998.4 -27500 -14000 -1000 19500 3000 -15000 -25500 -10000 8000 -3000 27000 -12500 -16000 0 -10500 24500 8000 -11500 -2000 14000 -8500 -30000 -3500 -17000 -18000 0 -6999.9 -1000 12999.8 -13500 10500 20499.2 -5500 6000 4000 1500 6000 20500 -13999.7 0 28000 -14000 -8499.8 -13500 -8500 1000 -24000 -7499.8 13500 24500 -23000 -4000 27000 7000 -16499.7 8999.6 -11500 -500 2500 -23000 -2500 20499.6 -2000 -1500 -5500 7500 -1000 -29000 24000 22000 -6500 28999.7 28000 0 11000 -3000 3000 500 15000 -5499.9 -22000 -26500 -16500 2500 17500 -16500 5500 -1000 -16500 16999.7 -27499.5 -27500 -3500 23500 14000 27500 22000 12500 -23000 29000 23000 20500 -11000 -5500 15500 22000 -19500 1500 21000 -19500 16500 2500 -5500 -8000 7000 -8500 12500 15000 18000 -21499.6 -13000 10500 -23000 21000 -14499.7 1500 1500 
500 10999.8 17499.7 26999.5 -6500 -11000 -17500 -15500 -26999.6 26000 18500 -22000 -25500 24000 -6000 28000 -29499.5 -28000 -20000 21500 11000 25500 -22000 1000 9999.6 -26500 -5000 -17000 -3000 20500 -5000 -14000 15499.9 -29000 23500 -5000 29500 -20500 -19000 27500 -14499.4 1000 -17999.7 -4000 -23000 -13500 27500 -8500 -6999.6 18999.7 499.9 -5500 -29000 18500 14000 28499.5 20999.2 -17500 12000 6000 -24000 -6999.9 -11500 27500 17000 16499.7 -5000 2500 -500 2999.9 24499.6 14500.4 2500 20500 -10500 20500 -23500 9000 -24000 -22500 22499.6 -2500 -30000 -15500 27500 -1500 500 23500 -19000 28999.5 0 -6500 22500 0 16500 12500 2999.9 11500 5500 12000 22000 -11000 -6000 22500 -6999.9 -2999.9 -10999.8 16999.7 -3000 -9000 -13500 27999.5 13499.4 13499.8 26000 -13500 22500 500 -14000 -2500 19498.8 15500 22500 25000 10000 11000 -20499.6 -9500 
-24997 -11999.8 15999.7 5500 6500 -18999.7 -4000 0 -10499.8 -30000 8500 -22500 27499.5 15000 26499.5 -12000 22500 26000 16000 19500 -16000 -16500 1500 15000 16999.7 2500 2500 1000 -1000 -26000 -500 -29500 -19000 -10999.8 -29000 -1500 28500 24500 21500 -8000 -28000 2500 500 -9500 11000 22500 5500 -22000 -11500 0 16500 -12500 26000 6499.8 -11000 15000 2000 13000 2000 -5500 -28500 16500 11000 26499.5 -4000 -11500 -7000 27500 22000 -20000 -2000 12500 -15499.7 -500 23000 -21000 0 -18500 27000 17000 -29498.2 9500 -11000 29999.5 2500 19500 2500 -16500 0 5500 -21999.6 -21000 -17499.7 -22500 12999.8 -2000 19999.6 -14000 -2000 26000 10000 -4500 -1000 -4500 22500 11999.8 -28500 12499.8 16500 21000 -17999.7 3000 22500 14500 -24500 -14000 -13499.8 4500 -14500 -20000 2500 16000 6500 -7500 -2500 -2500 1000 -5499.9 
3999.7 7500 -19000 6000 10000 29500 -16500 -3500 -10000 -16000 -23000 0 21500 -1500 -14500 28500 -17500 14500 27499.5 0 0 22500 25000 3000 12999.8 20499.2 -12000 1000 -5000 -26000 6500 11500 -21999.6 -21000 -10500 7000 500 23500 -17000 15500 19000 -28500 7000 5499.9 -11000 -4500 0 -16500 -23499.6 -27500 -26500 12499.8 17500 26000 -21000 -27000 19999.2 2000 -22500 10500 -27500 -12500 24500 -22000 -24000 -2500 3500 -4000 -6500 -22500 -500 3000 -16500 12999.4 -12499.8 21499.6 6000 -22499.9 -19000 -10999.8 21999.6 -1000 -24000 -14500 -18999.5 -27499.5 -27500 -4499.9 30000 -21000 18000 24500 23500 -14000 27499.5 -26000 -28999.5 -26500 -6500 -17000 14999.7 29500 -29499.5 5000 -10999.8 -5000 0 16000 15500 11000 -21000 3500 23000 21999.6 8500 -7500 -19500 3500 21000 8999.8 24499.6 -12500 3499.9 22000 -500 11000 23500 6499.8 
6999.4 16499.7 28500 22999.6 -20499.6 19500 -7499.8 -1000 26499 -22500 -2500 -2500 -18000 -27500 500 -20000 11000 -28500 11000 2000 -3500 -26000 -23999.6 22000 4999.8 -20000 25500 -16500 5500 -13499.3 1000 -1000 2499.5 -4999.9 -3499.9 -4000 -11000 -15000 -1499.7 21500 0 -500 9500 11999.8 -17000 -5499.9 -27500 -18000 -24500 -2500 -2000 26500 -6500 16000 6000 22000 25999.5 29000 -16000 -25000 4499.9 -8999.8 -15000 -11000 22000 19000 27000 -27500 7499.9 5499.9 2500 5000 500 12000 -5499.9 18500 11500 -14499.7 -16499.7 14499.7 -16999.4 22000 1500 -25499.5 -2000 1000 -8000 -24500 12999.8 8500 -19500 9500 1000 -11500 -29999.5 4500 -15999.7 -13500 0 500 25500 -3499.9 16500 25500 11499.8 10999.8 29500 -24500 -26999.6 -21999.2 0 16999.7 11999.6 -29000 -27499.5 -1000 8499.8 17000 -1000 -20500 19500 -6000 19000 -2999.8 3000 26000 -20499.6 2000 
2499.5 -5499.8 29000 23500 15000 16500 -5000 20000 10000 -12500 2000 -8500 -20000 -17000 23000 15000 -8000 25000 22499.5 17999.7 9500 21000 1000 -29500 -1000 -29999.5 -1500 -29000 -1500 -20000 9500 -5000 16000 -11000 20000 9500 -16500 -2999.9 -23500 0 23999.6 -6500 -5000 23000 15000 29499 -25500 -15500 -11000 -26500 -7500 -11000 6500 24000 5000 -2000 -14999.7 -10500 -7500 28500 25500 29500 7500 11499.8 24000 -18000 -26500 -500 -20499.2 -2500 20999.6 500 12500 21000 25500 -16500 -18499.7 6999.9 13500 0 23999.6 0 18500 16000 -30000 -5999.9 19500.1 -7999.9 26000 12500 17500 25000.5 -29000 22500 -19500 23499.3 22999.4 -12999.6 -29500 -16999.7 -1000 -22000 -2000 -19000 -17000 -18999.2 0 0 -21500 8500 14500 17500 20000 -9000 25500 17000 -13000 30000 -3000 -25999 -8500 4500 -500 3500 27000 -4000 21000 -11000 
-21998.4 22500 -4500 7499.9 -29999.5 -19000 -27500 28499.5 9499.6 -21500 -9000 11000 -25000 -9000 -10500 -500 2000 3000 27500 -26499.5 27500 -5500 17000 -23499.6 -28999 30000 8500 -16000 -15500 -18499.7 -16000 -12500 -11000 9500 16500 2500 -30000 17000 8000 500 -1500 0 -14000.2 -26500 6500 -6500 -9000 -25500 -22000 20999.6 -7999.9 -27500 18500 11000 -18000 -19500 15000 -22000 -4500 -20500 -2000 -24999.5 -15999.7 16999.6 -27499.5 -500 16499.7 -23000 -1500 -20000 18000 -16999.7 27499.5 18500 18000 -25000 -27499.5 23500 0 7000 -6000 1500 25999.5 -18000 -1000 20500 5500 9999.8 -11999.8 -5500 -27500 6500 21999.6 6500 -6500 -11499.8 8500.3 -13999.7 20499.6 24999 -10500 12000 15500 24000 -4499.8 3000 -11999.6 4500 21500 -8500 1000 5500 -24500 -29499.6 10000 -11499.8 -21000 -5499.9 19000 3000 13500 12000 22999.6 -500 3000 23000 16500 -26499 
14498.5 -21498.9 3500 -18999.7 24000 -22000 -27000 -2000 3999.8 -22499.6 -26999.5 500 3000 18499.7 26499.5 18999.5 -6499.8 -17999.7 15999.7 -27499.5 20499.6 13500 25500 -15500 -27500 27500 -17500 -24500 10999.8 -23000 -12500 0 -1500 3499.9 1000 7000 -12000 500 1500 -9000 -4000 -20500 21500 0 -17499.7 -17000 25000 -4999.9 -2000 6000 19499.6 -12500 -17500 10500 2000 19500 -17999.7 17499.4 -500 25999.5 21000 17500 -27000 -2999.9 -27499 -10500 25000 -8000 -24999.5 -29000 14500 -12499.8 -2000 29500 -16500 15500 -2500 27500 13500 -24499.6 1500 11500 13499.6 -5500 500 -19999.6 -27499.5 22000 -12499.6 -16000 -2500 16500 -2000 16499.7 -22000 -4500 -17499.7 -15500 7999.9 500 -4500 1000 -13000 -9499.6 7499.8 0 -14500 -2000 -13000 -20500 21000 25000 -7000 500 -23500 -26500 10000 -29500 -1500 -15499.7 27000 28000 0 2500 -1500 -19499.6 -7000 6000 
17499.4 15999.7 27000 -27500 -23999.6 3000 -27500 -5500 -12999.4 -12999.8 16499.7 -18500 -2000 11500 -19000 -11000 2499.5 25500 11500 26999.5 -13000 -19500 20000 5500 13499.8 0 21000 11000 -10500 23000 -16499.7 26000 18500 18000 -16000 -2500 -9000 -21500 29500 -6999.9 16499.4 15500 18999.7 17500 -2000 27999.5 18000 -5500 -500 25500 -22500 7999.9 29000 -1500 24000 -25500 -4999.9 12000 -24499.6 -7500 9000 -12500 3499.9 23499.6 13499.6 14999.7 -6500 -25500 -16499.7 2000 30000 -10500 9499.8 14500.4 28000 -14000 17500 -24500 -27500 25999.5 -2000 23500 11000 25500 7499.9 28500 -1500 15000 -16499.4 4000 -6000 -1000 19000 12000 16500 4999.8 -12500 2500 13500 25000 -4500 -4500 15500 1000 -24500 7000 11000 15499.7 0 19500 7499.9 18500 -7000 -1500 3000 -12000 0 -19500 -22000 15500 -15999.7 500 -28000 17500 19500 6000 5499.9 22499.2 
-29498.5 3000 -9000 -22500 -4500 6500 -3000 -3499.9 -11999.8 -14499.7 14000 8000 -16500 29500 -29499.5 5500 2000 27500 -11000 -8000 -15500 25500 -6000 500 28499.5 22499.6 -26000 23000 26500 26000 -20000 6500 29999.5 21999.2 -23500 23000 17000 13500 1000 26500 -18500 -23500 13500 13500 13500 -5999.9 1500 -17500 -12499.8 -9999.8 14000.5 11000 7000 11000 16000 15500 27000 -21499.6 -10000 500 20499.6 -1500 -17000 24500 2500 14500 4999.9 -15000 13000 10500 15500 -16999.4 26999.5 27500 22000 -6499.9 11000 -6500 -19000 -20500 27000 0 28000 21500 -8999.8 -23500 11000 19499.6 -10500 11000 5500 20500 0 -2000 -2500 19999.6 13500 9000 -29000 -18000 2500 -26500 -2000 25500 11500 -11999.6 25500 0 500 -4500 -20000 7500 -16999.4 16500 1500 17500 -10000 -20500 -10000 19000 17999.4 -19500 -5500 -12500 -11500 25499.5 -3500 -8499.8 
-10998.8 500 1500 -11000 6000 -2500 5500 -13000 -4999.9 -4500 -6500 3500 -19500 -23499.6 1000 -22000 2999.8 -4499.9 2500 -18500 -19499.6 -1000 -25499.5 28999.5 10499.8 11000 29000 28500 -9500.3 30000 25500 -21500 20499.6 12000 -3000 27500 18499.7 17000 27500 -7499.8 1500 26500 -8000 18000 -9500 -16000 3000 -26000 1500 -13999.7 -17500 3500 -6000 2000 -3000 18000 -29999 -27999.5 0 7999.9 2999.9 3500 -500 -15000 -2500 -16500 17500 2500 -11000 27499.5 30000 8500 -500 -15499.7 -2500 17000 -8000 -2500 16000 28500 -10499.2 10999.8 27499.5 1000 -6999.9 5000 6499.9 -4499.9 29499.5 0 -12000 11499.8 16999.7 -7000 1500 -19500 6499.9 14499.4 -12999.8 -19499.2 0 5500 5500 -6000 26500 4000 -21999.6 -5499.8 3000 -18500 -2500 30000 -28498 -20500 24500 1500 20000 -12999.8 30000 -10500 -29000 5500 -16500 9500 -24500 -17999.7 -14000 -16000 
24499.2 10499.8 -500 -9000 -1500 -26500 28999.5 -18500 500 -27500 8000 -14500 20499.6 -8000 1500 16500 2500 12500 -18999.7 4500 6500 18000 0 12000 3499.9 0 0 5500 -2000 22500 17000 -1500 -27500 -19000 24500 -12000 1000 -14999.7 -9999.8 28000 21000 -20500 -15000 -10500 -13000 18500 17000 -14500 -21499.2 -24000 0 -20499.6 7999.5 14000 -8499.8 -14000 500 -13499.6 -26999.5 -27499.5 14999.7 -7000 9999.6 -4500 6000 22000 -3499.9 0 3999.9 -500 14500 28000 -11999.8 -1000 -11999.8 -29000 -29000 28000 1000 -22999.6 27500 -21999.6 23000 12000 -12000 -20000 -27000 -4000 -500 20500 -18500 3000 -17500 -19500 -18000 -27999.5 -19000 13500 -22000 10499.8 -7500 23000 0 27500 -5499.9 -7500 -24500 -24499.6 -29000 15500 -16000 4500 -17499.1 -29000 -3499.9 14000 1500 -12000 15000 22000 -4999.9 23000 -4000 -18500 -28999 20000 18500 4000 
28996 -27999.5 -12999.2 -3000 24500 3000 26500.2 22500 -21000 -3500 23000 -29999.5 15500 -1000 23000 -500 14499.7 2500 -27500 -19000 24499.6 -9499.8 -500 0 -500 -6000 -15500 3999.9 -27000 9500 -1500 7500 -19000 -7500 10500 2000 23500 -15000 18500 1000 -14500 22000 24500 -28000 25500 -29500 -12500 -17999.7 -26500 16499.4 -12999.8 -23500 4000 4000 9000 20500.3 12500 15499.7 -7000 8500 5000 21999.6 2500 1000 18499.7 -1000 25000 5000 -25000 -10000 6000 16000 -18500 -11500 12500 -22000 13000 1000 500 26500 -8500 -9500 -13500 1500 5000 27500 -11000 -21500.1 3500.4 1000 13499.8 -7999.8 500 -11499.6 -21999.6 18500 -22000 13000 26500 -4999.9 26999.5 -21999.6 16000 18000 25000 1500 -6000 8499.8 28500 -26500 -20500 25500 -28500 -9000 -14500 -16499.7 -8500 -10500 -1500 1000 7999.9 -10499.8 -500 24500 -29000 0 -22000 9499.8 
-18998.3 27499.5 19500 -17499.7 -6500 13000 13499.5 9500 27500 -15500 -10500 6500 13499.8 -7000 -4000 4000 -9500 -8499.8 -500 -7500 15500 0 -5999.9 -17000 -26499.5 7000 19000 24500 21000 -25500 27000 3999.9 0 -20500 27500 -27500 27500 24500 -21000 2500 15999.4 -4000 25000 -29999.5 8000 29500 -29000 -7000 -25499 -2500 -17000 30000 -18000 27500 10999.8 2000 -13499.6 5499.9 28499.5 -21499.6 4000 -9000 11500 22000 0 17500 15500 5500 20500 26999.5 27000 24500 -19499.6 -21500 -10000 -500 5500 19000 23000 -10500 3500 8500 -3500 -8500 21000 -16999.7 25500 -16500 -2500 -16500 -21500 -27499.5 -28499.5 -3000 -14500 9500 4000 -16000 11000 13500 3500 12000 -500 -20000 -20498.8 -15500 500 16000 27500 -18999.7 -24499.6 6000 -30000 15000 22000 -1000 -500 -5000 -11000 -499.9 -18000 -30000 -9000 -10500 -6000 15999.7 1500 -12000 
-25000 -10999.6 2000 -12500 22000 5000 8500 2999.9 29000 -11000 -23000 -28000 -15000 1000 -6500 -9500 15999.7 0 -11000 0 -11499.8 -6500 -25500 -12500 -2999.9 27500 500 499.9 -15000.3 0 -9000 -11000 11000 -10999.8 -21000 25498.5 16500 13500 27499.5 -1000 -29999.5 22000 2500 9000 -3999.9 14500 -5499.9 -7500 -15499.7 8000 4000 -1000 6500 5500 -5000 -2000 24500 -12500 -2000 17500 -1500 1500 11999.8 -4499.9 -12999.6 27500 -8000 30000 -12000 1000 16500 -14000 500 -500 -16000 21999.6 10500 12000 -5000 14000 2000 -2000 -27500 11000 8000 -1500 5999.9 11000 -21000 -16000 17500 -21000 11500 -25500 0 -20000 19000 -16499.7 28999.5 -22499.6 -2000 6500 -30000 1500 2000 1500 15000 -500 -2500 7000 7000 7500 -27999 13500 -9000 28999.5 -15999.7 -27500 0 19000 -20500 -22499.6 -20000 16500 -17500 27500 -1000 -7500 
22995.6 -23999.2 -21500 22000 11000 -25500 21999.6 12500 22500 1000 19500 -16500 -27500 27500 24999.5 16500 -21000 22000 25500 12500 -5999.9 500 1500 -7499.9 1000 1500 5499.9 3500 14499.7 0 -6499.9 -23500 -8000 -15999.7 -5500 -8999.8 -500 1500 0 -23500 -20000 16499.7 -15000 14500 25000 -7499.9 -1000 -15999.7 -25000.5 -11000 -21499.2 5500 16500 -6000 -15000 22500 1500 -18000 8500 -20500 -2500 6500 -9000 -15500 0 -23999.6 30000 2000 -25500 -500 3999.9 -11500 29500 -24499.6 27499.5 -19500 -22000 -6500 14500 -2500 3000 -12999.8 -27000 11000 -19500 -27500 2500 5000 -5000 5000 0 -11000 -2000 11000 17000 -28000 11000 -24499.6 -20500 28500 22500 -4500 19500 -1000 -2000 3000 -29000 -18999.7 -20500 -5000 20500 5000 -15000 16500 30000 23500 -6000 -18500 26000 -17499.7 24000 0 -17999.7 -11500 -12000 -20499.6 -2000 27500 
-23998 22999.2 9500 11500 -18500 -11499.4 -2500 -24500 27498.5 -10500 9000 22499.6 -1000 2500 0 -22000 15000 -8500 18000 -19499.6 -19999.6 -14000 14000 25000 15999.7 -2500 -10999.8 -26499.5 -20500 -16000 -21000 30000 -21999.6 10999.8 -23000 28500 -13000 -4999.9 -15500 -16499.7 -2000 -9500 -7000 -2000 16500 16999.7 4500 -4000 -3000.3 -14999.7 19000 -10500 -5500 -28000 19500 -3000 -1500 27000 13500 8500 -22500 -8000 18999.7 500 26499.5 2500 17499.7 13500 4500 -26500 6500 -20499.6 0 -13999.7 14000 -1500 -14500 -11500 -28000 5500 1000 20000 -11000 -11500 -5500 0 0 26000 1000 24000 13500 -7000 -3000 1000 3000 7000 -13500 -24000 -18000 -3500 5500 -16500 -1500 -23499.6 -4999.9 -28500 -8500 -13500 0 -29000 19500 26000 0 -10500 -3000 5000 16000 -26000 -25000 3500 -10999.8 16500 -16000 22500 -22000 2500 8500 0 
-21997.6 -14500 22000 5500 30000 17500 22000 -19000 -29500 -23500 -4000 10500 15999.7 -15500 2000 5500 1000 19499.6 24000 0 28000 -11000 -28500 -1500 8999.8 11000 9500 -3500 -6500 -28999.5 -2500 25500 -1500 20500 8000 -17500 -15500 16500 18000 17000 500 11000 12500 -27500 -11000 -2500 18500 -16500 -26000.3 -23500 -5500 -7000 18499.7 -9000 -22000 15500 2500 0 0 16500 -18000 19500 14500 24500 -29000 -15000 -29000 21000 0 -24499.6 27000 -5000 22500 -30000 -27500 23000 11500 -28500 19500 -10000 -16500 -23500 -12500 19999.6 -500 5000 -6000 21999.6 3000 -21500 -4000 -5000 22000 4500 19500 -1000 -29499.5 -16500 -8499.8 -11999.8 16500 12000 15000 3500 16499.4 22500 -6000 5499.9 -2000 5499.9 18499.7 27499.5 1000 -29000 23500 -21000 -14500 -3000 -10499.8 6499.9 12000 -500 15500 7500 -2000 -21000 22000 -1000 
17498.5 27500 -13500 6000 -2500 9500 -500 500 -22998.6 -2500 27500 2000 23000 -12500 2500 2500 -23999.2 9500 9500 2000 0 3500 1000 28500 25998 -5000 -18000 -11499.8 500 22500 5000 -8500 5499.9 3000 12499.8 -22000 -27000 -25499.5 500 -5499.8 26999 -14000.5 6000 -2000 -10500 2500 -2000 -17000 -15000 -5500 2000 -19999.6 26500 -21000 0 16500 7999.7 -3500 28500 -19500 -15000 -22999.8 -6500 -14000 -19500 27000 15500 26000 20499.6 23999.2 0 19500 17998.2 -5999.9 -15000 -11500 14000 27000 23999.6 15500 19000 -24499.6 28000 3500 15499.7 -22500 10500 -27499 8500 21500 20000 -14000 -21500 8500 -27500 499.9 13499.6 -14000 19000 16499.7 -9500 22000 -23500 -5000 -27499.5 -25500 21500 -1000 -17500 -17500 -23000 29999.5 1000 -13000 2000 -6500 -27500 -5499.9 9000.4 -2500 10999.6 -7000 16499.7 -18000 -24000 4999.9 -7500 -17999.7 
14499.8 2000 2000.01 10999.9 9500.02 -21000 24000 -29000 -18000 18999.8 25000 -2500 -14500 -24000 -26500 14000 14999.7 -12000 28999.9 -1499.99 30000 -16000 24500 24000 2499.99 -18000 21000 -12500 -22500 1499.98 11499.8 -12000 -19999.2 18500 -7999.9 8999.79 -10000 -0.0223904 8000.01 30000 -26500 21000 21500 25499.4 20500 2500.01 5500 -4000.06 -26500 11500 24000 14499.7 -3500.02 -23500 29000 -30000 -28999 -3000 3000 13499.8 -4999.85 4000 2999.99 -8000 23500 -1499.68 16499.8 -17500 -28999.5 4999.89 20499.2 19000 -10999.6 -27000 13000 28500 -18500 11499.9 -20500 -10999.8 -9999.8 -500.058 5499.9 -7999.9 10500 12999.8 2000.04 -12500 5499.85 7499.98 -13000 -24000 2999.86 13500 -13000 -6499.8 500.012 -999.986 19999.6 -4500.21 -10999.9 -0.015331 26000 27500 20498.8 13500 7999.9 4500 5999.89 14500 -13000 17000 -22000 -15499.7 -3500 -19499.6 25500.4 -23000 4500.06 11500 -23999.7 5000.01 20500 19499.6 -18499.7 15499.7 18999.7 16000 
-13499.2 -21000 0.281475 21500.7 -26498.2 -28998 9500.95 26998.7 -28998.2 3999.83 -28500.1 12997.4 -19000.8 15500 28000 -13499.4 -10000.4 8999.98 25498.4 10003 -11000.3 -0.0814631 14498.9 -8499.91 -26500.1 16502.9 -0.86531 -8499.9 28500 26499.7 4501.13 7000.01 -13499.3 1500.02 499.845 -17500.8 -10000.1 23999.6 1499.82 23999.4 -27499 -17999.8 -24999.9 2996.8 -24499.8 21000.1 18500 -26503.1 5499.53 16000.2 -3500.07 12000.1 29999.7 -13503.2 13999.6 7000.54 18999.4 -10500 28999.7 -7500.07 -2998.52 7001.32 -18499.6 -500.223 20499.7 500.008 -9496.44 -13499.1 8000.04 -21001.6 13000.4 28998.8 0.128712 -18500 -22500 3000.01 -19500 27500.1 27499.9 29001.3 15500.1 -16501.6 11500.9 -16998 -17499.8 -15500.1 -15499.5 -13499.7 -24999.6 -27999.2 27001.8 1999.66 -8999.37 -30000 -15999.3 6000.12 -27498.3 2999.82 -16498.6 20999.7 -18500.7 -25499.2 -9501.61 6999.86 10500 -29500 -19000 -3499.4 29000.3 17501.1 -27500 16499.8 -20500 -499.462 5499.88 29002.4 -5500.43 1498.99 -26997.8 -11999.8 11998.9 9999.71 10500 -17499.6 16500.1 -24000 5500.4 10500.1 
2500.02 27000 -11499.3 -1999.33 -6498.17 11001 0.952459 22498.8 -11998.5 14999.5 -17000.1 -2502.17 8498.88 19500 -18500 6000.57 5499.6 -13000 27998.4 21003 -7500.27 -6500.08 -1.1367 -25999.9 -24999.6 5503.09 3999.13 -14499.9 -24500 13000.2 -20998.5 25000 5499.99 21000 -15500.2 21998.8 -15000.1 -2000.4 16999.5 -24500.2 -2500 -1999.78 -4999.91 -23503.2 -25499.8 2000.09 -22500 -15003.1 8999.53 23000.2 28999.9 500.066 14999.7 496.774 -1500.08 -12499.5 -25999.5 29000 23999.7 10499.9 -21998.5 -3498.68 -18499.6 21999.8 -14000 -499.992 2003.56 0.881945 10000 -501.612 21500 9498.81 -6999.77 -24000 0.0423804 -26499.5 -5000 2500.14 -3999.59 -12498.7 -19499.9 -14501.6 9001.06 27501.7 -21000.4 -1500.06 -17999.5 -3499.61 -19999.7 -14000.2 21501.8 12999.7 16000.6 -16000 -11499.3 -1499.88 -11498.1 5499.82 -21998.6 1999.7 -17000.7 29500.8 6498.39 1999.86 1000 14000 -24500 2000.1 -16499.7 -29998.9 -21999.6 4999.83 -21499.6 17500.5 -13000.1 16502.4 -29500.4 498.991 -14998.3 -12999.8 29499.1 -16500.3 23999.6 18000.4 27500.1 -2500.02 -15499.6 -24499.9 
12523.6 -27998.3 -10995.4 3069.08 980.217 19564.1 10504.8 14920.5 4479.67 8001.54 22991.1 22365 16472.1 18496.5 -1467.59 -22.5836 -8501.23 -1496.31 -494.5 -29942.9 -595.242 21445.5 2499.01 87.0189 -1003.31 2512.5 22504.4 -7501.36 29495.2 20971.7 -26960.5 -19991.9 15933 -29992.3 10888.2 -13549.3 16504.4 -13027.9 -10539.2 -124.574 -22050.1 -9502.27 21530.7 -28021.4 6525.41 -101.595 -13976.9 -5451.26 10496.5 -16969.4 -10443.1 -18999.3 -15008.7 -15501.6 -22003.5 -23980.5 -19001.9 12991.4 8979.69 -10527.7 -19943.9 13518.4 11501.7 -29501.3 -5521.71 -5992.54 9528.43 -9483.22 -22003.1 27507.4 2023.26 -26527.7 -16996.7 -10003.6 8471.03 -28524.9 20998.8 -15486.3 -16607.5 14997.3 5499.28 27489.3 18504.3 -14961.6 -24974.8 -28011.6 -1958.83 13517.7 -13983.4 26511.6 -27507.9 13995.4 -27497.7 -10965.1 20551.6 -21932 10990.4 11562.9 -18494.1 5481.69 -1045.48 -25500.9 1997.98 -2613.77 27493.9 -24057.8 -2996.09 8000.43 26510.8 7039.15 -19918.9 17998.1 499.582 9001.36 4999.48 -10970.2 27522.9 16.8534 -319.491 17001.7 -17556.9 -4572.02 14487.5 -20445.2 -949.86 -14499.4 28983.9 -30007.9 
3024.26 501.684 -1495.71 -15431.6 -13521.6 27563.1 22503.4 23421.3 6978.25 15001.7 -19508.5 25367.2 -26.8209 -9503.55 11032.4 15476.8 16498.9 -1496.29 -8992.74 -17945.9 29405 -4054.01 28000.1 -3413.07 2996.8 22009.3 -21494.3 -27501.6 -29004.4 -29528.7 -27961.6 -22491.9 23932.9 -16492.3 5388.39 15951.5 11004.5 -17527.5 6960.84 -29124.4 20948.5 16497.5 6030.63 -13518.2 5025.22 -1101.68 -13976.8 -18448.3 -503.276 -8469.63 556.936 -10999.7 24991.6 -6498.23 14495.8 23019 7997.99 -20008.6 -21519.2 28471.6 54.6085 2017.1 1.29832 -18501.3 10978.6 28007.4 -11974.9 -16484.3 6496.88 -491.015 20022.9 973.532 -24496.4 -11003.7 1971.19 27975 16499.2 -21986 -1608.18 -3.71302 2499.29 -4008.48 5003.29 -14963.6 2025.56 23988.5 22040.7 29016.9 -10983.1 11.7919 26490.4 13995.8 9501.69 -28465.1 17550.7 -5932.17 28988.4 12062.8 -1495.48 -11018 -11044.6 -5501.52 28499.6 -113.629 -4006.03 17442.2 19503.9 2500.03 1010.5 2538.19 6581.06 17498.3 -22000 -14998.8 -27999.9 -5472.61 -4976.66 10017.8 -1821.15 -16997.9 15443.2 1428.08 6987.85 26554.1 9050.07 6000.28 -8016.01 5491.46 
-26997.1 -13510.9 -8481.8 -15506.4 14008.2 -486.97 21996.8 498.234 2497.11 20501 -1.26724 -4012.37 -23501.1 -14997.6 -19967.8 -10996.4 -10999.8 -11501.2 -7935.99 5538.37 22466.8 12981.4 17495 27007 19999.5 23997.7 28520.4 -20507.8 2000.01 -13994.5 22502 18511.3 -3512.22 -19498.9 22979.2 2448.04 21503.2 25494.9 501.817 7484.06 -4999.6 1003.87 1500.62 25984 -4999.45 -21489.6 -13510.1 -24928 20501.8 -28499.5 -4495.63 15521.6 25994.4 -18002.7 26504.4 -12496.6 -13998.4 -26050.5 -18509 -15000.8 -9987.06 15502.1 2001.62 21994.9 -13017.6 -23999.8 13.6049 -18487.1 -27999.9 997.555 24509 -2047.17 25501.5 -24000.6 -2998.54 -16502.4 -29000.1 16042.5 -12503.1 6508.96 4000.96 -2999.92 2000.17 6554.81 5998.41 -10997 -13984.2 5533.95 24999.3 -20509.7 -424.557 17992.8 -25512.9 -27509.9 -1999.91 16494.7 -5006.7 -16514.2 19005.7 22997.5 16995.3 21989.6 1980.2 -2514.04 -16998.6 -19496.9 25000.5 17999.4 -8494.79 -22463.1 -2525.87 29000 1999.58 -10985.5 21500.5 -19502.8 -17993.8 23478.2 -5451.4 6486.62 -3500.56 7934.91 27005.2 -30013 -1981.88 7000 -21999.8 19984.7 
1002.36 21487.5 -20981.6 -20492.4 -26990.8 2012.94 27997.8 -29002.3 18494.8 23003.7 -2502.03 -16514.3 -5498.63 996.484 8031.8 17000.4 25000.1 -21002.1 -5434.81 -26462 -27539.5 -20.1146 19494.6 -492.064 16996 -5001.9 20.0715 20488.2 -16999.7 -1500.42 27508.7 7012.1 -30011.9 -25997.1 -28521.2 21448.2 11004.8 26491 18001.7 6992.83 -17999.8 15003.8 -5997.83 19480.7 1997.19 21510.3 6989.71 -3428.11 21999.6 23996.6 27501.2 23520.8 -27004.1 -25001.8 -4993.81 -2992.6 -1496.82 11447.3 -15512 -2.6884 -15481.6 3007.51 2500.23 10993.6 -23.0142 -2000.67 2513.64 -13485 12499.7 -18998.3 -992.332 -26548.5 15499 12999.5 29503.2 -26000.9 499.917 11041.9 23994 -11988.6 1000.9 27499.4 -13498.9 -14440.9 20998.1 5002.01 -2485.5 23033.6 3.38233 -11017.7 29076.1 11992.6 -512.102 19481.8 28498.5 23493.9 -9006.13 -30015.5 22504.6 14495 27497.5 22987.7 29480.8 5489.19 13001.1 25503.3 -15999 2499.12 -24494.7 22541.9 12474 3499.99 -24001.8 -5485.7 -1500.28 6993.21 17006.9 16982.4 7060.37 4483.12 -29499.7 16434.3 16505.6 2481.69 -1973.22 0.0800981 -2494.51 -7.06319 
20059.8 29951.9 -480.904 -22931.2 20007 26034.8 15493 -10529.5 28477.4 24009.2 15475.5 29913.2 24002.3 4988.62 -15409.1 -2500.49 -21002.2 24002.7 -22923.3 -4933.04 1409.53 15934.3 -2511.63 3517.35 979.689 -28963.8 28025.1 24981.2 28494.1 1498.3 13033.7 -12452.5 -2043.99 -16487.1 -13540.5 25879.7 27494.7 -22033.3 -19504.9 -5521.3 22999.5 -23998.7 -2973.29 26427.9 9015.78 -19541.2 13988.1 -27409.9 20001.9 27996.7 7.45129 30014.8 15492.8 -26508.1 1479.14 16523.9 24502.2 -1556.82 -30012.3 3478.55 17565.4 -1972.65 -11001.2 -8041.95 3429.74 29505.2 -21965 10050.2 -18999.7 -19995.4 2521.4 866.614 11535.8 16480.9 25955 19971.9 -25513.7 4051.77 -14030.3 14006.1 25999.8 -27491.9 -3996.66 -22331.8 -16965.3 -1491.16 -971.655 -17964.1 18010.5 27475.2 -27417.7 -1037.09 -21011 22497.6 -489.264 -29985.9 15983.5 -1000.16 -18979.6 -12.5728 -7.66206 -9004.53 1978.85 -3068.67 -12001 -17019.8 -21498.4 -5000.69 9015.35 24047 18990 16499.9 -17501.5 13515.8 -29502.3 -1992.24 3011.8 27481.4 8615.3 -22031 15479.7 -9103.43 9005.16 5502.17 27045.6 8500.49 -1526.18 2035.4 
22200.9 -18096.9 -11824.1 -6737.48 -10954.8 22158.5 18740.5 -3094.54 -21524.1 15.2989 -17054.6 -18645.6 16953.6 20098.4 -13896.2 25981.2 15973.6 -9516.76 624.339 17069 -30323.5 1142.68 -14516.4 20601 -19039 27751.6 -4804.54 16432.2 -13519 -15978.1 7781.13 189.23 21424.2 9542.68 -4695.02 -4290.25 17856.3 21884.5 7456.6 -1878.15 -20018.6 11489.5 22602.9 -18675.9 -1975.1 -8940.5 -2529.2 -5953.68 -1948.49 9048.56 -16943.8 -11443 4378.53 -6762.59 -1097.86 -7461.41 -9020.38 24999.3 -18968 -3114.19 29811.8 20663.9 42.404 -29071.7 13753.9 -27481.3 -1291.89 1686.38 -5627.21 -519 9117.96 9723.64 30028.5 14459.1 -28615.2 13320.5 9480.8 676.785 -25639.1 -20408.5 -4998.97 -25564.8 -25452.2 -75.9187 -22444.3 17527.2 18082.9 -13515.3 -4489.48 -18112.7 13240.8 15430.8 24746 19030.2 -18991.2 -4409.46 27473.1 -9442.21 -12975.4 22902.7 23245.5 -14337.5 6165.34 18361.6 5002.93 19907.2 -17981.9 -25036.3 18804.5 -10748.3 -13484.1 18978.7 -29997 82.3412 26478.5 16564.4 -8065.6 25486.9 -11031.9 23448.5 -25509.7 -25680.5 10297.6 -26996.3 4194.7 -16492.3 19975.1 17569.2 
-15356.7 10938.8 -13325.5 -29312.8 -27454 -2362.94 16243.6 2932.6 494.115 23007.6 7469.04 -25572.3 -6049.86 25612.1 46.0668 -20015 -3023.98 -20520.9 7611.53 -4959.11 10733.3 5189.92 10989 -18909 -17519 -2287.75 22191.3 16442.9 -14513 -10970.8 -22249.7 16152.9 -15544 10031 -179.308 21277.5 -21133.3 -2086.67 -21036.9 -373.221 -518.199 -14507.8 5077.34 -1119.07 -8490.28 10610.3 5472.39 -28468.5 -1948.28 -10948.4 14556 -15436.7 -25620.3 -24757.7 5426.92 8017.59 8977.46 -2495.46 35.1028 1906.12 12259.6 638.918 4045.27 10464.6 306.494 11013.5 9690.62 18647.6 -127.432 6474.95 -21394.4 27308.8 28493.7 18476.5 -23568.9 -2655.34 -1504.6 -3331.41 17887.9 27093.6 22000.4 7927.17 -6955.33 311.661 -27480.2 21.8513 -24929.7 -12016.9 -12500.9 -14097.8 -4764.53 -4039.39 21745.2 14022.2 -14002.3 -2428.92 -20016.7 -15456.4 -14490.3 -7586.9 27248.8 27657.6 -22334.7 14915.9 -4494.85 -14070 12516.9 23963.4 -2704.65 13240.9 499.45 28478.7 -27995 18580.7 -13018.1 -24446.4 6928.43 6984.1 -10599.5 -22534 -10989.7 24357 2298.08 10488.3 5168.71 26506.6 24501.5 19018.2 
-28380 -20054 12584.3 -4814.59 4059.46 -3401.65 17880.9 2448.37 -14005.7 18505.9 28970 15932.4 -12054.8 21534.2 -11473.4 29480.8 -2023.31 23484.8 5091.89 -27630.6 13753.5 -201.692 -512.619 -16424.4 19482.1 -21311.9 -18366.7 19959.6 19499 11030.4 -10322.8 7605.68 -11038.7 18029.6 13475 -17189.8 -10131.1 -29527.5 1002.88 -13246.2 6995.27 1494.69 13514.6 18377.4 1498.8 1630.04 25470.4 -5463.85 10511.5 -5994.8 -154.125 -22928 27379.7 -10556.7 -16549.5 20524.1 978.232 -2340.66 -12951.4 -18512.1 11251.9 29568.8 -29977.4 -526.126 -10614.9 -8994.47 -10811.1 29104.5 -12001 -1529.09 -925.793 12857.7 -22003.6 7977.07 12939 866.408 -27506.1 681.658 -2096.78 -24510.9 -17997.4 -8045.89 2544.37 -309.125 11522.6 15025.2 -12951 -16437.6 -16507 19917.9 13732.7 -29026.2 -22588.7 23978.2 8972.5 13068.3 -20514.5 -19468.1 -1990.04 2924.1 15354.9 5605.07 23791.6 -13491.7 -17493.4 1950.93 17012.4 29465 3141.05 9223.85 -6009.51 15479.7 -17974.7 -2471.99 -21.9235 -10444 15466.4 28976.9 5841.87 -20028.6 21010.1 19378.7 -27525.8 -12018.7 4151.99 -1493.47 -10498.9 -9489.79 
10629.2 17454.6 1085.12 -20814.1 -19441.6 -419.446 3381.04 29925.6 -11001.2 26504.4 -14494 -22051.5 -16061.9 -16467.3 -954.521 -980.462 -7026.79 -4505.47 12608.9 3364.44 8801.05 3871.67 -6512.29 -10964.9 17498.1 9211.93 4127.43 9443.98 999.982 25579.7 -6909.85 -12409.5 -532.392 5502.34 19548.9 17806.9 -5132.1 -6507.06 -3511.81 1255.72 -5505.78 16508 500.729 22940.3 4498.25 -28755.2 -13026.2 -25976.4 21497.9 -10003.8 -161.006 2580.32 7393.33 -10055.8 -3021.18 -8997.06 1010.99 14677.6 510.833 24996.4 13197.4 7059.6 14529.1 -6020.42 9447.79 -8990.63 1682.64 21101.1 5994.42 -20041.2 -15934.7 -5578.91 -13991.3 3975.58 -9526.3 -1587.53 -7.90257 -27280.9 8465.42 28485 13000.2 14983.8 -22963.1 19508.8 7493.25 -16957.9 14553.2 21560 -1516.46 22483.5 -8732.25 -11505.8 16384.4 4475.63 29497.3 -7980.2 -5504.91 9005.72 14493.8 -8510.85 20380.7 -9865.92 -16703.9 -20.6116 13501.1 18981.8 -18992.4 -10036.8 15117.6 -23290.8 -1501.02 4987.78 -27488.2 -25976.1 -30000.3 17005.6 -18515.6 5480.86 3233.61 9998.64 -10985.2 15371 -16528.3 27968.9 10645.6 -9999.78 27502.8 506.361 
1534.56 4472.8 -24487.6 13516.8 -2484.61 10986.3 30004.5 -2504.92 8997.92 6511.37 -23507.6 -22504.8 1494.26 -21524.5 -27476.9 15513.1 22505.4 -16537.9 11016.8 -10920.6 -3003.89 -15000.6 -25519.5 -26982.2 2490.52 29518.1 -13512.5 1484.87 4008.07 5488.33 -20970.8 2505.39 5490.98 11510.1 -3555.57 -513.788 -7528.22 3497.43 22979.1 -25528.2 18460 -22509.4 -18026.7 7993.45 -17490.2 5503.83 -27505 -27514.8 17982.9 27502.9 -28973.2 16987.3 -25515.2 -23006.5 10492.7 20011.2 -999.156 -517.786 -17005.1 -11025.3 13025.6 -8994.78 -5000.81 -28509.2 25992.6 3001.01 13078.3 20519.7 -6998.7 25985.6 -27512.4 -16530 -2989.38 8492.6 -9014.89 -11999.2 -17999.4 21547.6 8488.89 -11002.2 -29491.6 3477.66 18006.7 22008.3 24489.1 21997.1 4036.14 16523.3 28518.7 -2511.4 25520.4 999.751 -22022 -17506 23006.7 -26995.5 10496.2 15008.6 23982.8 24995 -22003.9 22997.9 23493 -21494.5 -22495.2 -28500.4 -20490.9 -25500.5 -9986.13 13509.6 992.564 25491.5 -5517.51 -10997.9 5974.33 10995.7 28491.6 -1998.06 1514.47 -15003.6 -2007.88 -28.7121 -30008.1 1498.72 19536.7 24000 18004.4 27988.8 
-20462 -20025.8 21009.7 6518.63 -5483.45 3990.92 7498.14 -10005.7 3997.06 7511.87 -2014.1 19994.6 25498.2 -21529.2 -14978.1 -20487.5 -18494.2 29455.7 7015.61 -12902.8 -10010 11982 13481.9 22532 16492 -27982.5 -16515 13979.3 -8491.8 24473.9 7530.67 26507.1 -7008.89 19509.3 -23058.8 478.027 -24027 -2.43842 -15511.5 17951.7 -1550.78 -10.5915 22466.3 -20519.1 30020.2 -4999.21 -17505.2 -7002.05 16481.4 1513.09 -5472.17 -17.6651 15979.1 -507.261 9993.99 -24006 27503.7 -13028.3 -27503.9 28454.3 7526.22 -1995.65 -26999.5 -2015.86 -14506.8 -29997.9 -12894 11026.9 19504.1 23984.6 -29524.1 -34.03 7.94539 23455.1 20486.9 11503.4 4500.28 -452.079 -25506.3 27497.4 22505.9 -6531.89 26506.1 2013.19 -17511.7 -4506.73 42.1087 17548.1 24524.6 -1004.62 8518.3 -9999.88 27969.2 -11003.1 4014.43 -1997.43 10002.8 15007.7 -15012.2 -8005.85 -18505.9 23002.7 -26016.7 -16500.1 23004.3 10998.2 -14987.9 -19999 -8982.27 -24492.8 26492.2 7490.62 -16519.8 7003.8 11473.8 7497.4 27492.6 22499.6 -20486.1 27991.5 10992.5 -12038.1 1494.53 10006.3 -455.477 -26999.9 -3993.88 17988.9 
26030.3 12973.6 -16490.3 27018.6 16516.6 1991.02 14498.1 -5505.73 8496.36 -29487.6 -23514.1 23494.6 -6501.66 5470.36 5521.48 16012.5 23504.8 -25044.3 3516.01 19597 -3510 -6517.99 19482.1 2032.38 -23506.5 -27482 10985 -17520.7 3507.9 20473.5 30.7721 6006.86 -21008.9 -6490.55 -7558.65 7978.03 -23526.6 -23002.4 10988.5 3451.72 24448.8 -3510.49 29966.3 -15019.1 7020.18 -18999.2 994.47 -26002 16481.4 14513.1 22027.8 -4517.67 17979.1 1492.74 -15505.5 -25005.5 -25496.3 -26527 5496.12 -15045.7 19026.2 -7995.65 16500.2 21983.7 -18506.2 2502.06 -11394.2 26026.9 12003.6 -1515.36 -26023.6 -17534 5507.85 21455.1 27486.9 27003.4 24000.3 3547.92 5993.72 -502.587 -5493.87 25467.9 24006.1 1513.19 -12011.7 8493.27 -8957.69 23548.1 6524.86 6995.38 -24481.5 -17500 -18530.8 -503.54 2514.63 23502.2 -4497.03 7.74419 -23511.8 2493.95 -15005.9 -26496.9 22483.3 17999.9 -3495.1 -5001.75 19511.3 28500.5 20516.9 -19492.8 -2007.77 28990.7 -30019.8 -2496.2 -14525.9 -23502.1 -16507.4 23499.6 20013.9 27491 1992.48 24961.4 -21005.5 16006.3 -6955.48 18500.1 25506.1 -21010.7 
4000.03 -17498.9 -25998.5 4501.29 9003.15 -24496.6 18996.2 -22001 19998.2 -20500.3 -21001.8 -1501.11 -12497.2 10496.4 -9499.45 -13498.9 -29500.5 -8008.5 16501.5 20.5669 19494.8 -11517.4 -27501.5 7514.44 -6500.23 16496.9 -10500.1 -15506.3 -14999.5 -25015.3 6999.38 -22998.7 5498.04 -15999.4 23495.3 -508.621 3501.75 -10999.8 -26490 -8019.45 10988.7 12498.4 -507.336 2485.67 -13489.4 29000.7 27500.1 -16488.1 28498 2010.29 -11999.6 -22999.8 -15009.7 5499.63 5498.22 13987.1 15503.8 -21009.4 26998.7 -12020.6 30002 4498.45 -9499.27 -4506.76 -2001.15 -22498.4 22028.3 -25491.3 -28497.2 -15502 -18511.8 12991.2 16498.5 10462.8 -7001.27 -26498.3 -4999.95 -24495.7 -27498.8 8001.22 13000.4 15991.8 -1500.99 2506.22 -28000 5000.34 -7988.79 -25971.5 -29995.1 -29996.8 15501.1 -17999.7 22490.2 -4000.53 -1491.77 -29501.5 -2993.58 2499.46 -15995.7 -1501.64 -10001.4 -25497.2 -3007.69 -5506.53 -29999.5 12999.1 17003.4 16999.3 1502.58 11002 21999.6 15499.2 15997.4 15501.4 7499.19 -15999.1 5501.24 8998.12 5500.46 -5504.94 22000.5 8484.35 3.12536 1508.8 -16992 -1500.01 -6997.89 -0.239944 
0 18000 7500 20500 -20500 5500 26500 -16500 26499.5 -21499.7 24500 12999.8 -15000 25500 20999.6 28499.5 23999.6 26000 -500 -21999.6 14500 17000 -19500 -2500 -27998 19500 18000 -9999.8 -2000 -9000 -8000 -8499.8 3000.5 -19999.6 12500 23500 6500 3500 -2000 9000 -17999.1 -17499.7 -19499.6 24500 -12000 -26999.5 4000 -28000 18499.7 -5000 5499.9 28000 15000 5499.9 10499.8 -15500.2 -29500 18999.7 11500 9999.8 19000 14999.7 500 -27500 0 2999.9 2500 -26000 6500 -24500 -27000 -1000 9499.8 24500 18500 -7999.8 -13500 -5500 500 -10500 -16999.9 -17999.7 6500 -3500 20999.6 -22000 14000 -20000.4 -21999.2 -27499.5 -13000 -2999.9 -18500 -24999.5 -14500 -26000 12000 -17500 30000 -28000 1000 17499.7 500 5000 18000 -5000 -3999.9 -21500 2500 -1000 27500 25000 23499.2 -21500 -21999.6 -13000 3000 20000 -15000 9000 26500 -24499.6 500 11000 -30000 -1500 -28000 29500 
-22997.6 18999.7 -27999.5 13000 3000 -1500 7000 16500 -12500 -2500 18499.7 10500 11000 -2000 9499.8 1000 -17999.4 -16499.7 -20999.6 500 -2500 -15499.7 1500 -29499.5 2000 -11000 1000 -2500 -13999.7 -21999.6 -2000 13999.7 0 -4000 15999.7 -14500 12499.8 -5499.9 -8000 -19500 27998 20500 -3000 6999.9 23000 -28000 24500 -7999.9 29999.5 -24500 -8000 23500 18000 14999.4 -23499.6 27500 -3499.9 8000 11000 -5000 11500 -9500 0 13499.8 -25498.5 28000 1000 -11000 -13500 6500 -6500 3500 21499.6 14000 18000 7500 -16499.1 0 20000 26499.5 23000 16500 25000 -25000 5999.9 22000 2000 -27500 -18999.2 10000 11000 20500 2500 9500 23000 21500 15999.7 -18999.4 22000 1500 -16000 24000 -3000 0 -1000 4499.8 -22500 -26999.5 4500 -14500 -11000 8000 12500 -7000 1000 15500 -25000 30000 -10500 1500 -4500 -6499.9 -5500 -15000 -25000 5499.8 -1000 5500 
-999.6 -500 -28000 29000 -17999.7 -21999.6 11000 9000 -8500 -23500 -7000 1000 8500 -27999 -5500 4499.9 16499.4 -7500 -28500 24500 -7499.8 22000 3500 -28500 27999.5 0 2000 -7000 25500 -16500 -16500 18500 -13499.6 -29500 500 -2000 11000 -29499.5 -500 -11000 -18499.6 0 22000 -22000 -20500 29500 7999.9 -16500 19000 27500 1500 15500 -28999.5 29000 -20999.6 22499.6 5499.7 1000 0 1000 22500 13000 -24500 1500 16000 -2500 -1000 -12000 8500 15000 -3000 0 3500 26000 -26500 -6000 28500 6000 0 -10000 -22999.6 6500 1500 4999.9 23000 -8000 -16000 -30000 -10999.6 500 -5000 19999.2 -23000 6500 14000 2000 -7500 -22000 27500 -12500 27500 0 1500 -10500 11000 -12500 -2999.9 -19499.6 4500 14499.4 -21999.6 18500 23999.6 1000 -3000 1000 5000 16999.4 10499.6 -21500 4499.9 -9000 -26499.5 20500 1500 -6000 2000 -21000 
18499.1 8500 5500 -27000 2000 -30000 23500 7500 -16499.7 1500 16499.7 24999.5 -19000 1000 5500 -2500 -23998.8 15000 -26000 -10000 -10499.8 -17000 -16500 -2500 2000 19000 -15000 -14000 2500 -7500 -22999.6 -22499.6 -27500 -1500 -26000 -10000 18500 21000 -29000 1500 12000 17000 5500 -26500 -7000 -18500 16000 -25000 5999.9 -1500 500 -11000 16500 29500 26500 -21500 -16499.1 -26500 24999.5 -11999.8 -9500 -4999.9 -500 -4000 29998.5 21000 -500 -30000 -15000 -9999.8 -6499.9 -7500 -11999.8 27499.5 -1500 -15500 11500 24000 4000 17500 7999.9 -4500 0 -17499.4 -25000 -2500 -30000 19500 18999.7 -1000 12500 17500 6000 15499.7 12499.8 -5999.9 -8999 -10499.8 -21999.6 18000 25500 23999.6 -27000 1000 21500.1 14499.7 23500 24999.5 -4999.9 -18000 -28000 14000 22000 -29000 -26999.5 20499.9 25000 5499.9 16499.7 22000 -29000 5999.9 5000.1 -13000 -20499.6 7500 1500 -20500 
-24996.5 -26000 -15000 -27500 -18499.7 1000 21000 6499.9 -8999.8 -29999.5 14999.7 28500 2000 7000 -3000 17000 29999.5 -6000 1000 23999.6 -3000 11500 -1500 -17999.7 14999.7 -7000 24499.6 -3499.9 -18499.7 20499.6 29000 2000 0 9000 -23999.6 17500 19000 10000 20500 -5500 -2500 -20000 2000 -9000 27000 25499.9 -8500 -14000 17499.4 28000 -25500 -12999.8 18500 3500 27499.5 11000 2000 17499.7 17999.7 3999.9 -26000 29000 5500 -16000 -21500 -20000 -22000 -17499.4 25500 -29000 -14000 -6499.9 -10499.8 6500 21000 4500 -5500 24999.5 -5500 -12000 1000 7999.9 -13500 -6500 -2500 -3500 10000 3499.9 22999.6 -27499.5 -16499.7 18499.7 22000 10000 27000 -25499.5 12499.2 -4000 -17500 -21500 9500 7500 2500 -9500 -16499.7 -10500 14000 21000 29000 -25999.5 -20500 3999.9 2000 13499.8 23499.6 -15999.7 -25000 4500 -26500 -15500 -4999.8 16999.9 8500 28999.5 2000 1000 0 28999.5 
-24496.8 24999 -16500 -500 -4499.9 -500 12500 20000 0 -17999.7 -16500 -18500 -27499.5 13000 11999.8 -24499.6 -21999.2 -28999 -13499.8 4000 0 -25500 27499.5 10999.8 -11999.8 -29500 -21000 -24000 500 23500 27000 17000 8500.3 17500 14500 -29500 10000 -2000 -8000 4000 -1500 5999.9 -2000 28499.5 17499.4 6500 -18999.7 -28499.5 22999.6 21999.6 12999.8 17000 -11000 20499.9 -9500 2000 -1000 2500 5499.9 -22000 -27000 -6500 -14000 24500 -24500 27499.5 2500 -26999.5 22000 18500 -5500 -11000 -25999.5 -5499.9 -12500 -14999.7 -23000 -500 -4000 25000 14999.1 500 -3999.9 15000 -17499.7 1000 1000 22000 16000 18000 17499.1 14000 -14999.7 2000 -3500 11500 28498.5 11000 -500 -2500 -2000 -15499.7 -4500 -27500 5499.9 16499.7 -25000 14500 9000 4000 1500 3499.9 1500 14499.7 1500 -13000 25999.5 -4999.9 -15500 26999.5 15999.4 2500 12000 -3999.9 1000 2500 -22000 29000 
24498.4 -12499.6 3999.9 -22999.6 19500 16500 -2000 -16500 6999.8 -3000 -8500 -16000 4000 29500 24500 26999.5 3499.9 3500 -15999.4 -29500 14000 10000 16500 0 -18999.7 2500 15499.7 22000 -2000 15000 -2500 16500 -29500 8000 0 -9000 -13000 -7499.9 25000 26500 29499 -23999.6 -25499.5 23000 -25499.5 -28000 -28000 -17000 -2000 -15000 -11000 2500 0 23500 -8499.8 -12000 -13000 14000 21999.6 22000 -14000 -13500 8000 12000 4500.2 26500 -12499.5 -10000 1000 -1500 -4000 -7000 -11000 -10000 -19999.6 -1000 24500 -28500 24000 500 -8499.6 -8500 -5500 -17000 -1500 -13500 -13999.7 -11500 -28499.8 -30000 -8500 21500 5500 -8000 2000 -2500 -11499.4 21500 19000 30000 27500 -26500 16500 27000 -24499.2 -15500 -19500 -27500 -12999.8 -27000 3000 27999.5 13500 0 18500 26499.5 5500 -25000 20500 18000 -29999 -15500 22000 -24000 -16500 17500 500 -22499.6 
23494.1 2500 5000.1 1500 -11500 -2499.5 12999.6 0 22499.6 -30000 12999.2 15500.2 11000 -499.9 -2000 -10999.8 -10499.9 -25500 25500 -17500 -1000 -12500 -11500 5999.8 -2999.7 10500 21500 13500 4999.9 22500 -14500 -22000 -27999 -1000 15500 28500 -8000 27500 -1500 -500 -16499.4 22000 22000 1000 26000 18000 -10000 -27499.5 21499.2 -23500 29500 4499.9 11000 11000 -1000 17000 11999.8 -18999.7 13499.6 7999.9 -15000 -2000 -27499.5 -27500 29499.5 0 -2000 22500 26000 -3500 -30000 9500 2000 1000 12499.8 23500 17000 -22499.6 500 6999.9 5500 2000 1500 -5500 25500 4499.8 -12999.6 -15500 -21999.2 -5499.9 -16000 12500 -1500 -14000 -6500 -26500 0 25500 11500 -27500 17000 1000 -21000 -5500 2500 8500 -6000 -11000 -22000 -4500.2 2499.5 7999.5 22500 -27000 -28499.3 22999.6 -27500 -1500 9500 -18499.7 -19498.8 17499.7 2500 25000 -16500 -28000 16499.7 -13500 
-28995.2 27499 -15500 -3500 29999 -20000 -1500 -23000 21999.2 -16500 -1500 -15000 -14499.7 -18500 25999.5 17500 5499.7 27500 2500 15000 -30000 7000 -12500 13500 23999.6 -10000 -28999.5 3999.9 2000 22000 -10999.6 -1500 23499.7 21499.7 -12499.7 -29500 -18499.7 -18500 25000 24000 2499.5 -15000 16500 -26000 22500 17000 5500 -26499.5 19499.3 -17500 -5000 999.8 -12999.8 11000 25499 -4999.9 0 -10999.8 -12499.7 -11000 -9499.8 -28500 -5000 -3500 -17499.5 11000 21500 14500 -15999.1 -17000 0 24499.6 17999.7 -24000 7500 0 10999.8 -25500.4 -2000 -12000 2500 22999.6 -23000 28000 12500 1999.6 21000 -21000 -2999.7 21499.6 27500 10999.8 6000 -10499.8 500 -18000 28500 8000 -7000 20000 -10999.8 21999.6 29500 27000 11000 -17499.7 11500 26500 12500 26500 8499.8 16499.7 22498.8 -12999.6 0 14999.7 15500.2 -11000 -27499.5 19999.6 19499.2 12499.8 16000 -5499.9 27500 26999.5 -18500 25500 
-5498.78 -5499.8 29999.5 -24999 -5499.86 4000.42 22999.8 -27500 3499.9 -22000 -11999.6 -17500 -9500 -24499.9 -7499.75 -11000 -8498.99 28999.9 -999.936 -7999.88 -12000 -21000 -5500.02 -4499.99 28000 -0.00124303 3499.96 25000 14500 -29500 -27499.9 29499 18499.7 -27499.5 -15000.1 11999.6 -19999.6 0.0171839 -12500 499.997 19500 22999.6 2000 -8500 -9000.05 -2500.08 26500 -25000.5 -500 24500 500.03 -17999.4 22499.6 9499.99 -26500 14499.9 -22999.6 25499.8 -20000 21000 -19500 26999.5 6000 22000 -22999.2 -18500 -15500.1 26000 -499.899 -20000 -1500 15999.9 23500 999.997 -30000 -10500 -29500 2000.04 -27500 29500 14999.9 -22000.1 6500 -20499.6 -14500.1 29000.1 3999.9 -13999.7 -20999.4 12500.1 -21998.7 5500 -17500 -27500 3000 23000 29999 12999.6 -8499.62 -25499 -0.0388457 -19999.9 1999.99 10999.8 -27499 13500 24500 19999.6 4000.08 -5499.86 25999.5 14999.7 12999.8 -25500 -28000 2499.99 7500 -20000 4500.03 -10500 -24498.8 14999 18500 0.0132365 17499.8 -24000 25000 16500 
21995.2 5499.9 18500.1 -24000 22000.4 2000.41 -500.263 22000 -5999.94 0.127008 -499.949 11999.8 -18000 -20499.4 -26500 16000.1 -6999.92 -27000.1 1000.21 -15499.3 -16500.1 14500 28999.5 -15499.7 -2000.02 18000.1 -13000 27499 -5000 -5499.91 -23499.5 14999.8 -7000.06 500.012 1499.22 -0.652748 -19500 10000.2 26999.5 -0.0169567 -11000 -4000 2000.02 28000 -23999.7 999.687 21999.6 -28499.8 -1500.01 5000.02 11500.1 -21500 11499.9 28999.9 -9499.99 18499.9 0.0267378 -2500.19 -5500.02 -14000 2000.12 -8999.98 -12999.8 13000 22000 18499.7 -3499.03 14500.1 -10000 4000.04 0.00189443 20499.8 11499.8 -10999.8 4499.99 19499.9 -17000 23500 -30000 -22000 12000 499.534 14000.1 -21000 -9000.02 -9499.59 -3499.97 6000 7999.3 -11999.6 25001 -15500.2 24499.6 -14500 -499.897 10500 1999.96 1499.76 -4500.07 7499.96 -27000 -3499.58 28499.5 -20500 15999.7 5500.01 -28000 25000.1 -7499.81 25500.2 -8999.81 22000 7499.76 19500.1 -6999.9 -17499.8 -4499.9 -1500.04 15500.1 -499.995 24499.6 -29999.6 29499.5 -27000 23000.1 -23500 -6499.92 -11000 
0.00377173 -9999.8 -28499.9 19500 23000.3 -22499.7 22999.9 15500 -500.043 -999.873 18500 9499.79 15500 18500.1 23499.6 1500.05 12000 17999.7 25000.1 6000.22 24499.4 -1500 19499.6 -22499.5 15999.6 -27499.4 24999.5 11999.6 8999.4 -0.0105061 10500 -10999.7 -0.0648215 -10999.6 4999.31 25499.5 -4500 9000 -12999.8 25000 15999.7 -21999.6 -16500 11500 21000 -0.234604 14500 -6499.71 -0.00767049 0.018871 -2999.97 4000 -12500.1 18499.6 8500 -12500 26499 -1500.01 -18000 27500 -8999.47 -20500 -11999.6 -13999.7 27999.5 -21500 5000.8 -1499.84 -5499.93 29500 -2500 -8500.11 25499 -17500 26999.5 10999.6 22999.6 29500.4 27500 25998.5 -11499.2 -1500.37 2000.07 0.00972428 -6000.02 14500.1 -22000 23000 19998.8 -25999.4 -22499.7 -27000.2 -27499.2 8999.8 12000 -15999.7 -28999.5 -28000.2 21999.9 -11000 -18500 29499.9 -22000 24000 -29999.5 -15999.7 1500 -22499.9 28500 27500.2 -24000 -0.00383245 3499.7 16499.9 -1500 -0.0615626 16500 -1500 -21499.2 23500 2499.98 -0.198515 -1500.02 5500.01 2000.05 28500 -16499.6 -22998.8 
-11060.6 -11030.5 24900 -982.545 -5967.57 -16547.5 -1462.56 17542.1 -27522.8 -22163.4 -4999.37 1770.63 984.379 24459.8 845.07 15040.6 -22505.4 17537 29498.8 -4279.64 16505 5814.6 -17495.3 -6553.6 -25.7878 -16346.8 -26022.7 20151.6 -26998.6 -16926.9 7978.79 -13065.3 8551.43 -5483.08 19890.3 -22049.9 19042.5 -18557.8 27721.3 -17571.8 -7940.04 21506.6 10973.1 25951.7 7121.98 -22814.7 18497.2 -25992.2 8978.16 -12998.5 16124.4 20004.6 22469.1 26778.7 4495.47 13473.1 -16501.7 -28879.3 -16008.9 -6.01808 -25440.3 12704.8 19506.8 -24893.5 -27999.2 -13505.9 -6554.7 1945.68 25491.7 -2618.64 1925.62 -27936.7 -23969.5 -14007.8 -15493.2 -11469.8 5499.91 -22535.9 2495.57 -24487.1 17494.6 -22970.8 21518.3 19517.8 -1030.19 -27508.8 -1538.54 27548.9 14994.1 4952.19 9782.52 -13598.2 2773.01 -1148.19 -7494.59 -18498.7 -16481.9 -16519.5 26594 12977.5 33.2824 -27575.2 5437.61 -2219.82 12914.6 -1999.85 -14001.9 -7994.19 5508.15 -5195.67 -27541.3 13503.3 25000.1 3489.38 -24504.5 2641.37 16993.3 -10017.2 -10418.9 -16395.1 -11535.9 25613.2 321.73 -10988.6 11018.1 -14499.1 17999.9 14521.8 
27483.7 5455.19 28387.1 3007.49 27979.8 -1589.17 -19827.8 18.5593 -28523 10864.3 7500.88 20324.5 -26023.2 5477.67 22367.7 -981.549 18020.4 -14461.5 -11993.1 -26731 24499.3 -15685.6 -27016.2 9947.23 -27016.5 1710.25 1000.98 4720.3 9995.56 -15920.5 20966.5 16924.6 19046.3 -29973.1 -14606.1 19971.9 12540.2 -29639.3 -23784.1 15937.1 -15471.4 -17486.8 17473.4 -13536.3 -3804.55 12183.2 1997.33 -27462.6 -2017.5 -24995.8 567.068 -20993.9 -406.179 27259.8 -5475.26 -18.6162 6483.48 9092.74 -11007.7 27009.5 -15417.1 -14280.5 -21990.6 30116.4 -3000.11 3993.4 -30103.4 11447.8 -10507.5 -26620.2 -23531.5 -13392.7 -12465.4 -14013.1 -21474.4 15566.4 -1500.15 -6020.88 -74.4772 6967.31 -24007 96.3587 28995.5 -24530.8 25064.5 23533.8 26969 -1458.58 -29554.2 -29449.9 -27698.9 -23602.2 -22729.7 27867.4 -22002.4 11500.4 23011.8 -21513.9 71.4801 28470.4 -12481.4 1898.85 -19969.4 -5750.36 -85.6016 -18002.3 9496.78 -1488.88 -28988.6 26808.8 1953.31 -10992.2 26065.7 -9521.39 14492.7 27149.5 -5100.04 -25602.6 4575.81 16607.2 22468.1 -1847.75 -22110.7 8007.6 16554.3 11498.9 -20001.2 3974.19 
30048.3 -4598.22 -15957.6 5530.32 -13443.2 21973.6 -7815.36 -28522.6 -2532.54 14365.5 13900.3 8760.8 -12183.5 -23056.8 -7541.27 18546.4 13.9565 7023.12 -8571.28 22916.3 -27581.3 19354.9 12471.9 25952 -3543.89 -586.438 -25448.8 -25748 -9502.39 20594.4 16471.3 -39.6036 -8934.98 -971.667 -2185.76 14794.4 21099.2 3334.1 25791.4 18664.8 22027.7 22432.5 -2024.58 -2144.46 26744.8 9664.76 -29070.9 -6508.42 -24518.2 -11984.3 10497.2 -29959.3 -24454.2 -15829.8 -3473.86 -23992.1 -18513.8 12102 -10511.4 -29493.3 18714 4296.89 1009.92 8608.96 12504.3 -27007.1 17553.8 5473.67 -1506.69 2596.64 -9997.36 -27020.9 -6862.52 -29170.5 11014.5 18051.6 -28999.9 -22006.9 2397.54 -9546.17 6988.05 11086.2 14492.1 11174.4 176.995 -25972 87.1368 -12145.9 -20582.1 -19978 10329.7 -16108.6 19273 26874.4 -29996.6 161.366 2663.18 -3510.38 -4892.97 -11236.4 14447.1 22970.2 16434.2 25578.6 1412.03 10977.9 22522.1 -489.284 -13436.1 18825.5 21951.9 -11000.6 25067.9 -5509.97 -27508.4 -19141.5 13899.2 -30120.8 15809.4 7221.28 28784.8 -1356.5 -15775.9 -14458.4 16600.4 -22001 962.423 -235.818 
-1210.19 -2009.04 3223.98 22684.2 2168.7 27067.9 -27277.2 -211.739 16942.5 28397.8 -18669.5 710.497 9481.51 -30129.5 -6899.37 -21811.9 3942.33 9530.17 -26554.6 -1254.67 -22917.5 -31100.4 -138.027 5297.89 -2566.83 -9312.94 1050.17 -16724.9 -29510.3 12439.4 -10361.5 -10482 -23539.1 11561.1 -27974.3 -4394.61 14117.6 -255.934 -23558.7 -952.045 -9540.31 -27087.2 -22964.7 16183.9 5793.78 -10486.7 -3088.93 -16943.1 -19041.3 7602.91 -28272.3 -20216.2 11959 -3517.11 -1500.01 19048.8 -5510.26 8046.82 -2566.28 -22038.8 29139.3 -464.951 22460.3 -23637.9 10434 4995.6 -3009.72 -17009.1 -6023.78 21238.7 -24307 13570 -17359.1 -28326.8 -23629.3 -19074.9 -27508.9 26199.4 -27927.6 27574.6 -10032.4 -22548.3 13986.8 -484.812 -15564.3 50.3076 -19204.2 -27829 -5554.19 10473.1 -21490.2 -14730.4 -950.275 22388 -2405.21 -26677.6 -5166.41 -25877.1 -12497.1 10551.6 27411.5 1059.65 -809.985 -4465.22 25925.1 -16586.9 -25954.8 4000.58 12093 -20415.3 18619.4 1485.23 3566.42 37.5745 -1011.82 -17886.7 28921.7 -8186.97 -9234.54 -7855 -18477.5 -29956.4 -17274 -10812.5 17799.5 -2002.71 22434 -11095.3 
-20206.4 -13114.1 3897.17 590.669 -14444 2153.09 -29765.6 -2077.52 5681.18 18426.6 -12659.4 -1398.92 16444.3 -13100 4616.74 15730.2 927.428 -24297.8 -30035.4 -11626.8 -17416.8 -11804.2 -27603.2 13358.9 14422.2 -18202.6 2674.85 -12207.7 24380.1 7596.13 -30058.6 -29629.4 -18470 18529.5 22175.6 -1931.97 4074.66 -12201.7 -28911.3 21531.7 9398.12 -1140.94 -14484.2 8809.26 -9673.43 23490.8 -24845.5 -18385.5 -25048.5 12482.9 8144.08 28054.8 -272.044 -13214.3 -1549.58 -18953.1 28949.2 -10597.3 -10122.7 27841.9 11671.1 -11360 -14776.4 -7536.22 -17533.6 -1701.35 -18509.9 -2492.97 11834.4 24122.3 -21192.5 10078 -12853.8 -21806.3 -22129.6 -3680.59 2499.61 24097.8 15144.5 56.7162 15426.8 9531.45 -21935 -22700.6 -18996.5 25628 3351.62 -1981.74 -11582.3 11974.6 16658.3 -28725.9 -4917.99 18854.8 17602.4 -29752.5 -24103.5 10023.1 -25957.9 -6828.95 22536.1 -4345.11 -6398.63 10446.2 -4560.56 6877.54 -22706 -876.597 -21704.2 20030.5 23151 -22022.5 26509.9 17056.1 -24012.3 -23341.8 -19041.7 -5712.98 3095.74 29747.2 5488.03 10080.1 -27186.8 -1247.91 19346.4 25932.6 -2694.55 5380.94 
12798.4 16433.4 -5676.96 10077.4 27659.3 -24407.6 -25586.3 -7144.67 24176.5 3002.98 22768.2 17773 12215.5 13859 2057.03 -22263.5 27417.1 220.36 -20450.8 8757.08 -487.145 17349.1 -13577.8 -15031.1 -1614.06 30725.3 18095.5 1046.67 -23117.2 26630.5 -16179.1 18198.9 27043 30026.6 28281 -28560.2 26603.4 -1147.33 -495.189 -23955.7 -4493.15 -2732.24 -2125.44 4869.23 1658.87 -12362 13745.3 -4792.24 -15071.8 5402.84 21304.9 -386.989 -23395.5 -2951.95 -14590.4 17038.8 -29045.5 -10743.2 -25720.3 -18797.3 22494.3 26603 6185.07 16475.5 29549.6 -21678.1 27025.3 -1787.1 10895.3 -5110.71 -22733.7 16622.2 29063.9 -13603.1 13594.1 25814.2 3905.78 17424 -6144.95 16469.1 -19581.3 -1370.97 -12959.3 12696.4 -5081.89 -20407.2 17044.5 -7366.7 15542 -13022 24053.8 -2300.1 4352.12 -16785 14647.6 11137.2 11354.5 8563.51 24419.3 20633.6 -147.182 -4384.21 9998.2 23901 -18054.8 -24100.8 -14091.4 -17349.7 -24175.6 85.42 21497.7 -2033.25 5653.57 -2468.51 -17005.2 6546.24 26013 -25627.6 22179.4 -21613 -3508.34 1369.84 -16694.9 -16314.1 12827.3 -27578.3 -39.6766 16360.3 
16718.7 15309 29077.9 5131.4 2696.65 18797 -16983.7 2121.04 27626.5 16216 1211.29 -18051.6 -16788.6 24423.4 12895.1 30265.8 2425.44 9142.56 -12803.1 22011.9 16178.2 -30917.3 11787.8 -18870 5340.81 -4490.81 20248.2 -21303.9 5785.57 166.054 11.3018 -1503.08 11157.5 11023.7 9310.47 26902.9 -19497.9 25292.1 -6280.37 -24995.3 -5699.5 4140.83 27449.7 -11901.4 21681.1 587.359 18637.6 -4703.83 -27592.4 -20108.6 -28701.6 30330.7 -11656.7 -9511.82 27439.2 25713.4 -22460.7 17006.1 -19291.6 10587.3 24888.8 -24838.1 5675.3 10500.4 3534.12 15347.7 16286.5 -21023.5 -16612.9 -24214.9 -8076.38 9465.2 7120.94 -679.432 17893.6 -15784.7 21855.4 24388.5 11698 -13496.8 5423.39 -11012.7 -2994.07 6836.89 23079.5 24518.7 22937.9 19479.6 9505.57 -26127.5 -15240.3 -64.8617 -21906.1 -21108.8 11209.1 10742.2 6023.94 5659.94 3551.75 -22434.4 18329.6 28732.5 -13070.4 -24278.8 20443.7 15711.7 443.045 -11869.4 7462.13 -12510.3 8047.39 -23551.1 3682.6 29574.1 4954.71 75.248 28502.4 -11742.4 5960.95 2902.05 -29629.9 27836.9 -22176.5 2367.65 13853.6 21411.6 9419.84 -23362.2 
-28910.4 -1202.57 28761.9 -17164.1 -1275.08 19824.9 -14482 25532.3 17164.1 2698.07 -9261.26 -6351.58 -17205.4 27488.1 2397.03 -21287.2 3250.04 -10911.4 -15543.3 -536.444 22745.1 -1622.26 17195 1176.16 -20632.1 -13199.7 385.747 -6820.29 -23279.5 26770.3 18769.2 -21790.8 -3942.01 4520.49 -15511.9 -12317.7 -21542.4 -18701.6 4757.24 26223.7 26690.5 1141.6 -20119.6 -29066.3 -1012.95 -1672.17 -2859.11 -5307.26 -25545.2 -18102.2 5778.85 -477.121 21193.7 -1074.96 10960.5 -22757.6 2510.7 12500.5 6649.63 -27472.3 8526.78 19416.3 -7817.19 -2443.22 -1069.57 -17677.1 -3606.75 -13767.3 3814.82 17857.4 -11693.5 -10413.2 12197.7 -20794 -5561.14 -8303.34 -161.062 -3456.15 285.465 25916.3 -21597.8 1972.23 -6433.76 -3678.5 25902.9 -27398.4 -1990.61 23970.3 18433.4 25676.5 29140.7 20936.1 16143.5 -11109.3 -2834.56 -16336.4 -26571.6 27705.9 -882.373 26387.2 27751.2 24134.9 13333.2 19372 -22067.6 -24329.9 -594.234 16607.9 18433.1 11800.8 -24494.9 -11049.5 21644.3 -1256.42 424.001 5970.36 -28466.7 -2756.96 -13067.4 23888.6 6618.56 -21296.4 -19601.7 897.847 -20046.9 -19629.9 -28067.9 -10379 
-25650.5 11570.2 -27994.6 -26133.9 15027.7 -25851 -7624.81 24510.6 -9403.35 19928.6 25942.4 13120.1 -2769.41 1324.61 -2385.31 15702.2 -21245 20530.4 17251.9 1905.87 -16327.3 -27399.8 -30472 -24803.6 -4642.54 -545.46 3614.61 -18415.3 6621.21 -28857 24669.8 -3265.18 -30445.9 -14910.3 -10735.7 13021.7 -26749.3 -30006.5 -12774.5 -17313 -10784.1 6094.63 -22026 -12764 1006.43 -1290.03 4674.69 -16958.2 -25531 -21034.3 -11312.8 -26187.5 -10663 -3134.55 1363.29 11772.1 -2423.17 -5662.61 8838.03 5733.12 5960.98 -20844.6 4235.49 -17016.2 -10347.3 22856.3 7219.27 -13864.9 -22896.2 13515.1 -2537.38 -16529.5 18788.8 20138.4 15637.4 10408.5 -4167.66 -22591.2 1558.52 -21481.4 13952.5 -22218.9 -8950.3 -12011.9 8953.77 9108.43 -17734.5 6814.32 -5037.8 4850.49 -21003.1 15188.7 -16429.1 -17353.2 -24178.9 -26705 1586.22 23789.5 -26391.7 -29363.3 20225.8 1321.74 -25359.9 -17831.3 4292.79 16590.5 -4145.12 23095 -27615.2 14374.6 -2518.36 -20592.9 9314.26 -15747.4 12330.5 -12705 27444.8 -21997.8 -7096.26 -11332.7 -3327.67 -11009.3 -11904.7 25936.9 -20779.1 6400.82 4343.89 16358.7 
11718.8 -24865.5 11842.4 -8369.27 -5558.56 -28194.8 -2990.09 1955.28 -16577.3 -759.686 27181.2 -28303.4 29092.7 -3608.42 26931.1 -14349.4 8248.13 -457.366 17652.7 2367.82 -25125.6 21195.4 -24816.7 341.407 -7249.43 10866.1 -12765.7 -16377.3 -6809.66 2376.34 28242 5679.28 8907.54 -19697.7 -29321.8 -26029.9 -5194.84 20019.1 25407.6 5686.7 -599.122 -22169.2 -28502.1 24287.5 28022.7 -707.882 29543.6 -2978.56 -25900.6 14671.9 11486.3 -17155.5 -70.5702 -2526 2205.77 -12176.1 21690.3 -5458.46 10940.3 -2296.05 5070.52 1834.02 -8175.95 13258.2 7644.94 -21255.5 4583.28 226.954 11628.5 -10438.7 -16837.4 -24087.5 17456.7 25002.1 24396.4 -1883.45 19400.4 -26765.6 27391 1069.95 -25581.4 287.994 -1386.42 20488.2 -27850.7 -4996.51 10462.7 1273.24 129.543 -21396 26132.2 4463.59 19017.2 -14072.3 -15669.1 19774.6 27585.9 21339.8 -12697.7 1993.66 -1696.64 24164.5 15178.3 26789.5 -4581.82 -16880.7 -19499.9 1128.77 6126.16 -562.846 -15030.9 373.784 2469.89 -654.467 -27714.5 -21857.3 6285.86 -8583.13 10712.8 -15505.2 -12725 5157.01 -25868 -10689.9 -25233.5 8001.48 -14888.1 17495.9 
-999.49 13147 21207.8 -17645.2 10955.7 1639.23 -27541.7 -7495.97 -17542.8 2562.29 -28950.3 -6283.51 23755.7 -1186.87 -27523.2 22024.2 -26666.6 -23327.6 10623.2 -5781.16 -7589.3 -19604.8 10622.9 26185.3 20760 2009.84 640.285 -8826.39 -931.151 -12618.5 2891.16 12324.7 2712.69 -10184.3 20008.4 -12573.9 -8715.16 20767.3 -23394.2 6409.04 6000.16 -2830.82 22873.9 25344.9 25246.7 1946.49 -1870.39 -15543.8 -14959.4 23733.8 -16170.9 9356.21 -2873.92 -27390.4 5183.77 -9563.79 22643.3 -3136.08 20483.5 7963.75 17667.6 4898.51 -240.423 -1531.28 13705.1 15342.5 -6063.31 106.802 -19494.6 -28550.4 -2417.58 -18202.1 1028.8 16009.5 -3843.35 -10516.7 15401.1 20576 -8324.34 -7423.61 -604.387 1463.21 -26371 -2548.17 -9219.44 23315.4 13842.8 -25502.7 -17761.1 19548.1 -17533.5 6384.96 -4921.33 -2663.49 -11548.5 24248.7 27831.5 -5497.77 -5117.26 25529.9 -29695.6 22921.5 -13304 6171.41 -8805.41 1116.64 -17987.1 -14864.8 12961.4 12383.8 -1536.17 -22127.2 23978.9 -25809.3 21769.6 17912.7 -17618.7 21067.7 841.168 27426.6 23261 22496.4 -6958.33 11887.8 -13052.9 -15448.7 -4770.79 2072.94 
-14582.1 27618.8 -9393.13 -4210.58 76.2294 16240.2 -14789.7 -7461.59 -2504.93 461.42 27410.6 28653.7 -27984 -8404.79 11255.1 -17937.2 -2016.8 -2001.31 22553.5 31224.2 20737.1 8804.39 29602.1 6725.99 14817 -18404.5 -6326.22 -156.26 -18544.7 -26727 -12337.2 -10553.2 -14543.2 -5219.26 -1424.45 11560.1 -23269.6 -11862.6 25293.2 -1502.19 -8564.69 -6800.13 3994.9 -1653.77 -6879.18 -19655.8 -26259.8 -16406.6 -25045.8 3147.35 15064.2 16863.5 379.368 -6559.48 5424.26 14802.6 -9436.98 3023.32 14974.7 3301.29 9988.63 -18057.7 10851.5 -12634.8 -3085.63 17621.2 19672.6 318.482 -5016.98 27978.8 -17345.2 16922.5 -24410 28899.6 -23038.5 21396.3 -13991.5 20898.8 -19287.3 24174.3 -27100.8 -10270.2 14083.4 -26445.8 -14383.8 -1215.73 -4714.04 -14395.4 -22709.1 23513.3 21855.4 20440.9 10270.6 16745.3 12638 -18682.9 23959.7 -27228.3 30116.1 -28393.4 -27729.4 -5916.7 3563.63 -26891.3 21240.5 -28741.7 12613.1 574.382 506.661 -7995.07 -1581.02 -13590 942.875 10513 12832.5 10398.8 16590.4 9095.1 -1856 -25984.8 -21589.1 -6860.95 4826.83 27679.6 -14026.5 21999.5 16849.4 -18759.1 
6992.31 295.193 1829.93 -27301.8 -18759.9 5572.87 -5301.12 -10026.7 21481 14787.5 5025.62 -18950.7 -18130.1 14167 23483.5 19560.7 -4150.06 133.474 26042.2 30623.6 1196.08 -22823.7 -715.582 21169.4 852.328 6310.37 13886.6 28478.7 22487.5 -5523.16 -2549.09 -13902.5 -22326.5 -18949.9 3100.7 -15850.3 3730.52 -23599.4 -1817.1 -1278.81 4908.36 7600.31 -6229.29 -7740 27567 -4275.65 -5373.8 -17378.8 -8627.61 -1853.57 -2022.42 -11319.3 -23738.2 -30583.1 -10036.2 -26765.6 19302.1 13759.3 6445.58 -11349.8 702.532 10276.7 252.985 -31017 -10668.1 -5352.44 29456.5 4254.96 -453.079 -2859.39 -3763.73 -4353.56 -5991.99 25349 -416.959 11940.6 471.734 30127.7 9073.11 -27343.1 10810.1 -25622.7 629.204 7146.03 19063.7 27354.9 -15963.4 -504.446 5260.35 -5600.71 -6166.72 19740.8 -293.083 30069.2 8164.46 -25857.5 -12820.9 827.989 23543.1 11868.3 -12490.3 -15632.5 -11520.8 -1129.67 -24752.7 -239.937 536.086 27971.1 -10895.5 -10646.5 16594.9 -9575.14 10969 5438.75 -25123 17410.2 29103.4 28692.2 -6137.16 19432.7 8132.34 -15887 5997.67 298.849 -20540.2 -11513.1 -26875.8 29500.7 
16803.1 21307.2 -1863.25 -6937.56 26226.8 -22432.9 -16716 -7413.85 27430.5 29570.8 -22009.9 -19842.3 22845.9 -2676.26 -20073.1 -15942.8 903.217 -19535.1 18310.1 -23585.5 16452.1 6435.18 -22155.5 -28997.6 18927.6 -16749 -25611.7 5428.88 -23764.1 21893.4 22625.9 25567 -1722.21 9030.42 -14387.1 -3312.89 2785.38 27136.6 14811.5 -2958.47 -10342.2 -17315.5 -396.476 -22420.5 77.2748 2822.57 103.018 -7801.44 -10104 -3895.79 -20109.6 -2702.73 19210.2 -19928.9 -19578.2 8094.82 7900.36 -13563.2 26426.6 12629.3 151.045 -2330.29 11407.1 25359.8 10415.7 19666.8 -14267.2 28398.2 -11876.6 17320 -26139 17752.8 -11501.1 28408.9 -10621.7 -11320.8 -27524.4 2197.77 -20296 20603.6 -8273.16 17451.8 10090.8 -17643.3 23873.4 -21611.3 20937.2 -6801.34 234.291 -15897.6 14731.7 7358.59 15596.4 20169 9043.58 11218.8 -3820.18 -5323.83 4041.81 -22989.8 -9815.34 17223.6 16151.4 -14267.6 18874.4 28762.3 -5948.66 23470.2 -853.961 11287.2 9116.58 925.412 12134 22436.2 7894 -2082.25 -6953.84 29522.5 23167.6 247.191 12038.1 -24958.4 8940.84 10731.7 1091.07 3464.37 2597.21 17348.9 
-19141.4 -25758.5 -10860.3 -11247.6 1545.28 -15501.3 -19278.2 -630.84 -1033 28539.1 -23214.9 21862 17919 7333.1 17699.8 2520.03 -6061.45 1609.07 -8845.18 -29489.7 -82.8034 -12318.3 16501.9 -2033.03 1951.07 2840.5 16725.5 25840.3 5429.16 5428.35 26650.9 2118.8 25476 13515.2 -26385.7 -8887.63 9878.09 -17620.9 -2429 -12898.6 19723.4 -22023.7 -27671.2 3440.36 -23513.3 -27023.3 6465.42 -26139.4 -1087.02 -1497.43 28060.1 -23820.8 384.717 -14156.9 -2532.85 26009 -3103.56 -29325 29939.4 -6900.51 -12241.5 13056.5 12938.6 19746.3 15491.7 -9505.24 14494.3 826.653 18800.4 -30043.8 -17255.5 -428.369 27269.7 23016.4 -8897.66 12348.2 20978.6 -24660.1 23385.2 -17982.1 1400.29 -16019.1 14124.7 -6569.32 16787.8 28903.3 27135.7 22383 18064.2 16686.5 80.6922 -14208.6 -77.5737 24023.3 7332.67 13822.1 19778.4 -25457.7 1500.52 25680.6 -16665.1 24609.1 -22067 -1427.36 -26405.2 -5633.72 -9482.92 29983.4 -10909.3 -23882.8 11092.9 -2536.52 12532.5 -30048.9 -19539.7 -25052.7 29058.7 15059.6 -10140.6 -9881.7 -19881.4 3314.04 13663.8 -17486.1 2740.97 24987.3 20994.2 -8467.74 
-19212.2 17285.5 8603.66 23254.9 -1978.69 3000.06 -22845.9 399.721 -523.821 15527.3 -1708.18 879.536 19426 -10089.4 -24808.9 -17496.7 13428.6 -19351.9 -1365.91 16897.7 -3041.18 25683.4 8090.68 -19561.1 -22516.6 10272.2 2228.02 -1643.92 -2588.04 14950.2 22608 -10916.2 495.332 28996.8 1194.85 16631.6 13425.5 -27574.6 27040.7 29157.2 12799.4 10499.4 19851.2 19971.6 1459.79 -15532.5 18474.9 -14589.1 -12057.9 -26506 -10972.8 3645.03 -24058.7 -9132.11 4968.62 -4509.81 24940.1 3709.02 19505.6 -1799.77 -5808.99 17524.8 1455.77 -12195.4 -4502.16 29999.1 4861.57 1259.46 -6204.11 -22030.4 -3747.35 -24350.4 16232 21088.7 27157.8 21357.1 26977.8 303.844 -16607.7 23519.7 -6586.34 -5959.41 27600 -2072.99 -12189 -75.0278 -3409.67 10798.3 -15449.6 16731.3 -25986.9 -16706.5 -6096.94 -27449.5 -179.713 -27180.7 -2245.88 20519.8 -14502.3 2191.34 16340.8 -20383 26460.2 19064.5 -18930.4 23378.9 -25494.4 -22009 -4919.05 -12933.7 29596 -1507.31 -19440.1 916.239 12486.6 -10522.8 27064.1 15068.7 -3711.98 19593.9 -1370.55 27347.9 -1315.76 5515.27 2702.41 1492.71 -11501.5 -19450.8 
26027.3 -1935.3 508.072 6042.54 -16499.4 21902 1499.78 24985 29992.6 -25517.2 -13022.7 -13571.9 -972.216 -14004.7 -7467.33 0.378114 -29500.2 1122.2 -3191.65 -29468.9 -13506.1 -10016.1 -1992 -14361 -5521.94 12030.4 -4025.36 12623.6 -21002.9 24494.3 4987.79 -14049.4 -20532.2 14508.6 2976.45 -27441 28062 19948.6 -19452.5 -26934.4 -16638.2 -18098.1 28457.5 3494.11 11519.9 25533.2 9482.09 -27499.5 -11518.5 9548.7 1924.99 2522.32 21987.8 -12027.8 -16482.4 -900.206 -5008.3 -2013.33 13031.2 -10519.1 -18965 -4993.37 14938.2 -27540.5 -5494.04 24994 -26511.6 20571.3 -112.86 26931.4 -28506.9 -5602.77 -34.1524 999.396 15974.4 -25513 -5505.35 24969.7 -5064.7 -25474.3 23499.4 14116.5 16505.9 11186.4 -17961.3 14476 -19958 26006.6 -22490.4 -19465.7 12507.4 -21055.1 28576.3 -28541.1 -16490.5 -2982.39 -26322 10075.7 -987.738 -2518.3 17053.9 -9600.98 45.8318 -4522.49 17908.4 -17573.1 20000.7 2005.05 4899.62 29005.6 -12955.9 -23981 2524.36 -17586.5 -27503.3 13996.7 -18999.1 17523.5 3516.36 2529.12 6484.62 -1918.45 16530.4 -21487.5 -5492.53 11021.2 -1499.87 7517.46 
5456.11 -10908.7 -8997.29 7508.82 10998.2 -19097.2 -12985.9 11506.8 -19496.3 -21020.6 505.859 12966.5 -5472.05 -21003.5 19481.9 -26502.2 2497.71 2067.79 -18693.7 -8019.79 14498.8 27490.7 -29489.3 23613.8 9482.84 -19489.1 7972.59 12157.3 13999 1502.28 -28016.3 4437.25 7476.83 -1497.89 23477.3 1096.27 18567.7 9976.17 17082.7 17593.9 5478.06 -1999.82 -6542.25 -14506.6 14498.2 -26463.2 6983.44 -18999.2 -24520.6 30054.1 -25574.8 27012.3 -9007.66 -9.94162 1988.08 -21420 -3008.76 28557 -23000.3 17493.9 -28001.4 2001.85 14441.5 17483.5 10006.5 -11505 7911.96 25010.5 -11.781 18453.3 -5009.21 -20995.2 25444.3 11999.5 -6488.62 -29995.4 -4.01415 21953.1 26495 10022.1 -16500.2 -17421 -9494.44 -10395.6 -10974.7 -15023.8 -1495.87 11002.2 -7499.03 11028 -21013.3 -20975.8 -24332.8 2466.25 -5513.58 11015 -8347.93 19072 3513.59 6003.66 63.6554 29853.4 27560.4 8034.61 -12544.4 -504.454 1999.21 -5494.94 5361.3 -16998.6 999.857 -8479.56 -16466.3 1435.53 6499 23003.8 28997.7 17518.7 15420 -5443.84 -5514.15 -18827.8 28503.6 27513.8 -3512.79 1521.5 -989.44 16513.8 
-25495.9 24499.2 -22499.6 14500 9500 -4500 -8500.3 -5000 -21000 -12999.8 17500 21500 24499.1 14000 -2000 19499.6 -17999.7 0 500 27000 -500 -6999.9 -5000 19000 30000 -16999.7 1000 5500 -22000 -7000 -21000 500 14000 -17500 18500 27500 24500 0 2000 19500.5 -18998.8 -14000 -11999.8 -22000 -27499.5 16500 14000 -15500 -2499.5 19999.2 -15999.7 -15500 -22000 -10500 -1500 2500 16000.1 1999.6 -28000 -24500 -1500 -23500 -6000 2000 2000 12500 16500 -18499.7 -16500 -1500 15500 -5500 13999.7 9499.4 16999.7 15500 -18000 4500 -2000 -27499.5 7499.9 -17500 -2000 23499.2 27999.5 500 14500 -27500 -1999.2 21999.2 5499.9 -11499.8 29500 -6000 -2500 22500 2000 17500 12000 -26000 20000 -3000 -5500 6499.9 1000 -29500 -15499.7 11999.8 -16499.7 -15000 -16500 -10500 -25499.5 26500 -1000 -24000 -2000 9499.8 0 15499.7 27498.5 27000 3000.5 -17500 28500 16500 -21499.6 -10000.2 
0 -30000 0 10499.8 -25000 -1500 -11000 -18000 -4499.8 -11000 27999.9 0 25500 20500 13000 -30000 18500 -19499.6 -11000 -14500 15500 21499.6 11499.8 6499.9 21998 17500 3500 -26500 15999.7 -3499.9 -16500 -23000 21999.2 -15999.7 -12999.6 -7500 -8500.3 -18500 1000 -1000 24498.3 24000 -14499.4 5999.9 16999.7 25000 -2500 -3499.8 -10999.4 -16000 11500 -11000 0 500 19000 9000 -13999.7 -9500 -3000 -500 -1500 14000 14000 -10499.8 -4000 -19000 -29999.5 -3000 30000 -3500 17999.7 17500 1499.7 25000 16500 -24999.5 -2500 -24500 8500 1500 -11499.7 15500 -4500 1000 12000 -5499.8 -25500 -24999.5 27999.5 -17000 -20499.6 -6000 -12500 -14999.7 7000 -29999.5 15999.4 12499.8 -16000 19500 16000.1 -3999.8 20000 -27999.5 22999.6 30000 -21999.6 17499.7 -20000 17000 -24499.6 -13000 -27498 23998.8 -13000 -27000 -2000 10500 -21500 -5500 -4499.6 19500.5 17999.7 -19500 17500 14500.4 30000 -10999.8 
19997.2 15999.7 -11499.9 10000 3000 16500 -8500 -19500.1 499.8 -22000 -5500 8000 -29499.5 4499.9 -14000 24500 -13499.3 -500 -14499.7 -20499.6 -20500 -14499.7 22999.6 20499.6 18999.1 2999.8 -12500 -2999.9 -25500 -12000 2500 -25499.5 -4999.7 -19998.4 -7499.9 0 -29500 5500 -14500 -1500 1999.6 -21499.6 19999.6 1500 18000 -26000 -26000 -25999.5 -11999.8 -6999.8 -9499.6 28499.5 -9999.8 11000 -25999 -5499.9 -9499.4 27999.5 -27500 15499.7 -500 16500 -28500 -14000 26999.5 2999.8 9500 0 -23499.6 4000 10000 23000 -19998.4 8000 -9500 -8000 1000 -15500 1000 -16999.9 29497.1 -16999.7 -30000 -10999.8 18000 9000 -10499.8 2500 1000 -27000 12499.8 -15000 1000 24000 -2500 -5500 -6999.7 11000 -12500 -14000 26500 11500 -6500 20000 -28998 -20999.6 -26499.5 -19999.6 19499.6 -7999.9 11500 -24500 -6499.3 -10500 14000 500 2000 0 15999.7 27000 -16499.7 14500 9000 17500 23000 -13500 29499.6 6500 
29990.5 -9499.6 -9500 19000 -11000 3999.9 0 -15999.4 2500 -2000 16000 13999.7 -19499.6 19500 -27500 -4499.9 18498.4 -24500 2999.8 12500 -15500 -21999.6 -6999.9 -28000 -2000 -19500 21500 -23499.6 21000 -7500 25000 24999 -26999 -19499.6 11999.8 -26500 -7000 15499.4 22000 -11000 -11999 25000 27499.5 29000 -28500 15000 -6000 -6499.9 -12999.4 -1000 30000 1500 -22500 5500 -29500 26000 -2500 24000 -26500 -15999.8 -13500 -28000 -25000 30000 6999.9 -10999.8 12000 -19500 21500 22000 1500 26500 -5499.7 16000 -1000 5499.9 -5500 -8500 -4999.9 8500 -1999.6 -6000 -20000 21500 -12000 17000 14000 -27499.5 17999.1 25500 -17500 -5500 -5500 -1000 4500 -500 2000 -17500 -5000 17999.4 0 24499.6 11000 -22000 17999.1 5500 24000 -4000 -11500 -5500 15000 -21000 -5999.8 -5500 -12500 14500 -2000 11000 14500 2500 5499.7 -9999.6 -22000 -16500 2000 -1000 -3500 6999.9 
-4999.2 -22499.6 13000 7499.9 12000 -20999.6 -8500 10500 5499.5 -16000 17500 -25500 -27000 -27500 27999.5 0 -21998.4 -24000 16500 22999.6 1000 16000.1 -7000 -13000 -23499.2 19999.2 -27500 -13500 -16000 -25500 21500 24000 21998.4 -7999.9 6000 27499.5 -24500 -22999.6 -26499.5 -25500 27998 -2000 -26500 -9499.8 -23000 19000 -13500 -28500 -7499.9 17500 -16500 3000 500 28000 22000 29000 -10499.8 -10999.6 -1500 22500 -7999.9 22999.2 24499.2 11499.8 -21498.8 -19999.6 -20499.2 -17500 -16500 4000 10000 5499.8 -10999 15999.7 20500 -18999.5 -23500 -13999.4 7499.8 -4499.8 18998.8 25500 -500 -2000 -29500 -19500 25500 1000 -29498 1499.7 9000 0 1500 16500 0 28500 17998.8 -13499.8 22500 -24000 -8499.6 -9499.8 -17999.7 1500 -29498.5 -13499.8 -1000 1500 -11000 4500 10500 2000 -16999.1 -10000 20500 23000 -22000 21500 -15500 -12000 -23998.8 -21499.6 -13500 8500 24000 -27999.5 6000 -3000 
-29995 13999.7 -12500 -25000 -18500 -29000 -23000 1500 -2000 -25999.5 -19500 -6999.8 1000 2000 -2000 -5499.9 29998.5 14499.4 8499.6 -21999.6 3000 -28000 12999.8 -27499.5 -5500 1000 8999.8 -15499.7 11000 9499.8 23000 -9500 -2500 -29499.5 10500.1 -9000 -22000 22000 0 16999.4 -29498.5 27999.5 -23000 -27000 12000 -3500 29500 -14999.4 -28999 20499.6 0 -10000 2500 7999.9 24499.5 -18000 12499.4 -16500 2500 -6499.7 -7499.9 2000 0 1500 -22998.6 -1000 23000 -30000 16500 -14500 2000 23999.6 12499.2 -24999.5 -10999.8 -20000 -6500 10999.8 -25000 22000 1000 -16500 -2999.9 -29500 -11499.7 -1000 2500 9500 -11499.4 -23500 -28999.5 24000 0 26499.5 -22999.6 -26999 5499.7 0 26999.5 29500 -25500 -15000 19500 22000 2000 4499.8 -26500 8000 25500 -17499.7 1500 1500 -28998.5 16000 -28499.3 5500 21999.6 26000 -10000 22000 -22000 29999 -17999.7 -5500 22000 19000 -5499.9 1500 
12497.9 -3999.9 -21999.6 -23999.6 -25000 28000 -9999.8 7499.9 21499.2 -30000 0 6499.8 16500 -5000 8500 13000 -9000 -17000 11499.9 8499.8 9000 2000 18499.4 5000.1 500 -5000 -13500 -16499.4 500 23499.6 -28499.5 -16500 -28497.3 13500 -13999.7 -2000 -15000 9000 -16500 -28498.5 0 0 -28500 -5499.9 1500 20999.6 25500 -16499.7 -16999 29500 -1000 -29500 -13500 3499.9 -15999.4 21999.6 -500 -19500 1000 26000 5500 6000 -19499.6 -16499.7 -1000 -16500 22000 -18499.7 24000 0 10499.8 -29499 18998.8 -13499.8 500 19499.6 7499.8 26999.5 20000 -17499.1 2999.8 16500 26500 -27999.8 26500 -17499.8 -9499.8 16499.7 -29498 0 16000 7999.9 8000 -2500 -2999.9 -11499.8 -23499.2 -25999 20999.6 -26500.2 -15500 7999.8 -6000 -25999.5 -499.9 -10499.8 -11000 7999.8 25000 5500 25999 -12000 -5499.5 10999.8 -6500 -20499.6 -2500 7499.9 20500 500 19998.8 23500 -16499.7 28499.5 28500 -26500 -5500 -1500 
13496.2 19998.4 22999.6 -22498.8 21499.7 -999.881 -1500.19 20999.6 25998.5 -16999.7 9499.64 -8000 -6999.7 18500.1 -1999.95 -17000 16499.1 -16999.8 16500.1 -499.976 -19000 -27500 -30000 9500.01 6500 -5499.9 5999.96 -16500 5500 28000 2000.08 28500 -8999.8 0.00274635 2499.91 15499.8 8000 -27499.5 1999.99 25000 -499.998 24500 13000 21999.6 -12500.1 11999.9 13000 -30000 -24999 -999.999 -29500 -8499.4 11499.6 26499.5 27000 -20998.9 -21499.2 -500.183 -17499.7 -9499.8 16499.7 5499.81 500.004 7500.01 27499.5 28500 -13499.9 -13500 -2500 18000 12999.6 -19999.7 20998.8 -1500 18500 999.992 22500 27499.5 10000 -1000 -19500.1 18999.9 9499.8 15999.7 13499.8 23499.3 -27499.5 11000 1499.99 1000.07 -21999.9 27000 21999.8 -4000 -1500 -21999.2 -2500 -17500 -15500 -999.801 -21500 7000.07 -500.011 16499.7 -2999.7 11000 -27499 -23500 -13999.6 3000.04 -12499.8 -12000 -5499.84 14499.4 -2000 -14000 1500 28500 26999.5 -24500 -11000 -0.363112 -28500 -8499.99 17500.1 -19499.2 -499.993 -28999 
-6496.72 -1998.31 2502 -12007.6 -13502.6 6994.41 1990.19 -14476.7 -18500 -3000.76 -12999.9 -5499.95 -20000.6 10505.8 -25498.8 -499.737 1501.87 24973.6 3001.18 -1009.58 36.9175 -497.476 -1019.25 17508.7 21499 27499.6 11001.4 -11521.7 13501.1 25999.6 -17003.1 9504.07 2495.32 28999 -27533.3 998.273 23989.7 -6498.55 -3589.78 10994.1 -22493.3 -29461.7 16514.1 28500.1 25497.9 -1018.7 7516.61 -29001 -16493.5 -16000.6 15000 5997.57 -1462.15 5998.43 26507 -24495.9 7003.59 26987.3 -25998.4 18538.7 -999.001 -12505.6 -22998.8 22997.2 -27501.5 -12994.7 1982.7 22019.8 3999.22 -999.284 21494 -23000 -998.586 -8891.04 5000.2 -22004.1 -16999.7 -1490.6 -501.582 -15019 -28495.4 -4025.97 11996.3 -26526.2 -4498.62 -5000.7 -995.905 -17040.1 16468.3 -6999.25 -17499.6 15006.9 -15000.2 -6949.16 3974.94 24994.6 -5510.66 20497.7 -1.66961 23000.1 -5.55217 -21498.9 -7991.86 13997 17505.5 -24999.3 17500 -6000.11 18999.4 -5000.67 -8997.44 -9501.75 -12000 -20499.1 -22999.1 -22004.6 -503.679 24978.7 -5505.28 5506.87 1993 -25503 -19499.9 22017.3 4500.79 23499.1 -10998.9 -6500.13 
25497.1 22004.7 1995.68 -18911.5 7530.22 -17623 -27918.7 -26538.3 -2000.12 -22457.6 -2630.17 -1982.31 -27514.6 15962.9 30068.8 -27123.7 -5495.45 -29502 -8768.19 -333.884 -25945.4 -29093.8 11982.6 1072.2 26523.9 26055 -4518.17 24488.3 -7440.62 21984.7 -509.825 -20010.5 5487.01 21002.9 21129.7 -980.464 12521.3 16451.3 12473.9 -21358.6 6605.97 -684.362 -7498.59 -11197.9 29485.7 20592.7 5511.51 -16488.9 -3529.83 -1999.9 -24652.1 26987.1 -21938.9 11473.4 -13.4678 12538.3 26398.8 -12956.7 16438.1 -6052.1 9979.93 21491.7 21981.2 -22098.3 -10963.4 -19942.6 24473.1 6137.13 -26941.1 -9595.27 22082.8 -29274.6 26001.2 -10891.8 -17624 12567.5 -23999.4 -27035.5 16527.9 -618.25 16989.8 7069.83 19837.6 -5393.64 -21885.1 20770.9 19515.8 -7873.84 21590.9 -26535.5 15824 2097.48 25556.8 2435.4 12874.4 6556.01 11571.4 11002.8 -28399.9 -16430.7 14462.2 22464.3 -1402.52 -24049.7 -29952.7 8933.77 11041.4 -2020.79 27497.3 28778.2 -27497.7 -19893.9 -12431 -18098.2 14001.4 2040.83 20561.9 -8038.2 -11169.4 -29488.8 -1196.19 12490.1 -1419.8 14422 20053.7 -27424 -1947.57 20353.7 
17423.9 6465.95 8394.39 -16393.6 -17415.9 -10802.5 -5294.85 -22028.6 -27464.4 -23584 7340.32 11236.6 -1590.39 -12016.2 -5600.8 800.705 7990.15 -14178.2 -2343.28 14968.5 461.587 10628.1 6129.19 -19667.1 -22522.6 -21257.8 7642.29 -1644.83 28859.8 3621.92 28789.1 -17083.2 -28926.4 -501.015 18722.2 -5587.35 6153.17 -80.0159 -15254.5 11133.2 -29614.8 -5856.98 -10998.5 -4695.11 -27432 2748.68 -22082.7 -24954.5 -4556.76 28520.2 14490.9 198.558 10946.3 22330.6 428.532 -6512.21 -15808.7 -28306.6 17567.8 -22823.2 -1954.28 298.731 26790.8 -5615.36 11511.5 17998.6 -20700.3 29566 8773.51 -17764.4 -410.909 1242.61 -11463.6 -24030 14868.5 -2230.06 -5001.15 -9688.81 -27031.1 -18065.8 -13569.8 5928.56 7866.43 5865.79 -5863.92 -28803.9 -3373.78 278.18 16593.5 26441.9 -21711.4 21735.2 1822.86 2035.5 26417 -24340.4 242.142 16987.2 2950.07 8919.28 15869.3 11423.8 -18954.7 11615.8 2368.85 25945.1 -28608.7 15478.1 -11901.8 15687.2 -9981.61 -11875.1 -11438.7 -12101.8 -19004.9 4299.44 -19474 -4544.3 20134.5 3470.89 -12293.4 -1177.03 -9863.15 1478.9 21593.5 16115 1366.7 22296.8 
-22234.5 -18427.3 -607.774 1457.06 23992.6 15051 -5395.48 -25286.5 -2763.92 -19509.8 7829.25 -13291.7 19332.4 -29769.3 12318.4 -29793.7 -12494.4 29020.6 -25329.7 -15791.9 29545.5 -9411.08 -1215.86 -5928.99 -11031.1 20342.1 -20032.8 14426.6 -2215.16 -6213.6 5030.5 6215.04 -21899.9 -30234.1 -1375.53 7014.11 14874.9 -22125.9 14624.9 -19187.7 -5301.73 -10943.6 -18552.8 -280.028 16159.2 -24075.4 -16615.8 -4967.83 -25562.7 12403.4 -18261.4 -29053 -2121.29 11402 14958.8 14508.4 26935.4 5263.4 21518 13986.9 21913.4 25410.7 -17893.3 5960.86 12522.2 -17291.4 -22883.1 25132 -26820.5 22164.2 11242.6 27949.8 -93.091 -3525.62 16178.3 -10725.4 29993.3 18441.8 -25528.9 12710.7 7436.7 -14902.7 4235.22 -3805.26 21346.1 7760.96 -5190.92 -16174.4 -30004.3 13522.6 18344 21591.5 16966.3 -27357.3 -5636.87 597.763 -18626.7 16954.7 17490.5 -11121.9 19961.7 -25083.5 21625.1 958.074 9808.93 -23490.6 -12567.9 21001.9 -8452.56 -5795.88 18587.2 -22991.4 615.013 7988.18 12482 2781.93 21827.7 1850.95 626.53 6182.71 7049.41 16830.3 -12640.9 23965.7 -24661.3 -1873.36 -21182.6 -16338.7 
-23051.3 -101.822 1221 1060.07 -12317.2 18324.2 -26462.1 22103.5 2800.76 -12579.2 -6024.47 24049.9 -27832.8 -222.399 19882.6 22865.3 6436.89 -24250.1 -18321.5 -3299.48 10565.8 12830.3 -23804.3 -22123.1 -25045 23356.3 29391.2 30012.5 27944.2 -20273.8 12663.4 10365.1 18540.6 -15714.6 -26525.4 -630.551 16454.5 -326.798 -2183.63 -7283.95 -1966.82 23800.2 9831.81 18435.6 21745.5 3239.25 -17253.7 -16695.7 7677.98 15430.9 -3381.49 -19871.9 -20235.3 796.968 4989.06 29053.5 -18089.6 -2027.86 9496.07 -5674.67 27672.9 7004.34 7022.6 24185.9 -6861.82 10215.9 19680.5 11105 -27616.1 -2066.34 21765.1 26787.5 -28391.5 -14847.7 -19893 27557.5 21994.2 24380 1435.68 -4755.9 -1590.41 6094.35 -10821.1 -14947.4 26787.4 -10053.3 8746.14 13776.5 -19958 -23037.8 -15688.9 4606.71 3256.75 1915.61 -668.243 6020.41 -17177.8 195.057 21132.6 16178.2 9042.42 -16285 2653.01 -9029.31 -10340.4 -78.2649 -28091.7 25543 13363.6 20638.4 25633 -11412.3 -10213.1 8535.52 453.795 -3365.32 19778.4 -22697 -24785.5 -13020.4 13555.6 137.409 -28892.4 -7528.27 -11296.3 -23896.4 1898.52 -27816.7 
28047.6 570.88 11869 21212.9 -16876.1 -1589.81 -15734.8 8925.13 7827.14 10834 2401.97 20110.1 334.896 5121.2 -22445.3 -5016.66 -24626 -24029.3 74.9585 17292.6 -28616.5 -14336.3 7304.25 -18697.2 23799.5 -26735.7 -5971.3 28131 -26687.6 -13299.8 -4860.92 749.581 5832.29 -21649.5 1010.66 26747.8 -21938.6 14927.5 9154.13 15509.3 471.659 -19370.4 18249.3 629.887 -20642.8 2968.13 -21803.1 -29216.5 21982.8 12950.6 -1070.68 6679.05 -384.379 12536 -20072.3 -29901.8 -27091.3 -5611.18 23685 -325.529 4168.49 786.68 -15705.4 -11024.4 -26915.2 -10874.3 1563.43 22182.9 10389 28528.7 1473.45 21854.4 -12398.3 -6876.87 -20604.8 18878 -29618.2 26034.8 -23286.5 20882 5875.59 17480.5 -13802.9 4480.68 35.075 25868.3 8884.7 7685.36 -14825.4 1054.07 11457.3 -27627.4 1817.89 20849.9 -27852.6 6712.6 3127.69 25363.8 -14291.9 -8160.39 28897.5 5747.21 18579.5 2445.78 2478.6 -25160.5 24715.5 -28352.5 -2508.43 -1173.82 22187.4 -18986.4 -10697.5 18804.6 -27581.3 -21114.4 -20286.9 -690.171 -7322.77 22506.7 -6830.52 -27163.5 -26860.8 -1398.09 -18583.3 20570.8 6917.87 10268.6 
17695.2 24391.2 -14134.3 15001.4 29049 -14491.1 -13279.4 18676.3 17038.8 4939.34 2833.75 -10780 -18383.7 11852.5 25776.8 -2466.83 7780.19 9243.42 -2381.14 -16101.2 -1593.73 5612.04 30477.8 25743.7 14811.3 -27123.8 9412.37 93.1709 21306.6 -24481.5 -2400.73 -29962.6 -8727.49 -12235.1 -1897.93 -4116.65 -23310.4 -30165.9 5607.97 -7036.29 19673.8 19683.7 -27978.7 10760.6 -23635.2 963.88 3338.42 -15777.3 23618.9 -28182.2 -31241 10823.6 -24595.7 4857.66 -10308.8 21953.3 26772.4 -17887.6 14943.5 -23256.7 15238.6 25159.7 -15599.2 -18246.4 23890.3 -3115.9 1322.67 1497.63 1239.38 -2684.15 15591.5 -18126.7 -21535.1 -27871.2 19900.3 -18200.6 -12602 -22847.1 -1894.87 -28200.6 -23161.9 -11926.2 -25736.9 -10867.9 -26028.4 -12296.4 -14144.6 31539.7 -19919.7 28046.7 -3397.48 -30661.9 -26727.9 24539 -9731.23 -21406.2 8308.88 -16312.3 -20203.7 -9470.84 28873.9 2016.14 2073.25 -17587 -28623.5 8870.2 21008.7 -13557.3 -16938.1 -9016.9 7576.35 1915.96 -10594.1 9086.49 -126.006 7351.08 -22239.9 -20049.1 11016.7 217.423 27951.3 17611.9 25565.6 -2026.12 -7024.5 -27577 -7555.97 11065.3 
-30385.3 13548.9 -16906.7 5647.66 -11922.8 3026.28 -16955.2 24150.8 22987.4 18359.8 -24211.4 -1168.86 15530.7 27892.5 -25725.6 -19275.4 -11241.8 -14119.8 1459.54 -17060.3 -6483.83 -22099.5 23393.4 9739.56 21890.8 31450.9 -5856.8 -1849.93 -25382.6 -13236.3 -16849.1 28477.3 -371.335 -28323.4 1125.54 -1738.9 -14036.6 -5971.25 10197.1 4009.3 -30351 -8614.63 -23304.1 -6215.78 10742.2 572.996 15561.8 -26213.5 12061 -19798.6 12415.6 8654.04 2085.34 14715.9 19269.2 -968.666 -23845.1 -21425.2 7268.71 3790.21 20703.8 -3693.7 27494.6 4704.95 -21558.3 13334 -3322.22 27629.8 25562.5 -10079.5 17485.9 573.211 18834.9 -25721.9 -13570.7 -5926.19 1404.98 -15526.4 -27908.5 23116.5 25777.7 9802.21 -29203.9 -23497.8 3679.19 28601.9 -8303.93 21555 16292.1 -5925.29 11538.6 -1062.68 24924.6 27326.9 3059.31 -8930.83 -2710.89 -10301 -5535.97 26124 1378.41 -9035.98 29646.9 24918.4 -5382.01 -30398.5 -6401.17 13936.8 28204.2 10614.3 4754.17 -10770.5 -10738.3 -25396.5 -22204 10172.9 21666.8 -19971.3 -10069.4 -7122.96 -20070.1 10719.2 11193.8 6883.72 -29918.2 6780.24 14633.9 -27374.9 
-7937.37 -10255.4 15977.5 23226.9 13119.1 22528.5 -23410.1 -24113.4 18431.2 25971.6 -20735.3 20620.7 -510.517 18947.2 -3443.83 23858.3 24594.7 19784.8 14495.7 28024.4 765.746 1286.11 111.678 4472.51 13953 12519.4 5631.97 16920.4 8873.39 10848.5 -13152 -2442.52 -17459.6 -28373.2 29739.8 18427.4 -4376.34 -1777.75 -16737.4 2544.22 -27901.5 21491.6 -27335.2 -2108.86 -10210 -2616.66 -352.112 -13915.5 -488.656 -17153.9 -3095.07 1434.81 1743.25 29528.7 27459.9 -1639.8 -24077.6 7324.13 3321.22 -21594.8 11281.5 17528.3 -711.048 21509.5 -242.646 -26716.3 -37.7743 -24233.4 -16487.4 23840 16322 -10038.8 6452.13 -12069.9 -30063.4 3085.96 29353.7 -9155.35 -17579.4 -8957.54 -9121.15 20394.7 1662.32 -1065.2 -15474.5 -14919.7 9249.72 -16558.8 20907.2 -4565.24 -20477.2 227.431 -11442.1 8291.93 11586.4 26803.2 1430.08 -8839.49 4303.25 -6723.8 360.745 1308.06 -535.405 13450.7 -3052.06 20385.3 -1014.56 19549.2 18367.5 2460.9 -8401.12 -1490.32 -8259.01 -1275.43 18650.1 20009.5 -11672.4 -2830.85 -14728.7 18659.1 -7087.94 -28265.9 9865.68 2877.46 -5339.26 -19590.6 -7228.45 -17153.3 
1396.23 -3879.06 -14035.6 14719.2 -25670.4 25847.1 -27306.4 -27184.9 29831.3 17842.2 1973.66 -18503.4 -3242.46 -28034.9 24773.6 -28084 2000.78 18122.2 19953.5 -5106.53 29018.4 -9745.68 -28362.3 -1472.57 -21943.9 -8003.29 -1492.4 -25593.2 -11081.1 17105.7 13412.3 2155.77 -322.27 1629.65 16935.4 -15240.1 1492.24 7764.51 32026.1 -20353.1 14719.2 -21880.3 9963.57 11687.7 -3011.54 -1047.71 13484.4 -28674.8 10745 24012.4 21394.1 -22744.9 -2435.93 29025.5 -26849.9 3435.98 23183.3 18912.8 22363.5 9882.74 926.795 5753.87 -25222.4 -22908.5 28132.9 20205.3 -1307.56 -21195.6 20742.1 -1173.99 7871.85 -30174.1 11342.1 -9645.41 16022.3 -5756.18 -655.046 -24812 18191.1 21067.8 27478.7 -22859 188.24 -544.527 11275.2 -112.167 28057.8 -10594.1 13917.5 14590.5 15813 -29390.8 5883.05 2104.46 12556.4 18011.1 1420.18 -2637.37 22615 -644.687 -6166.02 5847.09 27513.2 -10715.4 -926.718 763.989 -19461.4 25166.1 -18209.2 -18062.9 -16942.5 -20564.8 2787.27 -26243.4 -14447.1 -27613 -2110.33 -29117.4 4279.77 -4384.29 27337.8 -6641.74 13671.7 21424.6 -1985.61 -9051.03 -8170.72 20846.1 
27250.7 -31769.3 -13213.9 16367.7 2988.19 -26422.6 18798.2 -1802.76 -21493 6432.98 -1431.91 -30655.8 -12829.3 -23679.8 -9593.23 -1014.67 2983.6 -15806.1 21493 -3089 -881.578 -1024.13 10617.6 -23909.8 -21497.7 22817.1 -5687.95 -29746.1 24968.7 5421.87 29708 -17134.7 890.756 952.632 -13596.2 -4565.75 -8944.35 -24938.1 -18803.9 13989.6 1801.05 28417.9 25268.5 18921 14576.4 23200.1 26731.7 -8133.23 19053.6 3538.09 -15524.4 -24830.5 -20703 -30042.2 -13288.8 -11068.3 -24847.2 -8169.51 -763.157 4006.91 -21049.6 1975.48 20324.4 -30011.5 14160.5 -24573.4 2108.96 -9858.02 8293.6 -12768.6 16805.4 19516.5 6411.15 -10873.5 25403.4 -28682.5 -7158.41 24579.5 1288.89 -4357.78 -9511.54 10460.4 -29875.9 -20782.7 16463.2 -6180.08 -3551.74 1853.2 -4663.57 847.809 126.282 -32009.2 21274.7 -3924.35 -29717.1 -1053.3 30870.3 -6392.83 6498.95 -31177.1 -30453.1 -5288.86 -21093.8 -1693.64 -4171.15 28613.1 28420.8 -2206.11 -694.051 1721.39 -17186.9 -21963.9 -14543.1 20087.8 1923.02 -10320.3 23664.6 -5328.83 27737.6 19548.9 -2220.35 -11328.4 23791.5 25240.2 -22582.5 2824.32 14809.2 186.504 
-26269.5 6202.15 29625.7 7555.76 1708.64 -20793.9 16281.6 -30649.9 -28675.3 21384 -7344.49 3900.96 -7898.8 -8827.49 21392.9 -17246.9 -4438.32 3974.16 -657.772 24560.3 -28072.1 -19727.5 23312.1 -13267.2 -16516.9 26001.2 23344.3 -10207 -416.386 11705.4 22371.9 31087.8 -27374.6 7154.84 -28805.6 -21691.3 18764.6 -30633.4 7664.03 -27725.2 -4045.57 -2569.79 -5999.28 11597.8 16725.2 -18907.2 -9389.11 -3939.98 10330.7 -2328.82 29566.8 11708.4 19322.7 -8313.53 -1258.4 7844.15 8338.4 -27580.2 -12921.6 -4122.79 -2485.78 1310.7 -14517.1 1676.48 -24363 6811.81 -17715.7 1573.86 -4892.84 -15717.2 30062 25708.9 -14209.3 -976.897 -6954.91 12836.7 -15622.9 21238.4 1586.93 -282.864 8974.02 8098.95 5776.83 25683.3 21102.4 23938.4 -8844.31 -4163.95 -21027.7 -24728.1 -10752.5 -20961.7 -3072.18 -2185.96 -9847.48 -8452.55 4512.13 601.3 -12983.4 23121.5 -25053.2 -4205.15 27839.4 -12534 -5000.51 -335.33 -2233.14 -16659.9 418.075 13267.5 558.76 2094.7 -4582.39 28232.9 11971 6908.17 -10210 -16444.8 2865.42 17436 -23876.3 4164.54 5329.12 -4581.84 -22457.7 -17763.3 2426.71 -5856.91 
-12653.5 23101.6 -25114.1 -4080.88 -1089.49 8968.87 28709.9 14579.8 -28987.5 3282.77 24515.6 -19220.3 5615.15 21073.2 -17018.2 22686.8 9720.44 15998.7 19687.7 16350.7 -13092.7 -17473.7 -20253.1 4363.59 -2644.7 -25331.2 -8316.57 -21731.9 -8260.54 12850.6 18982.4 3535.1 -9449.45 19225 -23656.6 15912.4 15736.5 25299.3 -9821.27 -30580.5 -3694.2 13178.1 -13606.1 -4019.93 -4490.43 -5507.5 -16628.9 -17438.9 -2281.3 -24977.1 12711.1 18764.9 -2351.64 -2757.37 10325.4 28838.4 12472.3 10098.2 -10748.3 17104.4 -15393.8 -25439.1 19010 6661.84 329.043 26843.5 -19631.7 175.6 24283.2 -1335.53 26259.9 9196.81 -22176.9 19368.4 12368.2 -12606.4 22858.8 32602.8 19975.3 -28743.1 -25869.1 -3327.73 25928.4 27092.8 -7060.26 28766.5 17418.2 22472.5 -5934.79 -22906.1 28935.7 -392.216 14330.9 391.161 -4067.37 30640.1 -19825.9 24101.9 -27107 659.914 -2416.63 24649.7 -12866.2 -14879.9 -19705.8 4073.04 -6192.31 -7207.9 -8206.89 1268.74 5031.92 -1011.47 -2841.39 24279 -27910 10640.6 -23940.4 -7358.21 -7036.74 -20234.2 21721 26861.1 18953.9 11464.1 -4433.16 5322.01 -19556.2 -27939.4 
24967.8 -13063 -5810.22 -5387.16 5965.83 6284.13 -1325.79 20297.2 -22841 2570.58 13454.4 -5937.85 11192.3 21706.2 -5093.6 -29571.5 -14818.4 -28758.5 4570.28 3342.33 -31025.6 22997.2 -17589 -24596.7 25356.6 -13735.2 30361.9 -14103.8 5779.32 -29787.9 -22261.7 -9173.1 18196.4 -2218.02 27484.9 -3826.72 -2356.86 -19580.3 26173.4 1300.75 -9707.69 -2160.9 -18069.8 -15442.6 2100.71 18257.9 -26303.7 -30027.5 -1536.8 -11253.6 -14502.5 -772.223 -21479 -1237.11 -15655.7 -4060.27 -1946.66 9334.7 -29632.5 -27642.3 -13673.4 7638.48 18812.3 -3597.08 451.67 -23028.3 14208.2 -11633.8 -24110.7 11163.9 6875.71 -5504.69 -28461.5 17800.8 -2393.39 -15004.6 15958.1 -20276.8 -19178.8 8631.77 18746.2 -1765 12900.8 -5002.13 1608.49 -13879.9 16143.8 32443.2 -22497.4 5744.6 -11535 10687.5 -22237 -7130.18 1775.75 5124.06 29769.3 5930.68 2581.44 19014.1 -8731.82 23639.9 27887.8 -14.6619 7448.61 -11687.8 -9893.12 22069.2 -22885.7 1590.59 3631.43 -1384.2 -25948.1 -11287.4 18167.2 7083.78 2298.19 -5867.34 17020.6 23436.5 -12062 -12165.1 3804.57 -27520.8 -4006.81 -2685.63 12851.8 25495.9 
-9489.56 10625.3 8283.71 -11044 -3118.34 -8301.4 12444.3 13466 15535 9814.79 -18388.5 25160.5 -30053.5 27441.9 17881.5 -2926.71 8284.29 15400.3 1510.59 15242.9 -2279.35 -19532 21930.7 8341.79 -1803.39 20117.3 670.152 -30961.3 -12602.6 -16076.3 -2484.52 -13616.4 26812.5 -14450 -2648.97 21935.3 8081.91 -13377.8 -10012.1 -5910.54 41.0588 551.004 21472.2 25052.5 679.451 -28709 -21826.4 -7278.03 10155 -19946.6 27566.1 -12995.3 19820.4 -26060.5 -30688.4 6782.41 14509.7 16897.5 -27876.5 22605.8 -25602 -7885.49 -17060.5 -8903.89 2904.16 22899.9 -19190.2 3872.69 22690.8 15493 4294.08 -28848.2 -28858.5 14301.7 -24142 21724.8 8942.02 -5910.38 24488.1 -16343.6 -26252.3 461.535 10549.2 3600.2 -14464.9 7861.6 -21642.3 18999.9 16510.1 -7448.38 6504.29 19212.1 4322.99 -7657.94 28749.9 -18916.3 28169 29187.8 2830.91 22857 5947.52 -20570.5 10154.1 -9211.5 -21970.9 13190.7 -7679.94 14698 -66.0988 -9168.16 1050.56 -20672.6 -27719.9 -16358.8 -1242 -13080.2 -1448.83 -10770 9146.69 -22729 -2514.97 -6798.11 24445.7 15605 27866.7 938.763 -19629.4 11882.6 
-7600.71 -5369.13 31211.4 1826.44 20515.8 -17690.7 21794.9 -581.382 4495.99 20652.9 28146.9 -5179.31 -22257.9 -9587.57 1697.13 -5636.15 -5663.35 4147.76 -820.03 5575.24 16118.9 21508.4 7379.76 3552.32 5283.48 23178.9 2804.02 -16472 16145.4 -9632.84 -3953.44 5719.14 -26138.8 -5788.95 27579.2 3919.63 5349.15 8944.94 -25816.9 10612.9 -14038.6 -27413 21020.2 20642.5 -12640.7 -27120.5 16707.4 -2142.92 3433.07 25976.9 1698.22 2365.22 -13060 -2302.18 19370.7 -1434.02 17655.6 -24634.8 -8265.51 -14847.4 -10118.1 2167.95 17650.7 23388.6 -16133.2 -4422.83 2129.13 25730.5 -8416.26 -8920.58 27631.6 -5257.9 -1552.05 26980.2 -12321.8 20671.9 -25548.5 -9195.22 -7833.83 9307.96 8810.55 -9200.32 18209.7 19989 11330.9 -26448.3 -10224.9 24263.9 22090.5 -5270.97 -3802.27 4416.07 -21018.8 12966.6 14932.7 -22271.3 12598 21158.4 -11.3123 -879.124 22900.2 -2772.59 -5490.86 3158.36 18633 -16811.1 4435.73 -11123.3 6831.22 -1349.7 5450.43 -9351.92 -17100.9 -192.665 8850.99 -29696 -1951.79 -20218.1 -1399.19 2852.75 11755.7 21568.5 10755.2 -10633 6298.21 18911.5 13542.4 -3193.53 
